FANN_FLO_2.1
num_layers=3
learning_rate=0.700000
connection_rate=1.000000
network_type=0
learning_momentum=0.000000
training_algorithm=2
train_error_function=1
train_stop_function=0
cascade_output_change_fraction=0.010000
quickprop_decay=-0.000100
quickprop_mu=1.750000
rprop_increase_factor=1.200000
rprop_decrease_factor=0.500000
rprop_delta_min=0.000000
rprop_delta_max=50.000000
rprop_delta_zero=0.100000
cascade_output_stagnation_epochs=12
cascade_candidate_change_fraction=0.010000
cascade_candidate_stagnation_epochs=12
cascade_max_out_epochs=150
cascade_min_out_epochs=50
cascade_max_cand_epochs=150
cascade_min_cand_epochs=50
cascade_num_candidate_groups=2
bit_fail_limit=3.49999994039535522461e-01
cascade_candidate_limit=1.00000000000000000000e+03
cascade_weight_multiplier=4.00000005960464477539e-01
cascade_activation_functions_count=10
cascade_activation_functions=3 5 7 8 10 11 14 15 16 17 
cascade_activation_steepnesses_count=4
cascade_activation_steepnesses=2.50000000000000000000e-01 5.00000000000000000000e-01 7.50000000000000000000e-01 1.00000000000000000000e+00 
layer_sizes=257 131 11 
scale_included=0
neurons (num_inputs, activation_function, activation_steepness)=(0, 0, 0.00000000000000000000e+00) (0, 0, 0.00000000000000000000e+00) (0, 0, 0.00000000000000000000e+00) (0, 0, 0.00000000000000000000e+00) (0, 0, 0.00000000000000000000e+00) (0, 0, 0.00000000000000000000e+00) (0, 0, 0.00000000000000000000e+00) (0, 0, 0.00000000000000000000e+00) (0, 0, 0.00000000000000000000e+00) (0, 0, 0.00000000000000000000e+00) (0, 0, 0.00000000000000000000e+00) (0, 0, 0.00000000000000000000e+00) (0, 0, 0.00000000000000000000e+00) (0, 0, 0.00000000000000000000e+00) (0, 0, 0.00000000000000000000e+00) (0, 0, 0.00000000000000000000e+00) (0, 0, 0.00000000000000000000e+00) (0, 0, 0.00000000000000000000e+00) (0, 0, 0.00000000000000000000e+00) (0, 0, 0.00000000000000000000e+00) (0, 0, 0.00000000000000000000e+00) (0, 0, 0.00000000000000000000e+00) (0, 0, 0.00000000000000000000e+00) (0, 0, 0.00000000000000000000e+00) (0, 0, 0.00000000000000000000e+00) (0, 0, 0.00000000000000000000e+00) (0, 0, 0.00000000000000000000e+00) (0, 0, 0.00000000000000000000e+00) (0, 0, 0.00000000000000000000e+00) (0, 0, 0.00000000000000000000e+00) (0, 0, 0.00000000000000000000e+00) (0, 0, 0.00000000000000000000e+00) (0, 0, 0.00000000000000000000e+00) (0, 0, 0.00000000000000000000e+00) (0, 0, 0.00000000000000000000e+00) (0, 0, 0.00000000000000000000e+00) (0, 0, 0.00000000000000000000e+00) (0, 0, 0.00000000000000000000e+00) (0, 0, 0.00000000000000000000e+00) (0, 0, 0.00000000000000000000e+00) (0, 0, 0.00000000000000000000e+00) (0, 0, 0.00000000000000000000e+00) (0, 0, 0.00000000000000000000e+00) (0, 0, 0.00000000000000000000e+00) (0, 0, 0.00000000000000000000e+00) (0, 0, 0.00000000000000000000e+00) (0, 0, 0.00000000000000000000e+00) (0, 0, 0.00000000000000000000e+00) (0, 0, 0.00000000000000000000e+00) (0, 0, 0.00000000000000000000e+00) (0, 0, 0.00000000000000000000e+00) (0, 0, 0.00000000000000000000e+00) (0, 0, 0.00000000000000000000e+00) (0, 0, 0.00000000000000000000e+00) (0, 0, 0.00000000000000000000e+00) (0, 0, 0.00000000000000000000e+00) (0, 0, 0.00000000000000000000e+00) (0, 0, 0.00000000000000000000e+00) (0, 0, 0.00000000000000000000e+00) (0, 0, 0.00000000000000000000e+00) (0, 0, 0.00000000000000000000e+00) (0, 0, 0.00000000000000000000e+00) (0, 0, 0.00000000000000000000e+00) (0, 0, 0.00000000000000000000e+00) (0, 0, 0.00000000000000000000e+00) (0, 0, 0.00000000000000000000e+00) (0, 0, 0.00000000000000000000e+00) (0, 0, 0.00000000000000000000e+00) (0, 0, 0.00000000000000000000e+00) (0, 0, 0.00000000000000000000e+00) (0, 0, 0.00000000000000000000e+00) (0, 0, 0.00000000000000000000e+00) (0, 0, 0.00000000000000000000e+00) (0, 0, 0.00000000000000000000e+00) (0, 0, 0.00000000000000000000e+00) (0, 0, 0.00000000000000000000e+00) (0, 0, 0.00000000000000000000e+00) (0, 0, 0.00000000000000000000e+00) (0, 0, 0.00000000000000000000e+00) (0, 0, 0.00000000000000000000e+00) (0, 0, 0.00000000000000000000e+00) (0, 0, 0.00000000000000000000e+00) (0, 0, 0.00000000000000000000e+00) (0, 0, 0.00000000000000000000e+00) (0, 0, 0.00000000000000000000e+00) (0, 0, 0.00000000000000000000e+00) (0, 0, 0.00000000000000000000e+00) (0, 0, 0.00000000000000000000e+00) (0, 0, 0.00000000000000000000e+00) (0, 0, 0.00000000000000000000e+00) (0, 0, 0.00000000000000000000e+00) (0, 0, 0.00000000000000000000e+00) (0, 0, 0.00000000000000000000e+00) (0, 0, 0.00000000000000000000e+00) (0, 0, 0.00000000000000000000e+00) (0, 0, 0.00000000000000000000e+00) (0, 0, 0.00000000000000000000e+00) (0, 0, 0.00000000000000000000e+00) (0, 0, 0.00000000000000000000e+00) (0, 0, 0.00000000000000000000e+00) (0, 0, 0.00000000000000000000e+00) (0, 0, 0.00000000000000000000e+00) (0, 0, 0.00000000000000000000e+00) (0, 0, 0.00000000000000000000e+00) (0, 0, 0.00000000000000000000e+00) (0, 0, 0.00000000000000000000e+00) (0, 0, 0.00000000000000000000e+00) (0, 0, 0.00000000000000000000e+00) (0, 0, 0.00000000000000000000e+00) (0, 0, 0.00000000000000000000e+00) (0, 0, 0.00000000000000000000e+00) (0, 0, 0.00000000000000000000e+00) (0, 0, 0.00000000000000000000e+00) (0, 0, 0.00000000000000000000e+00) (0, 0, 0.00000000000000000000e+00) (0, 0, 0.00000000000000000000e+00) (0, 0, 0.00000000000000000000e+00) (0, 0, 0.00000000000000000000e+00) (0, 0, 0.00000000000000000000e+00) (0, 0, 0.00000000000000000000e+00) (0, 0, 0.00000000000000000000e+00) (0, 0, 0.00000000000000000000e+00) (0, 0, 0.00000000000000000000e+00) (0, 0, 0.00000000000000000000e+00) (0, 0, 0.00000000000000000000e+00) (0, 0, 0.00000000000000000000e+00) (0, 0, 0.00000000000000000000e+00) (0, 0, 0.00000000000000000000e+00) (0, 0, 0.00000000000000000000e+00) (0, 0, 0.00000000000000000000e+00) (0, 0, 0.00000000000000000000e+00) (0, 0, 0.00000000000000000000e+00) (0, 0, 0.00000000000000000000e+00) (0, 0, 0.00000000000000000000e+00) (0, 0, 0.00000000000000000000e+00) (0, 0, 0.00000000000000000000e+00) (0, 0, 0.00000000000000000000e+00) (0, 0, 0.00000000000000000000e+00) (0, 0, 0.00000000000000000000e+00) (0, 0, 0.00000000000000000000e+00) (0, 0, 0.00000000000000000000e+00) (0, 0, 0.00000000000000000000e+00) (0, 0, 0.00000000000000000000e+00) (0, 0, 0.00000000000000000000e+00) (0, 0, 0.00000000000000000000e+00) (0, 0, 0.00000000000000000000e+00) (0, 0, 0.00000000000000000000e+00) (0, 0, 0.00000000000000000000e+00) (0, 0, 0.00000000000000000000e+00) (0, 0, 0.00000000000000000000e+00) (0, 0, 0.00000000000000000000e+00) (0, 0, 0.00000000000000000000e+00) (0, 0, 0.00000000000000000000e+00) (0, 0, 0.00000000000000000000e+00) (0, 0, 0.00000000000000000000e+00) (0, 0, 0.00000000000000000000e+00) (0, 0, 0.00000000000000000000e+00) (0, 0, 0.00000000000000000000e+00) (0, 0, 0.00000000000000000000e+00) (0, 0, 0.00000000000000000000e+00) (0, 0, 0.00000000000000000000e+00) (0, 0, 0.00000000000000000000e+00) (0, 0, 0.00000000000000000000e+00) (0, 0, 0.00000000000000000000e+00) (0, 0, 0.00000000000000000000e+00) (0, 0, 0.00000000000000000000e+00) (0, 0, 0.00000000000000000000e+00) (0, 0, 0.00000000000000000000e+00) (0, 0, 0.00000000000000000000e+00) (0, 0, 0.00000000000000000000e+00) (0, 0, 0.00000000000000000000e+00) (0, 0, 0.00000000000000000000e+00) (0, 0, 0.00000000000000000000e+00) (0, 0, 0.00000000000000000000e+00) (0, 0, 0.00000000000000000000e+00) (0, 0, 0.00000000000000000000e+00) (0, 0, 0.00000000000000000000e+00) (0, 0, 0.00000000000000000000e+00) (0, 0, 0.00000000000000000000e+00) (0, 0, 0.00000000000000000000e+00) (0, 0, 0.00000000000000000000e+00) (0, 0, 0.00000000000000000000e+00) (0, 0, 0.00000000000000000000e+00) (0, 0, 0.00000000000000000000e+00) (0, 0, 0.00000000000000000000e+00) (0, 0, 0.00000000000000000000e+00) (0, 0, 0.00000000000000000000e+00) (0, 0, 0.00000000000000000000e+00) (0, 0, 0.00000000000000000000e+00) (0, 0, 0.00000000000000000000e+00) (0, 0, 0.00000000000000000000e+00) (0, 0, 0.00000000000000000000e+00) (0, 0, 0.00000000000000000000e+00) (0, 0, 0.00000000000000000000e+00) (0, 0, 0.00000000000000000000e+00) (0, 0, 0.00000000000000000000e+00) (0, 0, 0.00000000000000000000e+00) (0, 0, 0.00000000000000000000e+00) (0, 0, 0.00000000000000000000e+00) (0, 0, 0.00000000000000000000e+00) (0, 0, 0.00000000000000000000e+00) (0, 0, 0.00000000000000000000e+00) (0, 0, 0.00000000000000000000e+00) (0, 0, 0.00000000000000000000e+00) (0, 0, 0.00000000000000000000e+00) (0, 0, 0.00000000000000000000e+00) (0, 0, 0.00000000000000000000e+00) (0, 0, 0.00000000000000000000e+00) (0, 0, 0.00000000000000000000e+00) (0, 0, 0.00000000000000000000e+00) (0, 0, 0.00000000000000000000e+00) (0, 0, 0.00000000000000000000e+00) (0, 0, 0.00000000000000000000e+00) (0, 0, 0.00000000000000000000e+00) (0, 0, 0.00000000000000000000e+00) (0, 0, 0.00000000000000000000e+00) (0, 0, 0.00000000000000000000e+00) (0, 0, 0.00000000000000000000e+00) (0, 0, 0.00000000000000000000e+00) (0, 0, 0.00000000000000000000e+00) (0, 0, 0.00000000000000000000e+00) (0, 0, 0.00000000000000000000e+00) (0, 0, 0.00000000000000000000e+00) (0, 0, 0.00000000000000000000e+00) (0, 0, 0.00000000000000000000e+00) (0, 0, 0.00000000000000000000e+00) (0, 0, 0.00000000000000000000e+00) (0, 0, 0.00000000000000000000e+00) (0, 0, 0.00000000000000000000e+00) (0, 0, 0.00000000000000000000e+00) (0, 0, 0.00000000000000000000e+00) (0, 0, 0.00000000000000000000e+00) (0, 0, 0.00000000000000000000e+00) (0, 0, 0.00000000000000000000e+00) (0, 0, 0.00000000000000000000e+00) (0, 0, 0.00000000000000000000e+00) (0, 0, 0.00000000000000000000e+00) (0, 0, 0.00000000000000000000e+00) (0, 0, 0.00000000000000000000e+00) (0, 0, 0.00000000000000000000e+00) (0, 0, 0.00000000000000000000e+00) (0, 0, 0.00000000000000000000e+00) (0, 0, 0.00000000000000000000e+00) (0, 0, 0.00000000000000000000e+00) (0, 0, 0.00000000000000000000e+00) (0, 0, 0.00000000000000000000e+00) (0, 0, 0.00000000000000000000e+00) (0, 0, 0.00000000000000000000e+00) (0, 0, 0.00000000000000000000e+00) (0, 0, 0.00000000000000000000e+00) (0, 0, 0.00000000000000000000e+00) (0, 0, 0.00000000000000000000e+00) (0, 0, 0.00000000000000000000e+00) (0, 0, 0.00000000000000000000e+00) (0, 0, 0.00000000000000000000e+00) (0, 0, 0.00000000000000000000e+00) (0, 0, 0.00000000000000000000e+00) (257, 5, 5.00000000000000000000e-01) (257, 5, 5.00000000000000000000e-01) (257, 5, 5.00000000000000000000e-01) (257, 5, 5.00000000000000000000e-01) (257, 5, 5.00000000000000000000e-01) (257, 5, 5.00000000000000000000e-01) (257, 5, 5.00000000000000000000e-01) (257, 5, 5.00000000000000000000e-01) (257, 5, 5.00000000000000000000e-01) (257, 5, 5.00000000000000000000e-01) (257, 5, 5.00000000000000000000e-01) (257, 5, 5.00000000000000000000e-01) (257, 5, 5.00000000000000000000e-01) (257, 5, 5.00000000000000000000e-01) (257, 5, 5.00000000000000000000e-01) (257, 5, 5.00000000000000000000e-01) (257, 5, 5.00000000000000000000e-01) (257, 5, 5.00000000000000000000e-01) (257, 5, 5.00000000000000000000e-01) (257, 5, 5.00000000000000000000e-01) (257, 5, 5.00000000000000000000e-01) (257, 5, 5.00000000000000000000e-01) (257, 5, 5.00000000000000000000e-01) (257, 5, 5.00000000000000000000e-01) (257, 5, 5.00000000000000000000e-01) (257, 5, 5.00000000000000000000e-01) (257, 5, 5.00000000000000000000e-01) (257, 5, 5.00000000000000000000e-01) (257, 5, 5.00000000000000000000e-01) (257, 5, 5.00000000000000000000e-01) (257, 5, 5.00000000000000000000e-01) (257, 5, 5.00000000000000000000e-01) (257, 5, 5.00000000000000000000e-01) (257, 5, 5.00000000000000000000e-01) (257, 5, 5.00000000000000000000e-01) (257, 5, 5.00000000000000000000e-01) (257, 5, 5.00000000000000000000e-01) (257, 5, 5.00000000000000000000e-01) (257, 5, 5.00000000000000000000e-01) (257, 5, 5.00000000000000000000e-01) (257, 5, 5.00000000000000000000e-01) (257, 5, 5.00000000000000000000e-01) (257, 5, 5.00000000000000000000e-01) (257, 5, 5.00000000000000000000e-01) (257, 5, 5.00000000000000000000e-01) (257, 5, 5.00000000000000000000e-01) (257, 5, 5.00000000000000000000e-01) (257, 5, 5.00000000000000000000e-01) (257, 5, 5.00000000000000000000e-01) (257, 5, 5.00000000000000000000e-01) (257, 5, 5.00000000000000000000e-01) (257, 5, 5.00000000000000000000e-01) (257, 5, 5.00000000000000000000e-01) (257, 5, 5.00000000000000000000e-01) (257, 5, 5.00000000000000000000e-01) (257, 5, 5.00000000000000000000e-01) (257, 5, 5.00000000000000000000e-01) (257, 5, 5.00000000000000000000e-01) (257, 5, 5.00000000000000000000e-01) (257, 5, 5.00000000000000000000e-01) (257, 5, 5.00000000000000000000e-01) (257, 5, 5.00000000000000000000e-01) (257, 5, 5.00000000000000000000e-01) (257, 5, 5.00000000000000000000e-01) (257, 5, 5.00000000000000000000e-01) (257, 5, 5.00000000000000000000e-01) (257, 5, 5.00000000000000000000e-01) (257, 5, 5.00000000000000000000e-01) (257, 5, 5.00000000000000000000e-01) (257, 5, 5.00000000000000000000e-01) (257, 5, 5.00000000000000000000e-01) (257, 5, 5.00000000000000000000e-01) (257, 5, 5.00000000000000000000e-01) (257, 5, 5.00000000000000000000e-01) (257, 5, 5.00000000000000000000e-01) (257, 5, 5.00000000000000000000e-01) (257, 5, 5.00000000000000000000e-01) (257, 5, 5.00000000000000000000e-01) (257, 5, 5.00000000000000000000e-01) (257, 5, 5.00000000000000000000e-01) (257, 5, 5.00000000000000000000e-01) (257, 5, 5.00000000000000000000e-01) (257, 5, 5.00000000000000000000e-01) (257, 5, 5.00000000000000000000e-01) (257, 5, 5.00000000000000000000e-01) (257, 5, 5.00000000000000000000e-01) (257, 5, 5.00000000000000000000e-01) (257, 5, 5.00000000000000000000e-01) (257, 5, 5.00000000000000000000e-01) (257, 5, 5.00000000000000000000e-01) (257, 5, 5.00000000000000000000e-01) (257, 5, 5.00000000000000000000e-01) (257, 5, 5.00000000000000000000e-01) (257, 5, 5.00000000000000000000e-01) (257, 5, 5.00000000000000000000e-01) (257, 5, 5.00000000000000000000e-01) (257, 5, 5.00000000000000000000e-01) (257, 5, 5.00000000000000000000e-01) (257, 5, 5.00000000000000000000e-01) (257, 5, 5.00000000000000000000e-01) (257, 5, 5.00000000000000000000e-01) (257, 5, 5.00000000000000000000e-01) (257, 5, 5.00000000000000000000e-01) (257, 5, 5.00000000000000000000e-01) (257, 5, 5.00000000000000000000e-01) (257, 5, 5.00000000000000000000e-01) (257, 5, 5.00000000000000000000e-01) (257, 5, 5.00000000000000000000e-01) (257, 5, 5.00000000000000000000e-01) (257, 5, 5.00000000000000000000e-01) (257, 5, 5.00000000000000000000e-01) (257, 5, 5.00000000000000000000e-01) (257, 5, 5.00000000000000000000e-01) (257, 5, 5.00000000000000000000e-01) (257, 5, 5.00000000000000000000e-01) (257, 5, 5.00000000000000000000e-01) (257, 5, 5.00000000000000000000e-01) (257, 5, 5.00000000000000000000e-01) (257, 5, 5.00000000000000000000e-01) (257, 5, 5.00000000000000000000e-01) (257, 5, 5.00000000000000000000e-01) (257, 5, 5.00000000000000000000e-01) (257, 5, 5.00000000000000000000e-01) (257, 5, 5.00000000000000000000e-01) (257, 5, 5.00000000000000000000e-01) (257, 5, 5.00000000000000000000e-01) (257, 5, 5.00000000000000000000e-01) (257, 5, 5.00000000000000000000e-01) (257, 5, 5.00000000000000000000e-01) (257, 5, 5.00000000000000000000e-01) (0, 5, 0.00000000000000000000e+00) (131, 5, 5.00000000000000000000e-01) (131, 5, 5.00000000000000000000e-01) (131, 5, 5.00000000000000000000e-01) (131, 5, 5.00000000000000000000e-01) (131, 5, 5.00000000000000000000e-01) (131, 5, 5.00000000000000000000e-01) (131, 5, 5.00000000000000000000e-01) (131, 5, 5.00000000000000000000e-01) (131, 5, 5.00000000000000000000e-01) (131, 5, 5.00000000000000000000e-01) (0, 5, 0.00000000000000000000e+00) 
connections (connected_to_neuron, weight)=(0, 3.98045480251312255859e-01) (1, 1.85190942138433456421e-02) (2, -9.88847762346267700195e-02) (3, -2.07969658076763153076e-02) (4, 1.38461977243423461914e-01) (5, 3.07026505470275878906e-01) (6, -5.71263507008552551270e-02) (7, 4.65405955910682678223e-02) (8, -3.87139081954956054688e-01) (9, -9.65364500880241394043e-02) (10, -6.45611509680747985840e-02) (11, 3.03161680698394775391e-01) (12, 3.13493967056274414062e-01) (13, 1.50000000000000000000e+03) (14, 1.50000000000000000000e+03) (15, 1.50000000000000000000e+03) (16, -7.90405645966529846191e-02) (17, -2.64038946479558944702e-02) (18, 1.04699745774269104004e-01) (19, -1.81729011237621307373e-02) (20, 7.99851864576339721680e-02) (21, 1.97954662144184112549e-02) (22, -7.28493705391883850098e-02) (23, 6.40976652503013610840e-02) (24, -6.88009858131408691406e-02) (25, -1.06293536722660064697e-01) (26, -1.71532314270734786987e-02) (27, -3.84241454303264617920e-02) (28, -1.42447566986083984375e+00) (29, 8.08602869510650634766e-01) (30, 8.07736441493034362793e-02) (31, 3.10180127620697021484e-01) (32, -5.70835359394550323486e-02) (33, -5.88037557899951934814e-02) (34, 3.73415723443031311035e-02) (35, -8.81127044558525085449e-02) (36, -1.04653246700763702393e-01) (37, 3.44800144433975219727e-01) (38, -1.11906237900257110596e-01) (39, 3.61626744270324707031e-02) (40, 4.27087873220443725586e-01) (41, 1.26185521483421325684e-01) (42, -2.65287701040506362915e-03) (43, 7.22197294235229492188e-02) (44, -6.80219352245330810547e-01) (45, 3.13340693712234497070e-01) (46, 3.47921550273895263672e-01) (47, 4.38203215599060058594e-02) (48, 8.60926695168018341064e-03) (49, 1.84885896742343902588e-02) (50, 9.08577814698219299316e-03) (51, -6.19668774306774139404e-02) (52, 2.87282794713973999023e-01) (53, -1.25068813562393188477e-01) (54, -1.70406941324472427368e-02) (55, -2.86718271672725677490e-02) (56, 8.28937515616416931152e-02) (57, -5.77606842853128910065e-05) (58, 1.95762002840638160706e-03) (59, 9.35743525624275207520e-02) (60, 7.49254645779728889465e-03) (61, 4.02762651443481445312e-01) (62, 2.34602138400077819824e-01) (63, 3.34602475166320800781e-01) (64, -4.13905791938304901123e-02) (65, -7.59132951498031616211e-02) (66, -1.26685678958892822266e-01) (67, 1.21787391602993011475e-01) (68, -1.23735539615154266357e-01) (69, -7.70336240530014038086e-02) (70, -4.01383545249700546265e-03) (71, 2.62684002518653869629e-02) (72, 9.43827554583549499512e-02) (73, -3.45657393336296081543e-02) (74, 6.38550966978073120117e-02) (75, 4.45410162210464477539e-02) (76, 5.60589507222175598145e-02) (77, 7.02925398945808410645e-02) (78, -1.42387926578521728516e-01) (79, 2.77935057878494262695e-01) (80, -9.03082340955734252930e-02) (81, 9.63461399078369140625e-02) (82, 1.22370328754186630249e-02) (83, -9.54992696642875671387e-03) (84, 4.83248420059680938721e-02) (85, 1.61936320364475250244e-02) (86, -4.51996400952339172363e-02) (87, 2.14450210332870483398e-02) (88, 2.75152754038572311401e-02) (89, 4.83676530420780181885e-02) (90, 9.85291749238967895508e-02) (91, 1.10673479735851287842e-01) (92, 3.09532620012760162354e-02) (93, 1.64280850440263748169e-02) (94, -1.49429412558674812317e-02) (95, -5.38489110767841339111e-02) (96, -5.31352385878562927246e-02) (97, 1.99965946376323699951e-02) (98, -3.07504814118146896362e-02) (99, 3.02600599825382232666e-02) (100, -5.69625049829483032227e-02) (101, -7.34638841822743415833e-03) (102, 2.41252519190311431885e-02) (103, -3.88510413467884063721e-02) (104, -5.38140647113323211670e-02) (105, -4.52263578772544860840e-02) (106, 8.20352882146835327148e-02) (107, -2.96098031103610992432e-02) (108, 4.66789603233337402344e-02) (109, -1.08527736738324165344e-02) (110, 1.45090147852897644043e-01) (111, -1.54565483331680297852e-01) (112, 3.84270213544368743896e-02) (113, 2.73501649498939514160e-02) (114, 8.98469910025596618652e-02) (115, -4.46251854300498962402e-02) (116, -9.15336012840270996094e-02) (117, 5.88435865938663482666e-02) (118, 9.71486675553023815155e-04) (119, -1.81261263787746429443e-02) (120, 4.21380966901779174805e-01) (121, 5.85943162441253662109e-02) (122, -9.91484224796295166016e-02) (123, 3.58332365751266479492e-01) (124, -3.75922285020351409912e-02) (125, 1.01311877369880676270e-01) (126, 1.53425745666027069092e-02) (127, -2.78160944581031799316e-02) (128, -3.16183418035507202148e-02) (129, -3.44515341566875576973e-04) (130, -9.54110547900199890137e-02) (131, -3.08519341051578521729e-02) (132, 5.98751083016395568848e-02) (133, 2.20304895192384719849e-02) (134, -4.45225089788436889648e-02) (135, -1.34226176887750625610e-02) (136, 1.13120578229427337646e-01) (137, -6.36786594986915588379e-03) (138, 7.25915208458900451660e-02) (139, 5.67070059478282928467e-02) (140, -2.36026830971240997314e-02) (141, -4.53494228422641754150e-02) (142, -2.74746846407651901245e-02) (143, -8.29113498330116271973e-02) (144, 7.49048143625259399414e-02) (145, 7.04571381211280822754e-02) (146, 8.58299285173416137695e-02) (147, 6.85063470155000686646e-03) (148, -6.77013099193572998047e-02) (149, -2.14513596147298812866e-02) (150, -4.78549934923648834229e-02) (151, 6.62950426340103149414e-02) (152, 8.01187828183174133301e-02) (153, 4.96545061469078063965e-02) (154, 2.49661449342966079712e-02) (155, 4.97917458415031433105e-02) (156, 2.69782170653343200684e-02) (157, -2.66096144914627075195e-02) (158, -1.92117912229150533676e-03) (159, -1.24147944152355194092e-01) (160, 8.80087167024612426758e-02) (161, 7.41704553365707397461e-02) (162, -9.08601209521293640137e-02) (163, -2.58712414652109146118e-02) (164, -8.09113904833793640137e-02) (165, 7.93183594942092895508e-02) (166, -1.47197201848030090332e-01) (167, 5.14004267752170562744e-02) (168, -1.21904090046882629395e-02) (169, 4.90492209792137145996e-02) (170, -1.05187892913818359375e-02) (171, -4.28928025066852569580e-02) (172, 1.31668478250503540039e-01) (173, 4.88110929727554321289e-02) (174, -4.72472887486219406128e-03) (175, 1.06058254837989807129e-01) (176, 3.58412526547908782959e-02) (177, 7.15965405106544494629e-02) (178, 8.25292766094207763672e-02) (179, 2.17241887003183364868e-02) (180, 6.97309733368456363678e-04) (181, -5.49754779785871505737e-03) (182, 1.85285881161689758301e-02) (183, 3.99369597434997558594e-02) (184, 5.18387975171208381653e-03) (185, -9.51137244701385498047e-02) (186, 8.61093923449516296387e-02) (187, -4.57498505711555480957e-02) (188, -5.96652626991271972656e-02) (189, -4.57273982465267181396e-02) (190, 8.93876031041145324707e-02) (191, 2.75148497894406318665e-03) (192, 3.95678170025348663330e-02) (193, -7.83341601490974426270e-02) (194, 4.55455303192138671875e-01) (195, -9.36798378825187683105e-02) (196, -6.17917720228433609009e-03) (197, -4.59977686405181884766e-02) (198, 8.14955905079841613770e-02) (199, -5.99248260259628295898e-02) (200, -9.30357426404953002930e-02) (201, -1.85862034559249877930e-02) (202, -8.88519734144210815430e-02) (203, -4.88924495875835418701e-02) (204, -7.13465809822082519531e-02) (205, 1.01671842858195304871e-02) (206, 8.19213092327117919922e-02) (207, 7.01204910874366760254e-02) (208, -4.23506125807762145996e-02) (209, 4.89382259547710418701e-02) (210, 4.08158637583255767822e-02) (211, 1.91123094409704208374e-02) (212, -3.79328019917011260986e-02) (213, 1.80603023618459701538e-02) (214, -1.52320973575115203857e-02) (215, -3.74688431620597839355e-02) (216, -1.82865262031555175781e-02) (217, 6.46852105855941772461e-02) (218, -7.97691941261291503906e-02) (219, 8.74549746513366699219e-02) (220, 1.14808395504951477051e-01) (221, 1.14055089652538299561e-01) (222, 1.19163552299141883850e-02) (223, -5.50244515761733055115e-03) (224, -7.12286680936813354492e-03) (225, 3.64939263090491294861e-03) (226, -3.71214687824249267578e-01) (227, 1.20938662439584732056e-03) (228, -6.93741664290428161621e-02) (229, -7.77758434414863586426e-02) (230, 2.05820659175515174866e-03) (231, 8.33941772580146789551e-02) (232, 1.31657004356384277344e-01) (233, 1.18742408230900764465e-02) (234, -4.44493591785430908203e-02) (235, 3.17934155464172363281e-03) (236, 5.53803443908691406250e-02) (237, -6.09890446066856384277e-02) (238, -9.20061543583869934082e-02) (239, 4.81806874275207519531e-01) (240, -6.30954951047897338867e-02) (241, 4.53310012817382812500e-01) (242, 2.72676527500152587891e-01) (243, -2.69845910370349884033e-02) (244, -8.91925022006034851074e-02) (245, 4.95955310761928558350e-02) (246, 2.58915722370147705078e-01) (247, -3.30413877964019775391e-02) (248, 3.86380136013031005859e-01) (249, 1.11935228109359741211e-01) (250, -4.37792099546641111374e-04) (251, 1.09260782599449157715e-01) (252, 4.90701086819171905518e-02) (253, 7.84633457660675048828e-02) (254, -8.07804092764854431152e-02) (255, 1.28324419260025024414e-01) (256, -1.16175292059779167175e-02) (0, 1.25579029321670532227e-01) (1, 1.85065165162086486816e-01) (2, 3.87106060981750488281e-01) (3, 5.30865132808685302734e-01) (4, 3.36471110582351684570e-01) (5, 2.66656875610351562500e-01) (6, 4.33966845273971557617e-01) (7, 3.24006855487823486328e-01) (8, 3.75995367765426635742e-01) (9, 3.71510863304138183594e-01) (10, 4.60345119237899780273e-01) (11, 4.31077003479003906250e-01) (12, 2.88424402475357055664e-01) (13, 1.50000000000000000000e+03) (14, 1.50000000000000000000e+03) (15, 1.50000000000000000000e+03) (16, 5.24330198764801025391e-01) (17, 4.26854342222213745117e-01) (18, 4.94621396064758300781e-01) (19, 4.97754603624343872070e-01) (20, 4.18434798717498779297e-01) (21, 5.14671683311462402344e-01) (22, 5.37803173065185546875e-01) (23, 3.68966609239578247070e-01) (24, 3.83325755596160888672e-01) (25, 3.32683652639389038086e-01) (26, 4.31259751319885253906e-01) (27, 3.91586005687713623047e-01) (28, 2.01153740286827087402e-01) (29, -5.45780181884765625000e-01) (30, -9.36493501067161560059e-02) (31, 5.57800568640232086182e-02) (32, 5.90225815773010253906e-01) (33, 3.92310768365859985352e-01) (34, 5.18291652202606201172e-01) (35, 3.91434341669082641602e-01) (36, 3.11285495758056640625e-01) (37, 4.33603465557098388672e-01) (38, 3.25532615184783935547e-01) (39, 5.21331310272216796875e-01) (40, -5.86616881191730499268e-02) (41, 3.13168108463287353516e-01) (42, 4.32668566703796386719e-01) (43, 2.99635618925094604492e-01) (44, 4.39457327127456665039e-01) (45, -4.54767644405364990234e-01) (46, -3.52991580963134765625e-01) (47, 1.81041032075881958008e-01) (48, 5.00159919261932373047e-01) (49, 2.05910682678222656250e-01) (50, 4.51310425996780395508e-01) (51, 3.76064896583557128906e-01) (52, 4.74309474229812622070e-02) (53, 3.30447584390640258789e-01) (54, 1.06139346957206726074e-01) (55, 4.94999200105667114258e-01) (56, 3.84023725986480712891e-01) (57, 3.54840397834777832031e-01) (58, 3.77840131521224975586e-01) (59, 5.23631811141967773438e-01) (60, 4.27647799253463745117e-01) (61, 3.89382511377334594727e-01) (62, 3.39492380619049072266e-01) (63, 4.49608653783798217773e-01) (64, 6.06499493122100830078e-01) (65, 5.08645474910736083984e-01) (66, 6.40207171440124511719e-01) (67, 3.50572258234024047852e-01) (68, 3.85713607072830200195e-01) (69, 3.99075329303741455078e-01) (70, 5.17963945865631103516e-01) (71, 5.04448354244232177734e-01) (72, 4.32911247014999389648e-01) (73, 4.48869854211807250977e-01) (74, 5.28898775577545166016e-01) (75, 6.66677534580230712891e-01) (76, 6.63442075252532958984e-01) (77, 3.76358509063720703125e-01) (78, 3.74859243631362915039e-01) (79, 5.01286089420318603516e-01) (80, 4.83564913272857666016e-01) (81, 5.14465391635894775391e-01) (82, 4.27502274513244628906e-01) (83, 3.68688225746154785156e-01) (84, 5.33188462257385253906e-01) (85, 4.43871647119522094727e-01) (86, 4.45660352706909179688e-01) (87, 3.84349793195724487305e-01) (88, 4.07516360282897949219e-01) (89, 5.36722302436828613281e-01) (90, 4.69126075506210327148e-01) (91, 5.35897016525268554688e-01) (92, 4.60851311683654785156e-01) (93, 4.79609787464141845703e-01) (94, 4.89173352718353271484e-01) (95, 6.26629292964935302734e-01) (96, 4.93120908737182617188e-01) (97, 5.07961511611938476562e-01) (98, 3.96151781082153320312e-01) (99, 4.06757831573486328125e-01) (100, 4.55206215381622314453e-01) (101, 4.39691364765167236328e-01) (102, 4.53497916460037231445e-01) (103, 6.20219469070434570312e-01) (104, 4.13466423749923706055e-01) (105, 4.55900460481643676758e-01) (106, 3.70495617389678955078e-01) (107, 4.46966707706451416016e-01) (108, 5.17411291599273681641e-01) (109, 4.42715167999267578125e-01) (110, 4.81691360473632812500e-01) (111, 5.83406090736389160156e-01) (112, 4.69793766736984252930e-01) (113, 4.02559369802474975586e-01) (114, 3.73554855585098266602e-01) (115, 5.15163540840148925781e-01) (116, 4.00779664516448974609e-01) (117, 5.43779015541076660156e-01) (118, 4.58341687917709350586e-01) (119, 3.37267309427261352539e-01) (120, 3.47284227609634399414e-01) (121, 5.13118803501129150391e-01) (122, 3.44685524702072143555e-01) (123, 4.28516179323196411133e-01) (124, 4.44903373718261718750e-01) (125, 5.14814138412475585938e-01) (126, 5.24631559848785400391e-01) (127, 4.90868568420410156250e-01) (128, 5.30816495418548583984e-01) (129, 4.83406126499176025391e-01) (130, 3.09888005256652832031e-01) (131, 4.11141306161880493164e-01) (132, 4.16841596364974975586e-01) (133, 4.92890775203704833984e-01) (134, 4.54758644104003906250e-01) (135, 4.56792622804641723633e-01) (136, 3.99897992610931396484e-01) (137, 5.19487202167510986328e-01) (138, 5.25692284107208251953e-01) (139, 3.67737144231796264648e-01) (140, 6.81845366954803466797e-01) (141, 6.17726981639862060547e-01) (142, 5.80262243747711181641e-01) (143, 4.14081037044525146484e-01) (144, 4.18138325214385986328e-01) (145, 4.37779873609542846680e-01) (146, 3.01261454820632934570e-01) (147, 4.87471371889114379883e-01) (148, 4.72177326679229736328e-01) (149, 3.83994251489639282227e-01) (150, 4.67927098274230957031e-01) (151, 3.78019362688064575195e-01) (152, 4.05766129493713378906e-01) (153, 4.98178124427795410156e-01) (154, 5.11974036693572998047e-01) (155, 3.99177700281143188477e-01) (156, 4.36010986566543579102e-01) (157, 4.71116214990615844727e-01) (158, 6.47447228431701660156e-01) (159, 5.83523929119110107422e-01) (160, 4.08429801464080810547e-01) (161, 3.61277312040328979492e-01) (162, 3.67131829261779785156e-01) (163, 3.77836614847183227539e-01) (164, 3.54694634675979614258e-01) (165, 3.17224025726318359375e-01) (166, 4.46980237960815429688e-01) (167, 3.34574967622756958008e-01) (168, 3.05751353502273559570e-01) (169, 5.37461400032043457031e-01) (170, 5.22658765316009521484e-01) (171, 3.96298676729202270508e-01) (172, 4.47583198547363281250e-01) (173, 5.06054937839508056641e-01) (174, 4.73327666521072387695e-01) (175, 5.29682934284210205078e-01) (176, 3.91278088092803955078e-01) (177, 3.87336969375610351562e-01) (178, 3.88068407773971557617e-01) (179, 3.29727530479431152344e-01) (180, 4.75706905126571655273e-01) (181, 4.65406566858291625977e-01) (182, 4.61638778448104858398e-01) (183, 4.94504690170288085938e-01) (184, 4.70212966203689575195e-01) (185, 4.43758517503738403320e-01) (186, 3.66568207740783691406e-01) (187, 5.10401010513305664062e-01) (188, 4.79210704565048217773e-01) (189, 3.64790409803390502930e-01) (190, 6.79937183856964111328e-01) (191, 6.14973843097686767578e-01) (192, 3.51330280303955078125e-01) (193, 3.87252211570739746094e-01) (194, 4.76593315601348876953e-01) (195, 4.74645584821701049805e-01) (196, 3.63323450088500976562e-01) (197, 5.22588133811950683594e-01) (198, 4.61695700883865356445e-01) (199, 3.38884890079498291016e-01) (200, 5.31922817230224609375e-01) (201, 4.68586444854736328125e-01) (202, 3.72101515531539916992e-01) (203, 3.43426197767257690430e-01) (204, 4.32990700006484985352e-01) (205, 3.73291373252868652344e-01) (206, 3.98212313652038574219e-01) (207, 4.70122724771499633789e-01) (208, 4.81320261955261230469e-01) (209, 3.92058759927749633789e-01) (210, 3.74242991209030151367e-01) (211, 4.11390483379364013672e-01) (212, 4.40852165222167968750e-01) (213, 4.81128871440887451172e-01) (214, 5.18155574798583984375e-01) (215, 4.89768087863922119141e-01) (216, 4.27904009819030761719e-01) (217, 3.96286994218826293945e-01) (218, 4.92855519056320190430e-01) (219, 4.34693872928619384766e-01) (220, 6.59198403358459472656e-01) (221, 5.17558157444000244141e-01) (222, 5.73990166187286376953e-01) (223, 4.71277147531509399414e-01) (224, 5.08682489395141601562e-01) (225, 5.19626796245574951172e-01) (226, 3.95757794380187988281e-01) (227, 5.03801763057708740234e-01) (228, 2.46441617608070373535e-01) (229, 4.93438869714736938477e-01) (230, 4.64116394519805908203e-01) (231, 5.42966902256011962891e-01) (232, 4.42308723926544189453e-01) (233, 4.97653841972351074219e-01) (234, 4.43128824234008789062e-01) (235, 4.96337771415710449219e-01) (236, 5.39303600788116455078e-01) (237, 4.04119938611984252930e-01) (238, 4.10695642232894897461e-01) (239, 4.90506887435913085938e-01) (240, 4.10823613405227661133e-01) (241, 5.01630187034606933594e-01) (242, 2.73055464029312133789e-01) (243, 3.29041689634323120117e-01) (244, 3.80369901657104492188e-01) (245, 2.75002568960189819336e-01) (246, 3.04513156414031982422e-01) (247, 2.18652844429016113281e-01) (248, 4.54307943582534790039e-01) (249, 4.02592390775680541992e-01) (250, 5.53059816360473632812e-01) (251, 4.22174245119094848633e-01) (252, 4.41599369049072265625e-01) (253, 5.43444097042083740234e-01) (254, 5.07869124412536621094e-01) (255, 6.53632342815399169922e-01) (256, 4.61189359426498413086e-01) (0, -6.50541126728057861328e-01) (1, -3.52636665105819702148e-01) (2, -5.79291582107543945312e-01) (3, 3.71529817581176757812e-01) (4, 3.65903764963150024414e-01) (5, 2.54505246877670288086e-01) (6, 3.95262509584426879883e-01) (7, 3.08642297983169555664e-01) (8, 1.80145487189292907715e-01) (9, 1.80783972144126892090e-01) (10, 2.82835721969604492188e-01) (11, 2.71815568208694458008e-01) (12, 2.38794043660163879395e-01) (13, 1.50000000000000000000e+03) (14, 1.50000000000000000000e+03) (15, 1.50000000000000000000e+03) (16, 1.87403813004493713379e-01) (17, 1.31947413086891174316e-01) (18, 3.72421443462371826172e-01) (19, 1.54743149876594543457e-01) (20, 1.54308438301086425781e-01) (21, 5.52555844187736511230e-02) (22, -3.16389054059982299805e-02) (23, -1.35256052017211914062e-01) (24, 1.72092899680137634277e-01) (25, 3.13239693641662597656e-01) (26, 2.12600886821746826172e-01) (27, 1.82513773441314697266e-01) (28, 4.15064454078674316406e-01) (29, 7.43801534175872802734e-01) (30, 5.73054850101470947266e-02) (31, 2.96715229749679565430e-01) (32, 1.89351975917816162109e-01) (33, 3.80317941308021545410e-02) (34, 7.53741338849067687988e-02) (35, 1.55148193240165710449e-01) (36, 1.98323175311088562012e-01) (37, 2.22408324480056762695e-01) (38, 3.59651386737823486328e-01) (39, 2.58312433958053588867e-01) (40, 3.26800733804702758789e-01) (41, 1.73798203468322753906e-01) (42, 2.59687185287475585938e-01) (43, 1.93690016865730285645e-01) (44, 3.49263459444046020508e-01) (45, 6.88969254493713378906e-01) (46, 8.08243334293365478516e-01) (47, 3.58468145132064819336e-01) (48, 2.60435864329338073730e-02) (49, 6.74617439508438110352e-02) (50, 3.33629250526428222656e-02) (51, 1.67836815118789672852e-01) (52, 3.30194443464279174805e-01) (53, 2.32684239745140075684e-01) (54, 3.68984669446945190430e-01) (55, 3.02620381116867065430e-02) (56, -4.86412197351455688477e-02) (57, 1.53741270303726196289e-01) (58, 2.43634581565856933594e-01) (59, 2.04766839742660522461e-01) (60, 2.96156913042068481445e-01) (61, 8.24008509516716003418e-03) (62, 4.98155355453491210938e-02) (63, 2.07463711500167846680e-01) (64, -1.80026423186063766479e-03) (65, 1.50524139404296875000e-01) (66, 1.60684883594512939453e-01) (67, 2.65858978033065795898e-01) (68, 1.43148392438888549805e-01) (69, 3.42357635498046875000e-01) (70, 2.71951884031295776367e-01) (71, 3.21415036916732788086e-01) (72, 1.94896504282951354980e-01) (73, 2.74331867694854736328e-01) (74, 1.87241345643997192383e-01) (75, 2.21194833517074584961e-01) (76, 1.53897359967231750488e-01) (77, 5.24447321891784667969e-01) (78, 7.55469620227813720703e-01) (79, 1.48770749568939208984e-01) (80, 3.90385061502456665039e-01) (81, 1.47611469030380249023e-01) (82, 2.48213812708854675293e-01) (83, 2.72962987422943115234e-01) (84, 2.00595095753669738770e-01) (85, 3.05579632520675659180e-01) (86, 3.11715662479400634766e-01) (87, 2.57395058870315551758e-01) (88, 3.13014358282089233398e-01) (89, 2.01345190405845642090e-01) (90, 3.74244183301925659180e-01) (91, 2.01780170202255249023e-01) (92, 3.02350878715515136719e-01) (93, 3.16716969013214111328e-01) (94, 2.69994258880615234375e-01) (95, 1.89433619379997253418e-01) (96, 2.47893825173377990723e-01) (97, 2.93709486722946166992e-01) (98, 3.14554542303085327148e-01) (99, 2.66441255807876586914e-01) (100, 2.99434691667556762695e-01) (101, 3.27294915914535522461e-01) (102, 2.24471092224121093750e-01) (103, 2.39646166563034057617e-01) (104, 2.22809657454490661621e-01) (105, 3.56651902198791503906e-01) (106, 2.61030435562133789062e-01) (107, 3.03407669067382812500e-01) (108, 3.81750822067260742188e-01) (109, 1.62228971719741821289e-01) (110, 3.00996631383895874023e-01) (111, 2.07170248031616210938e-01) (112, 3.65054845809936523438e-01) (113, 3.14161390066146850586e-01) (114, 2.71387457847595214844e-01) (115, 2.26680964231491088867e-01) (116, 2.94493675231933593750e-01) (117, 1.64364784955978393555e-01) (118, 1.87829211354255676270e-01) (119, 4.19424474239349365234e-02) (120, 3.46571177244186401367e-01) (121, 3.83656650781631469727e-01) (122, 2.51950591802597045898e-01) (123, 3.81221354007720947266e-01) (124, 2.94461101293563842773e-01) (125, 3.33338350057601928711e-01) (126, 2.61746644973754882812e-01) (127, 2.79089391231536865234e-01) (128, 3.30689936876296997070e-01) (129, 2.80628621578216552734e-01) (130, 3.88579040765762329102e-01) (131, 2.26125955581665039062e-01) (132, 3.73403549194335937500e-01) (133, 1.98803231120109558105e-01) (134, 1.42692893743515014648e-01) (135, 1.43159434199333190918e-01) (136, 2.59127557277679443359e-01) (137, 2.38762781023979187012e-01) (138, 2.24893033504486083984e-01) (139, 3.11719894409179687500e-01) (140, 1.96755841374397277832e-01) (141, 1.50905251502990722656e-01) (142, 2.59148389101028442383e-01) (143, 2.73831367492675781250e-01) (144, -1.44181875512003898621e-02) (145, 2.31320098042488098145e-01) (146, 3.52900803089141845703e-01) (147, 3.52561712265014648438e-01) (148, 3.30739259719848632812e-01) (149, 4.13158804178237915039e-01) (150, 2.39434406161308288574e-01) (151, 4.18562322854995727539e-01) (152, 2.41327971220016479492e-01) (153, 2.18531697988510131836e-01) (154, 1.91124811768531799316e-01) (155, 2.15453296899795532227e-01) (156, 3.22801709175109863281e-01) (157, 2.75164574384689331055e-01) (158, 1.26020804047584533691e-01) (159, 1.75715200603008270264e-02) (160, 1.57122731208801269531e-01) (161, 2.19804510474205017090e-01) (162, 1.76831439137458801270e-01) (163, 2.93848842382431030273e-01) (164, 3.82778555154800415039e-01) (165, 2.09718018770217895508e-01) (166, 3.85598570108413696289e-01) (167, 2.64150559902191162109e-01) (168, 3.66008549928665161133e-01) (169, 3.71242821216583251953e-01) (170, 3.56910496950149536133e-01) (171, 2.41314440965652465820e-01) (172, 2.13637486100196838379e-01) (173, 2.37643063068389892578e-01) (174, 1.99910953640937805176e-01) (175, 3.42867851257324218750e-01) (176, 3.53197515010833740234e-01) (177, 3.52121531963348388672e-01) (178, 1.77045628428459167480e-01) (179, 1.77420273423194885254e-01) (180, 2.52538472414016723633e-01) (181, 1.86690732836723327637e-01) (182, 2.54950702190399169922e-01) (183, 2.00962528586387634277e-01) (184, 2.90169477462768554688e-01) (185, 2.05855771899223327637e-01) (186, 2.52536296844482421875e-01) (187, 2.96545892953872680664e-01) (188, 3.22284370660781860352e-01) (189, 2.31573358178138732910e-01) (190, 2.51241415739059448242e-01) (191, 1.98934316635131835938e-01) (192, 3.31278234720230102539e-01) (193, 2.12378084659576416016e-01) (194, -1.09236933290958404541e-01) (195, -2.08571240305900573730e-01) (196, 2.23383247852325439453e-01) (197, 2.65608400106430053711e-01) (198, 1.95408210158348083496e-01) (199, 2.43270292878150939941e-01) (200, 3.15656274557113647461e-01) (201, 3.20068448781967163086e-01) (202, 3.90301316976547241211e-01) (203, 3.17992985248565673828e-01) (204, 1.67792811989784240723e-01) (205, 3.25493276119232177734e-01) (206, 3.17580580711364746094e-01) (207, 8.27324464917182922363e-02) (208, 3.24927359819412231445e-01) (209, 2.67886519432067871094e-01) (210, 3.02788704633712768555e-01) (211, -2.04366588592529296875e+00) (212, -1.78232222795486450195e-01) (213, 2.16584011912345886230e-01) (214, 2.84387648105621337891e-01) (215, 3.52018535137176513672e-01) (216, 2.08607643842697143555e-01) (217, 3.33935767412185668945e-01) (218, 3.03406596183776855469e-01) (219, 2.38400951027870178223e-01) (220, 2.84370005130767822266e-01) (221, 1.94156199693679809570e-01) (222, 1.43609032034873962402e-01) (223, 2.45495244860649108887e-01) (224, 3.53610068559646606445e-01) (225, 1.89838796854019165039e-01) (226, 3.32334423065185546875e+00) (227, 2.82941251993179321289e-01) (228, -7.76141360402107238770e-02) (229, -4.85811173915863037109e-01) (230, -9.63839963078498840332e-02) (231, 2.82599121332168579102e-01) (232, 2.81193107366561889648e-01) (233, 2.85153210163116455078e-01) (234, 2.18228995800018310547e-01) (235, 1.65884166955947875977e-01) (236, 2.49714285135269165039e-01) (237, 2.85088717937469482422e-01) (238, 2.65117287635803222656e-01) (239, 2.94138610363006591797e-01) (240, 2.13151097297668457031e-01) (241, 3.63242626190185546875e-01) (242, 3.74529182910919189453e-01) (243, 2.05487310886383056641e-01) (244, 4.12743747234344482422e-01) (245, 6.24273754656314849854e-02) (246, 7.38858953118324279785e-02) (247, -1.21401749551296234131e-01) (248, -4.57402206957340240479e-02) (249, 2.31075465679168701172e-01) (250, 2.86309152841567993164e-01) (251, 3.95855039358139038086e-01) (252, 3.12277555465698242188e-01) (253, 2.12223634123802185059e-01) (254, 3.71821701526641845703e-01) (255, -4.76559624075889587402e-02) (256, 2.20092475414276123047e-01) (0, 3.68138611316680908203e-01) (1, 3.27370703220367431641e-01) (2, 2.93885260820388793945e-01) (3, 2.67294347286224365234e-01) (4, -2.39012259989976882935e-02) (5, -1.22244672775268554688e+01) (6, -9.94339764118194580078e-01) (7, 1.01813167333602905273e-01) (8, -7.82731473445892333984e-02) (9, 1.70421868562698364258e-01) (10, 9.96402949094772338867e-02) (11, 3.61017584800720214844e-01) (12, 2.20225125551223754883e-01) (13, 1.50000000000000000000e+03) (14, 1.50000000000000000000e+03) (15, 1.50000000000000000000e+03) (16, 1.07719302177429199219e-01) (17, 1.90712690353393554688e-01) (18, 1.69000893831253051758e-01) (19, 2.06906169652938842773e-01) (20, 2.31787383556365966797e-01) (21, 2.60291725397109985352e-01) (22, -9.21839332580566406250e+00) (23, 4.42096620798110961914e-01) (24, 2.57461875677108764648e-01) (25, 4.42926824092864990234e-01) (26, 3.58377277851104736328e-01) (27, 2.05811426043510437012e-01) (28, -9.61848926544189453125e+00) (29, -7.59279847145080566406e-01) (30, 1.06853711605072021484e+00) (31, -6.86778664588928222656e-01) (32, 1.82595700025558471680e-01) (33, 2.01242968440055847168e-01) (34, 2.73446798324584960938e-01) (35, 3.14967244863510131836e-01) (36, 2.78967827558517456055e-01) (37, 4.00084555149078369141e-01) (38, 5.85195779800415039062e-01) (39, 2.78353244066238403320e-01) (40, -3.10668884776532649994e-03) (41, 3.91742309570312500000e+02) (42, 2.99295455217361450195e-01) (43, 3.12696874141693115234e-01) (44, -1.17023682594299316406e+00) (45, -2.04235166311264038086e-01) (46, -4.07376003265380859375e+00) (47, 1.15453377366065979004e-01) (48, 3.04656058549880981445e-01) (49, 4.10091996192932128906e-01) (50, 3.38593810796737670898e-01) (51, 3.54336500167846679688e-01) (52, 3.10851365327835083008e-01) (53, 3.12283992767333984375e-01) (54, 5.16879558563232421875e-01) (55, 4.10901218652725219727e-01) (56, 1.11407497897744178772e-02) (57, 1.70208379626274108887e-01) (58, 1.85622736811637878418e-01) (59, 3.91492336988449096680e-01) (60, 2.68955945968627929688e-01) (61, 3.44897866249084472656e-01) (62, 4.00766998529434204102e-01) (63, 4.95996057987213134766e-01) (64, 5.74814260005950927734e-01) (65, 4.23146128654479980469e-01) (66, 3.76923799514770507812e-01) (67, 3.83811593055725097656e-01) (68, 3.97757261991500854492e-01) (69, 4.75295037031173706055e-01) (70, 5.39384424686431884766e-01) (71, 1.91730603575706481934e-01) (72, 2.07130238413810729980e-01) (73, 2.51390159130096435547e-01) (74, 2.52135783433914184570e-01) (75, 1.45134523510932922363e-01) (76, 2.42470636963844299316e-01) (77, 2.22050085663795471191e-01) (78, 7.21316337585449218750e-02) (79, 4.97610449790954589844e-01) (80, 4.48328584432601928711e-01) (81, 4.63561862707138061523e-01) (82, 3.18731248378753662109e-01) (83, 2.73024231195449829102e-01) (84, 4.11190211772918701172e-01) (85, 4.44792479276657104492e-01) (86, 4.62951630353927612305e-01) (87, 3.60949158668518066406e-01) (88, 5.02113699913024902344e-01) (89, 4.61126923561096191406e-01) (90, 4.26967471837997436523e-01) (91, 3.82860690355300903320e-01) (92, 4.37992632389068603516e-01) (93, 1.49621352553367614746e-01) (94, 1.73868313431739807129e-01) (95, 2.59643524885177612305e-01) (96, 3.84909808635711669922e-01) (97, 4.28912311792373657227e-01) (98, 3.89929294586181640625e-01) (99, 3.25304299592971801758e-01) (100, 2.34766051173210144043e-01) (101, 2.88329154253005981445e-01) (102, 3.15725356340408325195e-01) (103, 4.71528947353363037109e-01) (104, 7.53728926181793212891e-01) (105, 4.09410819411277770996e-02) (106, 3.46973031759262084961e-01) (107, 5.31303882598876953125e-01) (108, 5.09735643863677978516e-01) (109, 2.48054131865501403809e-01) (110, 2.11334928870201110840e-01) (111, 2.40388453006744384766e-01) (112, 1.65046349167823791504e-01) (113, 9.43654924631118774414e-02) (114, 2.66103267669677734375e-01) (115, 3.90971302986145019531e-01) (116, 2.83184856176376342773e-01) (117, 3.03986012935638427734e-01) (118, 4.05494719743728637695e-01) (119, 3.90465408563613891602e-01) (120, 4.68170762062072753906e-01) (121, 3.70404332876205444336e-01) (122, 3.74543577432632446289e-01) (123, 3.80184710025787353516e-01) (124, 3.35751026868820190430e-01) (125, 1.89939141273498535156e-01) (126, 6.29816129803657531738e-02) (127, 2.10364446043968200684e-01) (128, 2.19669058918952941895e-01) (129, 1.03220038115978240967e-01) (130, 5.74989654123783111572e-02) (131, 2.60796338319778442383e-01) (132, 3.00345271825790405273e-01) (133, 5.04615485668182373047e-01) (134, 3.31304341554641723633e-01) (135, 3.53851497173309326172e-01) (136, 3.58703643083572387695e-01) (137, 2.80399382114410400391e-01) (138, 3.77326369285583496094e-01) (139, 2.05778121948242187500e-01) (140, 1.25949144363403320312e-01) (141, 4.22553062438964843750e-01) (142, 1.73261865973472595215e-01) (143, 4.13123995065689086914e-01) (144, 4.28112328052520751953e-01) (145, 8.24952125549316406250e-02) (146, -1.00858241319656372070e-01) (147, -6.39500468969345092773e-03) (148, -7.41076543927192687988e-02) (149, 2.35584918409585952759e-02) (150, 2.39985495805740356445e-01) (151, 3.22923749685287475586e-01) (152, 4.42662060260772705078e-01) (153, 2.45128780603408813477e-01) (154, 3.62803369760513305664e-01) (155, 3.26377987861633300781e-01) (156, 2.42746680974960327148e-01) (157, 2.92624503374099731445e-01) (158, 5.39204001426696777344e-01) (159, 4.38393712043762207031e-01) (160, 1.13639342784881591797e+00) (161, 3.78175109624862670898e-01) (162, 4.67870533466339111328e-01) (163, 6.37646764516830444336e-02) (164, 4.69625480473041534424e-02) (165, -3.05220532417297363281e+00) (166, -6.87050056457519531250e+00) (167, 1.56536772847175598145e-01) (168, -5.55655539035797119141e-01) (169, -1.45447522401809692383e-01) (170, 1.51866525411605834961e-01) (171, 3.73756289482116699219e-01) (172, 4.09439861774444580078e-01) (173, 3.37697267532348632812e-01) (174, 3.81407111883163452148e-01) (175, 5.52410244941711425781e-01) (176, 2.04045921564102172852e-01) (177, 3.55001986026763916016e-01) (178, 4.47701752185821533203e-01) (179, 3.50610643625259399414e-01) (180, 3.62421870231628417969e-01) (181, 3.01934123039245605469e-01) (182, 2.83411830663681030273e-01) (183, 2.08938670158386230469e+00) (184, 1.85692340135574340820e-01) (185, 1.86316683888435363770e-01) (186, 6.58294484019279479980e-02) (187, 1.54348835349082946777e-01) (188, 5.16402386128902435303e-02) (189, 3.17461192607879638672e-01) (190, 3.99199694395065307617e-01) (191, 3.07754158973693847656e-01) (192, 3.70376437902450561523e-01) (193, 3.05607855319976806641e-01) (194, 3.60745429992675781250e-01) (195, 2.75593400001525878906e-01) (196, 3.32801878452301025391e-01) (197, 4.34450596570968627930e-01) (198, 2.47684106230735778809e-01) (199, 2.81304001808166503906e-01) (200, 3.59659403562545776367e-01) (201, 1.35423794388771057129e-01) (202, 3.86955082416534423828e-01) (203, 1.73927664756774902344e-01) (204, 1.99565559625625610352e-01) (205, 4.01898115873336791992e-01) (206, 2.52840220928192138672e-01) (207, 2.60105311870574951172e-01) (208, 3.95938277244567871094e-01) (209, 1.41895338892936706543e-01) (210, 4.73536640405654907227e-01) (211, 2.12838687896728515625e+01) (212, 1.09163451194763183594e+00) (213, 5.21003663539886474609e-01) (214, 5.19019126892089843750e-01) (215, 4.25261020660400390625e-01) (216, 2.39910379052162170410e-01) (217, 2.80383259057998657227e-01) (218, 2.80412882566452026367e-01) (219, 2.87075102329254150391e-01) (220, 4.10657882690429687500e-01) (221, 3.22499573230743408203e-01) (222, 4.28639739751815795898e-01) (223, 1.78934827446937561035e-01) (224, 2.36548602581024169922e-01) (225, 4.44202005863189697266e-01) (226, -5.79971599578857421875e+00) (227, 2.90802836418151855469e-01) (228, 1.63535743951797485352e-01) (229, 1.04958093166351318359e+00) (230, 7.90352582931518554688e-01) (231, 4.81850206851959228516e-01) (232, 5.02333343029022216797e-01) (233, 5.11546194553375244141e-01) (234, 3.83809506893157958984e-01) (235, 4.54795062541961669922e-01) (236, 3.97118091583251953125e-01) (237, 4.31142807006835937500e-01) (238, 2.75482833385467529297e-01) (239, 2.18224719166755676270e-01) (240, 2.54460453987121582031e-01) (241, -1.62538975477218627930e-01) (242, -3.33161783218383789062e+00) (243, -1.21665328741073608398e-01) (244, -4.15870523452758789062e+00) (245, 9.35268253087997436523e-02) (246, -1.70786112546920776367e-01) (247, 2.45838120579719543457e-01) (248, 2.64639735221862792969e-01) (249, 4.90556031465530395508e-01) (250, 3.46910357475280761719e-01) (251, 4.99461978673934936523e-01) (252, 6.47126734256744384766e-01) (253, -6.45841583609580993652e-02) (254, 4.32649582624435424805e-01) (255, 1.54397729784250259399e-02) (256, 3.93833279609680175781e-01) (0, -6.10056936740875244141e-01) (1, -9.98998954892158508301e-02) (2, -6.69156806543469429016e-03) (3, -6.11560530960559844971e-02) (4, -1.11815147101879119873e-01) (5, -4.38993883132934570312e+00) (6, -3.88080775737762451172e-02) (7, -2.46991038322448730469e-01) (8, -7.83973559737205505371e-02) (9, -3.25152873992919921875e-01) (10, -3.68266552686691284180e-01) (11, -1.85218244791030883789e-01) (12, -6.42362013459205627441e-02) (13, 1.50000000000000000000e+03) (14, 1.50000000000000000000e+03) (15, 1.50000000000000000000e+03) (16, -1.55999094247817993164e-01) (17, -1.19102939963340759277e-01) (18, -1.00927151739597320557e-01) (19, -3.21621187031269073486e-02) (20, -1.94619014859199523926e-01) (21, 7.94450417160987854004e-02) (22, -5.10721802711486816406e-01) (23, 1.60042941570281982422e-02) (24, -8.84015932679176330566e-02) (25, -4.48760204017162322998e-02) (26, -7.91877210140228271484e-02) (27, 1.07443816959857940674e-02) (28, -5.90721011161804199219e-01) (29, -6.25779807567596435547e-01) (30, -1.93808391690254211426e-01) (31, -3.00996720790863037109e-01) (32, -7.76673555374145507812e-02) (33, -1.25825703144073486328e-01) (34, -1.12293556332588195801e-01) (35, -5.19969239830970764160e-02) (36, -1.51236966252326965332e-01) (37, -2.63775467872619628906e-01) (38, -4.05771702527999877930e-01) (39, -2.91192144155502319336e-01) (40, -1.12152375280857086182e-01) (41, 1.00547701120376586914e-01) (42, -4.55307327210903167725e-02) (43, -1.73205107450485229492e-01) (44, -2.83330947160720825195e-01) (45, -1.21997982263565063477e-01) (46, -2.04571175575256347656e+00) (47, -4.50945556163787841797e-01) (48, -8.16174745559692382812e-02) (49, -5.55636622011661529541e-02) (50, -1.22546829283237457275e-01) (51, -2.45648533105850219727e-01) (52, -3.42711091041564941406e-01) (53, -3.78421723842620849609e-01) (54, -2.90861189365386962891e-01) (55, -9.26197227090597152710e-03) (56, -2.06775635480880737305e-01) (57, -1.00956231355667114258e-01) (58, -9.19996276497840881348e-02) (59, -2.02196374535560607910e-01) (60, -2.08245202898979187012e-01) (61, -6.24141022562980651855e-02) (62, -3.58250737190246582031e-01) (63, -3.27593058347702026367e-01) (64, -1.37957051396369934082e-01) (65, -1.43058791756629943848e-01) (66, -1.29309639334678649902e-01) (67, -2.82629549503326416016e-01) (68, -1.37819260358810424805e-01) (69, -1.91523820161819458008e-01) (70, 4.12193797528743743896e-02) (71, -1.39948856085538864136e-02) (72, -1.29402726888656616211e-01) (73, -1.05364337563514709473e-01) (74, -4.02248017489910125732e-02) (75, -1.64896219968795776367e-01) (76, -1.70566126704216003418e-01) (77, -1.77171826362609863281e-01) (78, -2.60147422552108764648e-01) (79, -4.18838232755661010742e-01) (80, -1.92612305283546447754e-01) (81, -1.91193535923957824707e-01) (82, -1.02047972381114959717e-01) (83, -3.00013095140457153320e-01) (84, -2.82861918210983276367e-01) (85, -1.21952287852764129639e-01) (86, -8.22043344378471374512e-02) (87, 3.78373153507709503174e-02) (88, -1.30061462521553039551e-01) (89, -1.45547956228256225586e-01) (90, -2.08679646253585815430e-01) (91, -2.82285928726196289062e-01) (92, -2.67814487218856811523e-01) (93, -1.78365558385848999023e-01) (94, -2.45798289775848388672e-01) (95, -1.40468269586563110352e-01) (96, -1.93294540047645568848e-01) (97, -2.43438765406608581543e-01) (98, -1.73432931303977966309e-01) (99, -1.67473569512367248535e-01) (100, -2.95059353113174438477e-01) (101, -2.83721357583999633789e-01) (102, -1.04652538895606994629e-01) (103, -1.01315155625343322754e-01) (104, -1.26058816909790039062e-01) (105, -9.32988375425338745117e-02) (106, -2.87788778543472290039e-01) (107, -1.23678028583526611328e-01) (108, 4.91562813520431518555e-01) (109, -2.92572915554046630859e-01) (110, -4.65745955705642700195e-01) (111, -2.18669533729553222656e-01) (112, -1.79946631193161010742e-01) (113, -1.77982687950134277344e-01) (114, -2.19303309917449951172e-01) (115, -2.56350934505462646484e-01) (116, -1.84034526348114013672e-01) (117, -2.94230699539184570312e-01) (118, -1.85413166880607604980e-01) (119, -1.54179334640502929688e-01) (120, -9.76492762565612792969e-02) (121, -6.88490271568298339844e-02) (122, -1.76173239946365356445e-01) (123, -1.80748775601387023926e-01) (124, -3.06931912899017333984e-01) (125, -2.98542380332946777344e-01) (126, -2.43813171982765197754e-01) (127, -3.24860781431198120117e-01) (128, -2.04688131809234619141e-01) (129, -1.74753013998270034790e-02) (130, -1.33641809225082397461e-01) (131, -1.32756561040878295898e-01) (132, -1.31317555904388427734e-01) (133, -3.97556066513061523438e-01) (134, -2.11482852697372436523e-01) (135, -1.55756846070289611816e-01) (136, -1.16521559655666351318e-01) (137, -1.28401055932044982910e-01) (138, -7.81408995389938354492e-02) (139, -1.05814792215824127197e-01) (140, -1.44633442163467407227e-01) (141, -8.57302546501159667969e-02) (142, -7.68144056200981140137e-02) (143, 2.14982032775878906250e-02) (144, -1.35824576020240783691e-01) (145, -1.86220422387123107910e-01) (146, -2.53292709589004516602e-01) (147, -1.14847756922245025635e-01) (148, -1.04433611035346984863e-01) (149, -3.28042000532150268555e-01) (150, -3.35141688585281372070e-01) (151, 3.08663328178226947784e-03) (152, -1.78060948848724365234e-01) (153, -1.14763461053371429443e-01) (154, -2.43172585964202880859e-01) (155, -3.21568667888641357422e-01) (156, -2.04503804445266723633e-01) (157, -1.97067782282829284668e-01) (158, -2.65366673469543457031e-01) (159, -1.02768778800964355469e-01) (160, -1.21200948953628540039e-01) (161, -1.05606444180011749268e-01) (162, -8.87254700064659118652e-02) (163, -1.43573284149169921875e-01) (164, -1.04119233787059783936e-01) (165, -8.31439942121505737305e-02) (166, -2.81345367431640625000e-01) (167, -9.33450311422348022461e-02) (168, -9.21744108200073242188e-02) (169, -2.03892320394515991211e-01) (170, 1.78686276078224182129e-01) (171, -2.28506475687026977539e-01) (172, -1.00861214101314544678e-01) (173, -2.28003218770027160645e-01) (174, -1.44941210746765136719e-01) (175, -7.49612003564834594727e-02) (176, -6.89854472875595092773e-02) (177, -1.82731702923774719238e-01) (178, 1.22885160148143768311e-01) (179, -1.97353497147560119629e-01) (180, -2.43269816040992736816e-01) (181, -2.43947237730026245117e-01) (182, -2.34741926193237304688e-01) (183, -1.81012198328971862793e-01) (184, -3.57413023710250854492e-01) (185, -1.94132909178733825684e-01) (186, -1.33191049098968505859e-01) (187, -3.42770010232925415039e-01) (188, -1.83466911315917968750e-01) (189, -3.49674552679061889648e-01) (190, -3.09319555759429931641e-01) (191, -3.17288637161254882812e-01) (192, -1.46645486354827880859e-01) (193, -1.81297481060028076172e-01) (194, -7.08366036415100097656e-01) (195, 9.62738916277885437012e-02) (196, -6.87921866774559020996e-02) (197, -1.77457585930824279785e-01) (198, -2.49654531478881835938e-01) (199, -5.38613833487033843994e-02) (200, -1.33055150508880615234e-01) (201, -1.59675270318984985352e-01) (202, -1.62876144051551818848e-01) (203, -1.09809473156929016113e-01) (204, -1.57511085271835327148e-01) (205, -2.52434164285659790039e-01) (206, -2.82442271709442138672e-01) (207, -2.54150837659835815430e-01) (208, -1.55552923679351806641e-01) (209, -5.12066809460520744324e-03) (210, 3.02482080459594726562e+00) (211, 3.64254005253314971924e-02) (212, -1.97681654244661331177e-02) (213, 2.79556144960224628448e-04) (214, -5.16403466463088989258e-02) (215, 1.40714813023805618286e-02) (216, -1.62909075617790222168e-01) (217, -2.41895481944084167480e-01) (218, -5.29221557080745697021e-02) (219, -2.08173811435699462891e-01) (220, -1.16067096590995788574e-01) (221, -2.01624274253845214844e-01) (222, -1.01677671074867248535e-01) (223, -2.52857267856597900391e-01) (224, -1.17011263966560363770e-01) (225, -1.13070890307426452637e-01) (226, -4.80183601379394531250e-01) (227, -1.67314916849136352539e-01) (228, -4.44989252090454101562e+00) (229, 7.85995364189147949219e-01) (230, -2.13289499282836914062e-01) (231, 5.79394549131393432617e-02) (232, -2.72863321006298065186e-02) (233, -1.06392137706279754639e-01) (234, -9.72071886062622070312e-02) (235, -5.92059120535850524902e-02) (236, -4.55525703728199005127e-02) (237, 2.14810203760862350464e-02) (238, -7.51886144280433654785e-02) (239, -3.19852113723754882812e-01) (240, -1.20754696428775787354e-01) (241, -4.55560721457004547119e-02) (242, -3.54033470153808593750e-01) (243, -2.88261413574218750000e-01) (244, -1.19964189827442169189e-01) (245, -1.59728407859802246094e+00) (246, -8.25548917055130004883e-02) (247, -6.67694732546806335449e-02) (248, -1.10479347407817840576e-01) (249, -8.07101875543594360352e-02) (250, -3.73913533985614776611e-02) (251, -6.23076371848583221436e-02) (252, -6.63189068436622619629e-02) (253, 9.34833660721778869629e-03) (254, 8.77072364091873168945e-02) (255, -3.19597900390625000000e+02) (256, -1.95251405239105224609e-01) (0, 2.17781558632850646973e-01) (1, 2.75508970022201538086e-01) (2, 2.27818101644515991211e-01) (3, 2.49597564339637756348e-01) (4, 2.40931585431098937988e-01) (5, 3.95465523004531860352e-01) (6, 3.44258844852447509766e-02) (7, 6.43261447548866271973e-02) (8, 2.48206585645675659180e-01) (9, 4.12497013807296752930e-01) (10, 2.98869282007217407227e-01) (11, 3.52820754051208496094e-01) (12, 3.15115064382553100586e-01) (13, 1.50000000000000000000e+03) (14, 1.50000000000000000000e+03) (15, 1.50000000000000000000e+03) (16, 2.11617052555084228516e-01) (17, 2.27102875709533691406e-01) (18, 3.15782666206359863281e-01) (19, 1.73004835844039916992e-01) (20, 2.03303307294845581055e-01) (21, 3.59098017215728759766e-01) (22, 1.34333536028861999512e-01) (23, 1.99521929025650024414e-01) (24, 3.22321861982345581055e-01) (25, 2.52314478158950805664e-01) (26, 3.26660484075546264648e-01) (27, 3.13007533550262451172e-01) (28, 3.21277678012847900391e-01) (29, 2.14661777019500732422e-01) (30, 3.37019681930541992188e-01) (31, 2.92345702648162841797e-01) (32, 2.61323392391204833984e-01) (33, 2.46164932847023010254e-01) (34, 3.07693421840667724609e-01) (35, 2.57060408592224121094e-01) (36, 3.45616340637207031250e-01) (37, 2.76454448699951171875e-01) (38, 2.77429699897766113281e-01) (39, 1.70927509665489196777e-01) (40, 2.57927149534225463867e-01) (41, 1.78153440356254577637e-01) (42, 2.83715724945068359375e-01) (43, 2.84969061613082885742e-01) (44, 4.46629643440246582031e-01) (45, 2.89725273847579956055e-01) (46, 3.34378093481063842773e-01) (47, 3.00922155380249023438e-01) (48, 2.05231323838233947754e-01) (49, 3.46467941999435424805e-01) (50, 2.14838624000549316406e-01) (51, 1.96092769503593444824e-01) (52, 2.55783855915069580078e-01) (53, 1.68817460536956787109e-01) (54, 3.57465624809265136719e-01) (55, 1.95445507764816284180e-01) (56, 2.06055939197540283203e-01) (57, 3.84113043546676635742e-01) (58, 3.54229301214218139648e-01) (59, 3.89232456684112548828e-01) (60, 2.99467682838439941406e-01) (61, 3.90856266021728515625e-01) (62, 2.92383998632431030273e-01) (63, 2.72007673978805541992e-01) (64, 1.97701975703239440918e-01) (65, 1.99677929282188415527e-01) (66, 2.17306300997734069824e-01) (67, 2.85946071147918701172e-01) (68, 2.70560801029205322266e-01) (69, 3.56223016977310180664e-01) (70, 3.81862014532089233398e-01) (71, 2.91480213403701782227e-01) (72, 1.72539606690406799316e-01) (73, 2.42367789149284362793e-01) (74, 1.54837995767593383789e-01) (75, 2.68172830343246459961e-01) (76, 2.62713253498077392578e-01) (77, 2.79709726572036743164e-01) (78, 2.37355291843414306641e-01) (79, 2.28150486946105957031e-01) (80, 3.46676051616668701172e-01) (81, 3.21271181106567382812e-01) (82, 2.93540716171264648438e-01) (83, 2.50360071659088134766e-01) (84, 2.73290067911148071289e-01) (85, 2.10867613554000854492e-01) (86, 2.90191143751144409180e-01) (87, 1.79074093699455261230e-01) (88, 3.68485599756240844727e-01) (89, 3.25476795434951782227e-01) (90, 3.74225288629531860352e-01) (91, 3.65304678678512573242e-01) (92, 3.63626152276992797852e-01) (93, 2.02435314655303955078e-01) (94, 2.92205423116683959961e-01) (95, 2.36102744936943054199e-01) (96, 2.90735214948654174805e-01) (97, 2.55548387765884399414e-01) (98, 2.32504397630691528320e-01) (99, 3.89792531728744506836e-01) (100, 2.48372614383697509766e-01) (101, 2.60494560003280639648e-01) (102, 2.48745679855346679688e-01) (103, 2.58051276206970214844e-01) (104, 2.92860090732574462891e-01) (105, 3.03150177001953125000e-01) (106, 2.16194719076156616211e-01) (107, 2.68477380275726318359e-01) (108, 2.69638955593109130859e-01) (109, 2.28570595383644104004e-01) (110, 3.01160871982574462891e-01) (111, 3.14426541328430175781e-01) (112, 2.27826401591300964355e-01) (113, 3.90806972980499267578e-01) (114, 3.81988227367401123047e-01) (115, 3.17179858684539794922e-01) (116, 2.47515767812728881836e-01) (117, 2.95995444059371948242e-01) (118, 3.35572928190231323242e-01) (119, 2.81976521015167236328e-01) (120, 2.39879399538040161133e-01) (121, 2.59481728076934814453e-01) (122, 3.26281219720840454102e-01) (123, 2.45443508028984069824e-01) (124, 3.14357757568359375000e-01) (125, 3.28660160303115844727e-01) (126, 2.36720025539398193359e-01) (127, 1.84734269976615905762e-01) (128, 2.75329232215881347656e-01) (129, 2.05297604203224182129e-01) (130, 3.89236599206924438477e-01) (131, 2.88020879030227661133e-01) (132, 2.23614752292633056641e-01) (133, 2.95816034078598022461e-01) (134, 2.02727466821670532227e-01) (135, 3.30151110887527465820e-01) (136, 3.14390867948532104492e-01) (137, 2.55627840757369995117e-01) (138, 2.37851440906524658203e-01) (139, 1.91558927297592163086e-01) (140, 1.64827719330787658691e-01) (141, 2.58310556411743164062e-01) (142, 1.71722337603569030762e-01) (143, 3.39248865842819213867e-01) (144, 2.37948045134544372559e-01) (145, 2.68246054649353027344e-01) (146, 2.17658400535583496094e-01) (147, 2.49685093760490417480e-01) (148, 3.27908366918563842773e-01) (149, 2.50490039587020874023e-01) (150, 2.55210340023040771484e-01) (151, 3.58351200819015502930e-01) (152, 2.67126500606536865234e-01) (153, 3.40241670608520507812e-01) (154, 2.00767531991004943848e-01) (155, 2.68251448869705200195e-01) (156, 2.39011824131011962891e-01) (157, 2.12268427014350891113e-01) (158, 2.89296954870223999023e-01) (159, 2.42610335350036621094e-01) (160, 1.68728083372116088867e-01) (161, 3.06800603866577148438e-01) (162, 1.66102051734924316406e-01) (163, 2.72382378578186035156e-01) (164, 3.73490929603576660156e-01) (165, 3.86241316795349121094e-01) (166, 3.72359246015548706055e-01) (167, 3.85357379913330078125e-01) (168, 3.71296495199203491211e-01) (169, 2.26116746664047241211e-01) (170, 3.22878748178482055664e-01) (171, 3.68851035833358764648e-01) (172, 3.43513429164886474609e-01) (173, 3.17104786634445190430e-01) (174, 3.20278853178024291992e-01) (175, 2.69549131393432617188e-01) (176, 2.33644902706146240234e-01) (177, 3.70174974203109741211e-01) (178, 3.50955516099929809570e-01) (179, 3.05019587278366088867e-01) (180, 3.78413200378417968750e-01) (181, 3.48713308572769165039e-01) (182, 2.41327837109565734863e-01) (183, 3.68302673101425170898e-01) (184, 2.38229170441627502441e-01) (185, 2.34586283564567565918e-01) (186, 3.22338521480560302734e-01) (187, 2.21659168601036071777e-01) (188, 2.79932826757431030273e-01) (189, 2.79122412204742431641e-01) (190, 1.36175617575645446777e-01) (191, 2.74247109889984130859e-01) (192, 1.92241534590721130371e-01) (193, 1.96683093905448913574e-01) (194, 2.42937237024307250977e-01) (195, 1.80405318737030029297e-01) (196, 3.59161257743835449219e-01) (197, 3.13743978738784790039e-01) (198, 2.59734809398651123047e-01) (199, 2.69341975450515747070e-01) (200, 3.94827008247375488281e-01) (201, 3.94986867904663085938e-01) (202, 2.50859498977661132812e-01) (203, 2.81094014644622802734e-01) (204, 2.16220170259475708008e-01) (205, 9.82308983802795410156e-02) (206, 3.11424791812896728516e-01) (207, 1.98097229003906250000e-01) (208, 2.62420058250427246094e-01) (209, 3.38991761207580566406e-01) (210, 3.64746451377868652344e-01) (211, 2.29201734066009521484e-01) (212, 1.91641524434089660645e-01) (213, 3.86565655469894409180e-01) (214, 3.32063466310501098633e-01) (215, 3.51859420537948608398e-01) (216, 3.85908901691436767578e-01) (217, 3.05869013071060180664e-01) (218, 3.09898734092712402344e-01) (219, 2.30581060051918029785e-01) (220, 3.19259971380233764648e-01) (221, 2.22221463918685913086e-01) (222, 2.85234242677688598633e-01) (223, 2.09847301244735717773e-01) (224, 2.39640057086944580078e-01) (225, 3.41117531061172485352e-01) (226, 9.94309961795806884766e-01) (227, 2.25260585546493530273e-01) (228, 2.26312741637229919434e-01) (229, 3.70341449975967407227e-01) (230, 2.52457708120346069336e-01) (231, 2.24549680948257446289e-01) (232, 3.30825120210647583008e-01) (233, 3.34600329399108886719e-01) (234, 1.68142914772033691406e-01) (235, 2.17321723699569702148e-01) (236, 2.43559032678604125977e-01) (237, 1.90963596105575561523e-01) (238, 2.03102797269821166992e-01) (239, 2.31535390019416809082e-01) (240, 2.29229420423507690430e-01) (241, 2.75489002466201782227e-01) (242, 5.25564193725585937500e-01) (243, 3.30127596855163574219e-01) (244, 3.33275258541107177734e-01) (245, 3.32500010728836059570e-01) (246, 2.77762562036514282227e-01) (247, 4.12128031253814697266e-01) (248, 2.52161145210266113281e-01) (249, 1.88787415623664855957e-01) (250, 2.67077863216400146484e-01) (251, 2.97505050897598266602e-01) (252, 2.78598815202713012695e-01) (253, -4.91906106472015380859e-02) (254, -1.26458033919334411621e-01) (255, 2.38443315029144287109e-01) (256, 2.71928787231445312500e-01) (0, -1.87076345086097717285e-01) (1, 1.13020343706011772156e-02) (2, -8.80408659577369689941e-02) (3, 8.24526418000459671021e-03) (4, 9.94975045323371887207e-02) (5, 3.46078544855117797852e-01) (6, -5.21911084651947021484e-01) (7, 3.59278291463851928711e-01) (8, 5.37163168191909790039e-02) (9, 7.33188927173614501953e-01) (10, 7.20116436481475830078e-01) (11, 2.98475325107574462891e-01) (12, 4.40707325935363769531e-01) (13, 1.50000000000000000000e+03) (14, 1.50000000000000000000e+03) (15, 1.50000000000000000000e+03) (16, -1.60365581512451171875e-01) (17, 1.76168773323297500610e-02) (18, -1.19965411722660064697e-01) (19, -1.48477062582969665527e-01) (20, 1.49749382399022579193e-03) (21, -1.89441412687301635742e-01) (22, 1.07918597757816314697e-01) (23, -6.33153542876243591309e-02) (24, 5.93238845467567443848e-02) (25, 1.28106728196144104004e-01) (26, 3.53451706469058990479e-02) (27, -7.41047412157058715820e-02) (28, 3.53614777326583862305e-01) (29, -1.52450650930404663086e-01) (30, 8.72581750154495239258e-02) (31, -8.14687460660934448242e-02) (32, -8.90945717692375183105e-02) (33, -1.45007386803627014160e-01) (34, -7.93823078274726867676e-02) (35, -7.30983540415763854980e-02) (36, -1.78428620100021362305e-01) (37, -2.47337013483047485352e-01) (38, 9.19992029666900634766e-02) (39, -3.16812247037887573242e-02) (40, -1.75420030951499938965e-01) (41, 7.18387663364410400391e-02) (42, -3.48210223019123077393e-02) (43, 1.45006990060210227966e-02) (44, 6.81580245494842529297e-01) (45, -6.64787590503692626953e-02) (46, -9.53550785779953002930e-02) (47, 1.74191016703844070435e-02) (48, -1.53222471475601196289e-01) (49, 2.64403760433197021484e-01) (50, 3.61157804727554321289e-02) (51, 5.58293163776397705078e-02) (52, 7.48088881373405456543e-02) (53, 3.23176272213459014893e-02) (54, -2.04108849167823791504e-01) (55, -6.25096485018730163574e-02) (56, -8.94979685544967651367e-02) (57, -2.63495355844497680664e-01) (58, 9.70726162195205688477e-02) (59, 6.06497153639793395996e-02) (60, -8.18870142102241516113e-02) (61, 6.25994741916656494141e-01) (62, 3.60248833894729614258e-01) (63, 5.36818146705627441406e-01) (64, -1.20583303272724151611e-01) (65, -1.74140453338623046875e-01) (66, -1.52641803026199340820e-01) (67, 1.03141076862812042236e-01) (68, 2.51953806728124618530e-02) (69, 6.88325148075819015503e-03) (70, 2.28917002677917480469e-01) (71, 1.29470780491828918457e-01) (72, 5.25971800088882446289e-02) (73, -3.63864190876483917236e-02) (74, 6.38382062315940856934e-02) (75, -3.19627039134502410889e-02) (76, 4.09238860011100769043e-02) (77, -3.64923588931560516357e-02) (78, 3.54897677898406982422e-01) (79, 1.88888579607009887695e-01) (80, -1.18792600929737091064e-01) (81, -9.33730006217956542969e-02) (82, -1.23789772391319274902e-01) (83, 1.08334474265575408936e-01) (84, 7.19284042716026306152e-02) (85, 6.50471374392509460449e-02) (86, 3.31638395786285400391e-01) (87, 1.41161605715751647949e-01) (88, -2.09578941576182842255e-03) (89, -3.63988317549228668213e-02) (90, 9.66824218630790710449e-02) (91, 1.58001899719238281250e-01) (92, 1.07297394424676895142e-02) (93, 1.52879863977432250977e-01) (94, -3.54825593531131744385e-02) (95, -6.27179816365242004395e-02) (96, 1.12325258553028106689e-01) (97, 1.85801401734352111816e-01) (98, -1.56423851847648620605e-01) (99, -8.97551625967025756836e-02) (100, -8.45832750201225280762e-02) (101, 1.02699004113674163818e-01) (102, 1.23804822564125061035e-01) (103, 2.58731693029403686523e-02) (104, 4.48079667985439300537e-02) (105, 7.43394792079925537109e-02) (106, 6.85731545090675354004e-02) (107, 5.05387932062149047852e-02) (108, 1.13885188475251197815e-02) (109, -1.33294850587844848633e-01) (110, 5.52039891481399536133e-02) (111, 3.34713533520698547363e-02) (112, 3.25962483882904052734e-01) (113, 2.58373677730560302734e-01) (114, 1.00521780550479888916e-01) (115, -1.89997423440217971802e-02) (116, 2.70004738122224807739e-02) (117, 3.27504873275756835938e-02) (118, 1.04032978415489196777e-01) (119, 2.62838393449783325195e-01) (120, 1.15536316297948360443e-03) (121, -2.45845597237348556519e-02) (122, -3.61640043556690216064e-02) (123, 5.68134430795907974243e-03) (124, 1.30131153855472803116e-03) (125, -9.17621888220310211182e-03) (126, -2.52177696675062179565e-02) (127, -3.57269658707082271576e-04) (128, 3.49652796983718872070e-01) (129, 2.78809219598770141602e-01) (130, -4.07467335462570190430e-02) (131, 7.57169783115386962891e-01) (132, 6.68542027473449707031e-01) (133, -7.11432993412017822266e-02) (134, 3.45509732142090797424e-04) (135, -2.19117756932973861694e-02) (136, 6.46645948290824890137e-02) (137, 7.58149325847625732422e-02) (138, -4.46517020463943481445e-02) (139, -1.50093197822570800781e-01) (140, -8.97007063031196594238e-02) (141, -2.01464980840682983398e-01) (142, -8.76125395298004150391e-02) (143, -1.20646692812442779541e-02) (144, 2.55928844213485717773e-01) (145, 3.49412620067596435547e-01) (146, 4.37263548374176025391e-01) (147, 3.50244730710983276367e-01) (148, 7.87419259548187255859e-01) (149, -2.65268678776919841766e-03) (150, -7.60429725050926208496e-02) (151, -1.77487321197986602783e-02) (152, -2.06822529435157775879e-02) (153, 2.53493878990411758423e-02) (154, -5.69822750985622406006e-02) (155, 5.91535344719886779785e-02) (156, -7.06683546304702758789e-02) (157, 2.50917021185159683228e-03) (158, -2.93628007173538208008e-01) (159, -5.66862151026725769043e-03) (160, -3.99336777627468109131e-02) (161, -7.11103826761245727539e-02) (162, -2.16934606432914733887e-02) (163, 3.61198604106903076172e-01) (164, 3.35283249616622924805e-01) (165, 3.75157207250595092773e-01) (166, 3.05406212806701660156e-01) (167, 9.27774980664253234863e-02) (168, 1.22193366289138793945e-01) (169, -3.63833345472812652588e-02) (170, 1.00654967129230499268e-01) (171, 9.04923379421234130859e-02) (172, -1.04339718818664550781e-01) (173, 5.20456247031688690186e-02) (174, -3.41123193502426147461e-02) (175, -1.19872152805328369141e-01) (176, 1.54719471931457519531e-01) (177, -1.08620803803205490112e-02) (178, 1.06526903808116912842e-01) (179, -1.42918348312377929688e-01) (180, -2.19767130911350250244e-02) (181, -1.58580005168914794922e-01) (182, -9.96718704700469970703e-02) (183, -1.91663578152656555176e-01) (184, 5.00886067748069763184e-02) (185, -2.13509835302829742432e-02) (186, 9.20368358492851257324e-02) (187, 4.51353341341018676758e-02) (188, 4.17826063930988311768e-02) (189, -2.38946918398141860962e-02) (190, 6.98790773749351501465e-02) (191, -1.17051601409912109375e-01) (192, 9.12646576762199401855e-02) (193, 1.30443304777145385742e-01) (194, 2.23535090684890747070e-01) (195, -2.89259124547243118286e-02) (196, 3.17642986774444580078e-02) (197, -2.97047626227140426636e-02) (198, 6.73923548310995101929e-03) (199, -1.28977671265602111816e-01) (200, -1.22711457312107086182e-01) (201, -1.11384019255638122559e-01) (202, -1.59276485443115234375e-01) (203, -1.41163662075996398926e-01) (204, -7.71848261356353759766e-02) (205, 5.96898514777421951294e-03) (206, -7.24052265286445617676e-02) (207, -1.50365114212036132812e-01) (208, 9.90488473325967788696e-03) (209, 2.30577796697616577148e-01) (210, 2.48484700918197631836e-01) (211, 1.27820521593093872070e-02) (212, 1.77447587251663208008e-01) (213, 6.50104731321334838867e-02) (214, 6.03125691413879394531e-02) (215, 1.77998960018157958984e-01) (216, 1.04846023023128509521e-01) (217, 8.18933919072151184082e-03) (218, -1.26872986555099487305e-01) (219, -8.33886861801147460938e-02) (220, -9.05915275216102600098e-02) (221, 1.50037169456481933594e-01) (222, 1.88134744763374328613e-01) (223, 1.73160120844841003418e-01) (224, -4.60478700697422027588e-02) (225, -1.50640336796641349792e-02) (226, 8.17317795008420944214e-03) (227, 2.96795051544904708862e-02) (228, -1.94711983203887939453e-02) (229, 9.05836373567581176758e-02) (230, 6.98963552713394165039e-02) (231, 1.22977457940578460693e-01) (232, 3.09353936463594436646e-02) (233, 1.05447649955749511719e-01) (234, 1.39287695288658142090e-01) (235, 1.04088047519326210022e-02) (236, 1.54286190867424011230e-01) (237, 2.16638684272766113281e-01) (238, 2.14879080653190612793e-01) (239, 5.60971856117248535156e-01) (240, 1.51190698146820068359e-01) (241, 6.97489798069000244141e-01) (242, 3.23996573686599731445e-01) (243, 5.92329492792487144470e-03) (244, 3.40119928121566772461e-01) (245, 3.29007387161254882812e-01) (246, 3.42022836208343505859e-01) (247, -8.00615996122360229492e-02) (248, -9.20723155140876770020e-02) (249, -1.18536250665783882141e-02) (250, 2.74684326723217964172e-03) (251, 8.81873443722724914551e-02) (252, -1.10102593898773193359e-01) (253, 5.67597746849060058594e-02) (254, -1.32704526185989379883e-01) (255, -8.52817520499229431152e-02) (256, 5.27262464165687561035e-02) (0, -9.81816053390502929688e-02) (1, -1.17265157401561737061e-01) (2, -2.93532758951187133789e-01) (3, 1.18936264514923095703e+00) (4, 1.18570744991302490234e+00) (5, -2.32132506370544433594e+00) (6, 9.24387425184249877930e-02) (7, 1.87695980072021484375e-01) (8, 2.60791659355163574219e-01) (9, -1.89737781882286071777e-01) (10, -4.20745611190795898438e-02) (11, 1.63789048790931701660e-01) (12, 3.67537178099155426025e-02) (13, 1.50000000000000000000e+03) (14, 1.50000000000000000000e+03) (15, 1.50000000000000000000e+03) (16, 5.71728169918060302734e-01) (17, -1.75325727462768554688e+00) (18, -2.21540272235870361328e-01) (19, -9.67860102653503417969e-01) (20, -3.55666846036911010742e-01) (21, -1.70408344268798828125e+00) (22, -2.07991623878479003906e+00) (23, 2.13635072112083435059e-01) (24, -1.62523701786994934082e-01) (25, 7.42122083902359008789e-02) (26, -7.41392374038696289062e-02) (27, 9.60634648799896240234e-01) (28, 4.96765756607055664062e+00) (29, 9.50359523296356201172e-01) (30, 1.70417296886444091797e+00) (31, 3.45776885747909545898e-01) (32, -1.75359740853309631348e-01) (33, -6.31211638450622558594e-01) (34, -2.07607197761535644531e+00) (35, -4.17249560356140136719e-01) (36, -1.18488311767578125000e+00) (37, -4.17104437947273254395e-02) (38, -6.34818673133850097656e-01) (39, -5.15003740787506103516e-01) (40, 3.85075211524963378906e-01) (41, 5.25034070014953613281e-01) (42, 4.81401056051254272461e-01) (43, 9.27062153816223144531e-01) (44, 7.94092297554016113281e-01) (45, 1.80142807960510253906e+00) (46, 1.71231913566589355469e+00) (47, -5.03935098648071289062e-01) (48, -1.13119018077850341797e+00) (49, -1.37271791696548461914e-01) (50, -1.30869835615158081055e-01) (51, -3.90797793865203857422e-01) (52, 1.82951033115386962891e-01) (53, -4.88613285124301910400e-02) (54, -3.65675389766693115234e-01) (55, -1.70474424958229064941e-01) (56, -1.27056241035461425781e-01) (57, 8.22383999824523925781e-01) (58, 2.24601253867149353027e-01) (59, -1.19509913027286529541e-01) (60, -2.68790811300277709961e-01) (61, -3.59490007162094116211e-01) (62, -4.01430785655975341797e-01) (63, -5.81622064113616943359e-01) (64, 6.60934925079345703125e-01) (65, -2.98899292945861816406e-01) (66, 6.37404397130012512207e-02) (67, 7.52912402153015136719e-01) (68, -2.85525023937225341797e-01) (69, -2.29072898626327514648e-01) (70, 2.13078543543815612793e-01) (71, 7.31824219226837158203e-01) (72, 3.51510010659694671631e-02) (73, 1.02566822897642850876e-03) (74, -1.37522056698799133301e-01) (75, -1.07635771855711936951e-02) (76, 8.69670286774635314941e-02) (77, 1.41801726818084716797e+00) (78, 1.19105947017669677734e+00) (79, -1.71757563948631286621e-01) (80, -1.72831550240516662598e-01) (81, -1.22188061475753784180e-01) (82, -5.62167242169380187988e-02) (83, -1.71943515539169311523e-01) (84, -2.78235048055648803711e-01) (85, -2.24050477147102355957e-01) (86, -2.18773975968360900879e-01) (87, -7.50193297863006591797e-02) (88, -1.22493021190166473389e-01) (89, -6.55576661229133605957e-02) (90, 2.83628225326538085938e-01) (91, -1.29290685057640075684e-01) (92, 5.72451055049896240234e-01) (93, 2.06945851445198059082e-01) (94, -1.61501419544219970703e+00) (95, -1.18886578083038330078e+00) (96, -2.59770657867193222046e-02) (97, -3.86219203472137451172e-01) (98, -4.79250580072402954102e-01) (99, -8.68360102176666259766e-02) (100, -4.62115854024887084961e-01) (101, -3.25045466423034667969e-01) (102, -2.62277185916900634766e-01) (103, -3.44717621803283691406e-01) (104, -5.60913920402526855469e-01) (105, 5.62716960906982421875e-01) (106, 3.63918691873550415039e-01) (107, 3.52901875972747802734e-01) (108, 3.67605358362197875977e-01) (109, -9.08573746681213378906e-01) (110, 8.36859226226806640625e-01) (111, -1.34593176841735839844e+00) (112, -1.08721703290939331055e-02) (113, -6.40329271554946899414e-02) (114, -3.62761467695236206055e-01) (115, -2.06961080431938171387e-01) (116, -3.46485465764999389648e-01) (117, -3.49957972764968872070e-01) (118, -4.31990325450897216797e-01) (119, 2.40680977702140808105e-01) (120, -2.26742908358573913574e-01) (121, -1.49021819233894348145e-01) (122, 1.34230867028236389160e-01) (123, 2.92226835153996944427e-03) (124, -3.62633049488067626953e-01) (125, 2.86882579326629638672e-01) (126, 2.20575153827667236328e-01) (127, 1.10542317852377891541e-02) (128, -1.13935759291052818298e-02) (129, 1.67724005877971649170e-02) (130, -3.39808575809001922607e-02) (131, -4.00568395853042602539e-01) (132, -5.58826327323913574219e-02) (133, 8.87366905808448791504e-02) (134, 2.79883682727813720703e-01) (135, -1.86226461082696914673e-02) (136, -2.75192949920892715454e-02) (137, -2.56472229957580566406e-01) (138, 1.70583754777908325195e-01) (139, 1.03623878955841064453e+00) (140, -1.08007751405239105225e-01) (141, -1.42733752727508544922e-01) (142, 4.01090830564498901367e-02) (143, -2.04923868179321289062e-01) (144, -2.90677472949028015137e-02) (145, -7.99179822206497192383e-02) (146, -2.25015580654144287109e-02) (147, -1.65632620453834533691e-01) (148, -1.49225711822509765625e-01) (149, 9.05784070491790771484e-02) (150, 2.83767767250537872314e-02) (151, 3.80689859390258789062e-01) (152, -2.01179504394531250000e-01) (153, -1.20617955923080444336e-01) (154, 4.63769406080245971680e-01) (155, 1.99901759624481201172e-01) (156, 2.12699085474014282227e-01) (157, -7.60550379753112792969e-01) (158, 1.89730837941169738770e-01) (159, 2.91649371385574340820e-01) (160, -2.23281949758529663086e-01) (161, -9.40871834754943847656e-02) (162, 6.25361735001206398010e-03) (163, -4.05822128057479858398e-01) (164, -4.87605109810829162598e-02) (165, -7.54534527659416198730e-02) (166, -1.90939143300056457520e-01) (167, -2.18795284628868103027e-01) (168, 1.79447576403617858887e-01) (169, 4.09440636634826660156e-01) (170, 4.97093439102172851562e-01) (171, 4.97094631195068359375e-01) (172, -1.19293056428432464600e-01) (173, -1.90873652696609497070e-01) (174, -6.06606185436248779297e-01) (175, -3.24460357427597045898e-01) (176, 1.18387728929519653320e-01) (177, 2.85900443792343139648e-01) (178, -5.06258726119995117188e-01) (179, 1.00515902042388916016e+00) (180, -2.44356229901313781738e-01) (181, -1.86386704444885253906e-01) (182, -2.17603996396064758301e-01) (183, -1.58757731318473815918e-01) (184, -3.30685168504714965820e-01) (185, -1.95736557245254516602e-01) (186, -1.78074881434440612793e-01) (187, -8.13169628381729125977e-02) (188, -8.15356969833374023438e-02) (189, -1.47882595658302307129e-01) (190, -1.16905502974987030029e-01) (191, -5.84806859493255615234e-01) (192, -2.60445863008499145508e-01) (193, -2.73061841726303100586e-01) (194, -2.27810561656951904297e-01) (195, 1.16847805678844451904e-01) (196, -6.49902597069740295410e-02) (197, -4.78071384131908416748e-02) (198, 1.02087415754795074463e-01) (199, 6.95412009954452514648e-02) (200, -6.04260303080081939697e-02) (201, -8.23138877749443054199e-02) (202, 2.33539231121540069580e-02) (203, -8.70082825422286987305e-02) (204, -5.73015213012695312500e-02) (205, -1.47101297974586486816e-01) (206, 2.17246070504188537598e-01) (207, -2.46870934963226318359e-01) (208, -8.20403471589088439941e-02) (209, -3.01348101347684860229e-02) (210, -5.33827662467956542969e-01) (211, 4.98950600624084472656e-01) (212, -1.24157893657684326172e+00) (213, -2.86473724991083145142e-02) (214, -1.87254443764686584473e-01) (215, -9.18857380747795104980e-02) (216, -2.92504310607910156250e-01) (217, 9.97866541147232055664e-02) (218, -2.98206001520156860352e-01) (219, -2.19342321157455444336e-01) (220, -2.23553329706192016602e-01) (221, -1.04214295744895935059e-01) (222, -3.26118499040603637695e-01) (223, -4.61137443780899047852e-01) (224, 2.68875539302825927734e-01) (225, -2.98597756773233413696e-02) (226, 1.47932440042495727539e-01) (227, 1.57331749796867370605e-02) (228, -3.52221131324768066406e-01) (229, -2.38790130615234375000e+00) (230, -4.42576020956039428711e-01) (231, -5.52926436066627502441e-02) (232, 3.74920159578323364258e-01) (233, 2.52300649881362915039e-01) (234, 3.85000735521316528320e-01) (235, 1.21388092637062072754e-01) (236, 2.06985324621200561523e-01) (237, -2.86723613739013671875e-01) (238, -3.23741585016250610352e-01) (239, -1.32411742210388183594e+00) (240, -1.31013363599777221680e-01) (241, -3.51530939340591430664e-01) (242, 5.26716291904449462891e-01) (243, 5.12321330606937408447e-02) (244, 1.97955399751663208008e-01) (245, -2.10176631808280944824e-02) (246, -1.68372526764869689941e-01) (247, 9.60964024066925048828e-01) (248, -5.12243360280990600586e-02) (249, 2.20739781856536865234e-01) (250, 3.32671254873275756836e-01) (251, 2.29924142360687255859e-01) (252, 3.52881520986557006836e-01) (253, 2.91206330060958862305e-01) (254, 3.19758892059326171875e-01) (255, 2.71867603063583374023e-01) (256, -1.84477791190147399902e-01) (0, 1.82177829742431640625e+00) (1, 5.99713981151580810547e-01) (2, 8.45861256122589111328e-01) (3, -2.24511146545410156250e-01) (4, -3.16005796194076538086e-02) (5, -3.35502552986145019531e+00) (6, -6.32820427417755126953e-01) (7, -3.53765398263931274414e-01) (8, 1.30488693714141845703e-01) (9, -1.39502242207527160645e-01) (10, -5.45556768774986267090e-02) (11, -4.21145915985107421875e-01) (12, -4.82118070125579833984e-01) (13, 1.50000000000000000000e+03) (14, 1.50000000000000000000e+03) (15, 1.50000000000000000000e+03) (16, 1.65999859571456909180e-01) (17, 2.24261000752449035645e-01) (18, 1.10727854073047637939e-01) (19, 1.21896691620349884033e-01) (20, 3.64231228828430175781e-01) (21, 1.98136314749717712402e-01) (22, -1.26042413711547851562e+00) (23, 8.90611290931701660156e-01) (24, 7.86249414086341857910e-02) (25, -5.53947947919368743896e-02) (26, 1.41565591096878051758e-01) (27, 1.39441204071044921875e+01) (28, 1.83741891384124755859e+00) (29, 8.74570739746093750000e+02) (30, 6.84708452224731445312e+00) (31, -8.28717947006225585938e-01) (32, -2.78124153614044189453e-01) (33, -1.49597376585006713867e-02) (34, 3.76140624284744262695e-02) (35, -8.61636642366647720337e-03) (36, -1.77802294492721557617e-01) (37, 3.21133434772491455078e-01) (38, 3.76096546649932861328e-01) (39, 2.90582209825515747070e-01) (40, -2.31958910822868347168e-01) (41, 6.00269436836242675781e-01) (42, 1.33803713321685791016e+00) (43, 5.80636002123355865479e-02) (44, 1.65786445140838623047e-01) (45, 5.05130554199218750000e+02) (46, -1.15698928833007812500e+01) (47, -3.68274338543415069580e-02) (48, 1.80097579956054687500e-01) (49, -1.17278486490249633789e-01) (50, -1.89786273986101150513e-02) (51, 2.58496582508087158203e-01) (52, 5.41063189506530761719e-01) (53, 2.48929664492607116699e-01) (54, -6.61934465169906616211e-02) (55, 2.47748885303735733032e-02) (56, -2.91246294975280761719e-01) (57, 1.12506997585296630859e+00) (58, 3.55011373758316040039e-01) (59, 1.75249818712472915649e-02) (60, -1.38674601912498474121e-01) (61, -1.08536386489868164062e+00) (62, -2.37504355609416961670e-02) (63, 4.30040031671524047852e-01) (64, 1.36342465877532958984e-01) (65, 1.39153838157653808594e-01) (66, 1.01112879812717437744e-01) (67, 5.35103380680084228516e-01) (68, 7.56076335906982421875e-01) (69, 7.51733183860778808594e-02) (70, 6.07338607311248779297e-01) (71, 1.78094828128814697266e+00) (72, 1.42795369029045104980e-01) (73, 4.62550133466720581055e-01) (74, 2.67491996288299560547e-01) (75, 2.20943763852119445801e-01) (76, 5.62168300151824951172e-01) (77, -6.41038894653320312500e-01) (78, -6.30329921841621398926e-02) (79, 2.71600246429443359375e-01) (80, -7.43564292788505554199e-02) (81, -4.23969119787216186523e-01) (82, -2.66457289457321166992e-01) (83, 1.85797706246376037598e-01) (84, 1.15046568214893341064e-01) (85, 9.24286767840385437012e-02) (86, 6.20417147874832153320e-02) (87, 3.39835345745086669922e-01) (88, 2.42590799927711486816e-01) (89, -4.80539202690124511719e-01) (90, 1.84082150459289550781e-01) (91, 2.69539386034011840820e-01) (92, 2.32632517814636230469e-01) (93, -1.33130803704261779785e-01) (94, 1.19108557701110839844e-01) (95, 6.24299585819244384766e-01) (96, 5.93813620507717132568e-02) (97, -1.51554450392723083496e-01) (98, -1.73726856708526611328e-01) (99, 4.36886310577392578125e-01) (100, -6.26742541790008544922e-02) (101, -2.42733303457498550415e-02) (102, 2.89129447191953659058e-02) (103, -9.76932793855667114258e-02) (104, -5.70235669612884521484e-01) (105, -2.67308622598648071289e-01) (106, 3.18222761154174804688e-01) (107, 1.81924730539321899414e-01) (108, 2.42809146642684936523e-01) (109, 2.56003618240356445312e-01) (110, 4.58438992500305175781e-01) (111, 5.11513948440551757812e-01) (112, 9.19274240732192993164e-02) (113, -3.70600402355194091797e-01) (114, 8.09406209737062454224e-03) (115, -4.70927089452743530273e-01) (116, 5.88060058653354644775e-02) (117, 1.69497385621070861816e-01) (118, 9.33380573987960815430e-02) (119, -1.06897008419036865234e+00) (120, -7.43323341012001037598e-02) (121, -4.87498454749584197998e-02) (122, -1.20169021189212799072e-01) (123, -2.21751227974891662598e-01) (124, 3.34202945232391357422e-01) (125, 4.25417512655258178711e-01) (126, 2.98140019178390502930e-01) (127, 5.21136879920959472656e-01) (128, -2.10437044501304626465e-01) (129, -4.39362257719039916992e-01) (130, -1.69037610292434692383e-01) (131, -1.80944189429283142090e-01) (132, -2.74690240621566772461e-01) (133, -7.21243247389793395996e-02) (134, -3.65005970001220703125e-01) (135, -2.68951356410980224609e-01) (136, -2.97290176153182983398e-01) (137, 5.51468804478645324707e-02) (138, 4.71711903810501098633e-01) (139, 5.11095225811004638672e-01) (140, -5.60150504112243652344e-01) (141, 7.38473683595657348633e-02) (142, 9.44818854331970214844e-02) (143, 4.07696455717086791992e-01) (144, -5.00974416732788085938e-01) (145, -1.12914271652698516846e-01) (146, -2.10022166371345520020e-01) (147, -9.62786078453063964844e-01) (148, -6.10112428665161132812e-01) (149, 8.13997626304626464844e-01) (150, -1.54769986867904663086e-01) (151, -3.14636081457138061523e-01) (152, 1.75903603434562683105e-01) (153, 3.76535356044769287109e-01) (154, 3.03556621074676513672e-01) (155, -2.35222414135932922363e-01) (156, 3.22293341159820556641e-01) (157, 1.21840782463550567627e-01) (158, 6.62603080272674560547e-02) (159, 1.41640976071357727051e-01) (160, 1.51779036968946456909e-02) (161, -1.70002967119216918945e-01) (162, -2.21656620502471923828e-01) (163, -3.01901191473007202148e-01) (164, -6.77394628524780273438e-01) (165, -4.38197553157806396484e-02) (166, -7.82125651836395263672e-01) (167, -7.42326453328132629395e-02) (168, 3.72527271509170532227e-01) (169, 1.63734301924705505371e-01) (170, 1.54645770788192749023e-01) (171, 2.69921362400054931641e-01) (172, -3.20119887590408325195e-01) (173, -2.11756587028503417969e-01) (174, 1.39346608193591237068e-04) (175, 2.82188117504119873047e-01) (176, -1.31133913993835449219e-01) (177, 3.70658725500106811523e-01) (178, -2.63433992862701416016e-01) (179, 3.34692031145095825195e-01) (180, -5.23210227489471435547e-01) (181, -3.35479706525802612305e-01) (182, -4.25455927848815917969e-01) (183, -6.71001672744750976562e-02) (184, -1.66129112243652343750e-01) (185, 3.18128198385238647461e-01) (186, 1.68798163533210754395e-01) (187, 1.47743567824363708496e-01) (188, -1.27628356218338012695e-01) (189, -1.47365733981132507324e-01) (190, -3.58243077993392944336e-01) (191, -1.63722440600395202637e-01) (192, -1.68742552399635314941e-01) (193, 1.23765721917152404785e-01) (194, 7.07231402397155761719e-01) (195, 2.95995146036148071289e-01) (196, 2.81345725059509277344e-01) (197, -1.25555396080017089844e-01) (198, -2.53388155251741409302e-02) (199, -1.94675717502832412720e-02) (200, -9.78633984923362731934e-02) (201, -1.83514073491096496582e-01) (202, -2.49813824892044067383e-01) (203, -1.79131597280502319336e-01) (204, -2.36263617873191833496e-01) (205, -2.20299765467643737793e-01) (206, -6.09158813953399658203e-01) (207, -4.94647264480590820312e-01) (208, 1.33529603481292724609e-02) (209, -4.18967865407466888428e-02) (210, -6.39228582382202148438e-01) (211, -6.26660168170928955078e-01) (212, 7.04039812088012695312e-01) (213, -9.21931769698858261108e-03) (214, 3.55992078781127929688e-01) (215, 3.44249069690704345703e-01) (216, 1.71696752309799194336e-01) (217, -3.93086045980453491211e-01) (218, 1.86629340052604675293e-01) (219, 7.45057091116905212402e-02) (220, -2.78416007757186889648e-01) (221, -1.15238599479198455811e-01) (222, 3.33755351603031158447e-02) (223, 2.66692757606506347656e-01) (224, 2.76751983910799026489e-02) (225, -6.03672087192535400391e-01) (226, 5.59767305850982666016e-01) (227, -1.11247785389423370361e-01) (228, -5.82755982875823974609e-01) (229, 2.06086814403533935547e-01) (230, 5.77023625373840332031e-01) (231, 5.93759655952453613281e-01) (232, 1.90211180597543716431e-02) (233, -1.01377993822097778320e-01) (234, 6.62948906421661376953e-01) (235, 4.15689468383789062500e-01) (236, 1.22097924351692199707e-01) (237, 3.61829511821269989014e-02) (238, 8.41495543718338012695e-02) (239, -4.67818737030029296875e-01) (240, -1.53306126594543457031e-01) (241, 5.50524711608886718750e-01) (242, 5.89512407779693603516e-01) (243, -5.09391665458679199219e-01) (244, -4.25524085760116577148e-01) (245, -2.01066160202026367188e+00) (246, 4.38010811805725097656e-01) (247, -1.46336021423339843750e+01) (248, 2.97838628292083740234e-01) (249, -1.05960457585752010345e-03) (250, -7.81445577740669250488e-02) (251, 3.39522063732147216797e-02) (252, 1.72423169016838073730e-01) (253, -3.82230579853057861328e-01) (254, -5.08938968181610107422e-01) (255, 3.91480684280395507812e-01) (256, 3.99083703756332397461e-01) (0, -1.09032765030860900879e-01) (1, 3.98139715194702148438e-01) (2, 2.85648077726364135742e-01) (3, -3.52343283593654632568e-02) (4, 2.41730958223342895508e-02) (5, -1.63658589124679565430e-01) (6, 1.69680222868919372559e-01) (7, 4.15242969989776611328e-01) (8, -4.73184064030647277832e-02) (9, 2.36669614911079406738e-01) (10, 2.74132281541824340820e-01) (11, 2.25248113274574279785e-01) (12, 2.38022938370704650879e-01) (13, 1.50000000000000000000e+03) (14, 1.50000000000000000000e+03) (15, 1.50000000000000000000e+03) (16, -1.40149639919400215149e-02) (17, -6.91062286496162414551e-02) (18, 1.01566672325134277344e-01) (19, 1.40444850549101829529e-02) (20, 3.32732051610946655273e-02) (21, 8.83838310837745666504e-02) (22, 3.09115741401910781860e-02) (23, 5.47800622880458831787e-02) (24, -5.97709678113460540771e-02) (25, -9.89206507802009582520e-02) (26, -7.28098005056381225586e-02) (27, 7.27676823735237121582e-02) (28, 2.46806219220161437988e-02) (29, -4.98696118593215942383e-01) (30, -2.39011630415916442871e-01) (31, -1.65561661124229431152e-01) (32, 4.02103811502456665039e-02) (33, 5.64982667565345764160e-02) (34, 1.78306568413972854614e-02) (35, 4.42015798762440681458e-03) (36, 1.40452468767762184143e-02) (37, -1.77523624151945114136e-02) (38, -4.99025732278823852539e-02) (39, -1.31410092115402221680e-01) (40, -8.07255432009696960449e-02) (41, -2.54938621073961257935e-02) (42, 2.84885372966527938843e-02) (43, 6.73716440796852111816e-02) (44, -1.48011162877082824707e-01) (45, -7.59766340255737304688e-01) (46, -5.78659582138061523438e+00) (47, -7.08999782800674438477e-02) (48, -3.04711982607841491699e-02) (49, -1.05298854410648345947e-01) (50, -9.21928882598876953125e-02) (51, -1.92786138504743576050e-02) (52, -1.43460214138031005859e-01) (53, -1.09276711940765380859e-01) (54, -2.92204413563013076782e-03) (55, -4.99809868633747100830e-02) (56, -3.71362194418907165527e-02) (57, 1.06029644608497619629e-01) (58, 4.91600409150123596191e-02) (59, -3.13819269649684429169e-03) (60, -4.35002520680427551270e-02) (61, 8.05251151323318481445e-02) (62, 3.81321102380752563477e-01) (63, -8.48429277539253234863e-02) (64, -1.13920308649539947510e-01) (65, -9.85484272241592407227e-02) (66, -1.24498516321182250977e-01) (67, -1.17945000529289245605e-01) (68, -5.40798623114824295044e-03) (69, -6.28804415464401245117e-02) (70, -1.02971084415912628174e-01) (71, -1.81091818958520889282e-02) (72, 9.15001034736633300781e-02) (73, 6.56682923436164855957e-02) (74, -9.56809520721435546875e-02) (75, -7.23130553960800170898e-02) (76, -2.01518964022397994995e-02) (77, -5.85497729480266571045e-02) (78, -1.93350747227668762207e-01) (79, -7.65049904584884643555e-02) (80, 5.89827112853527069092e-02) (81, -6.40029758214950561523e-02) (82, -9.30500999093055725098e-02) (83, -4.38195280730724334717e-02) (84, -2.64130085706710815430e-02) (85, -1.53482006862759590149e-02) (86, 2.01844628900289535522e-02) (87, 2.06784289330244064331e-02) (88, -6.86581358313560485840e-02) (89, -5.04089146852493286133e-03) (90, -1.26263216137886047363e-01) (91, 4.06831279397010803223e-02) (92, -1.46307824179530143738e-02) (93, -5.16389496624469757080e-02) (94, -5.20815886557102203369e-03) (95, 5.64175732433795928955e-02) (96, 2.86448635160923004150e-02) (97, -4.80063930153846740723e-02) (98, 5.06015941500663757324e-02) (99, -1.01439476013183593750e-01) (100, 5.47820515930652618408e-02) (101, 3.45844849944114685059e-02) (102, 2.91611459106206893921e-02) (103, -5.38573972880840301514e-02) (104, 6.38590678572654724121e-02) (105, 2.77263242751359939575e-02) (106, -1.50533169507980346680e-01) (107, -1.50671631097793579102e-01) (108, 6.24643266201019287109e-03) (109, 5.84972389042377471924e-02) (110, -2.12449833750724792480e-01) (111, -3.30127179622650146484e-02) (112, -9.33714136481285095215e-02) (113, -9.49233099818229675293e-02) (114, 8.35553258657455444336e-02) (115, 3.83858419954776763916e-02) (116, -6.31645917892456054688e-02) (117, 8.13528746366500854492e-02) (118, 8.45983028411865234375e-02) (119, 8.31560641527175903320e-02) (120, 7.13995695114135742188e-02) (121, -3.31577584147453308105e-02) (122, -1.40070691704750061035e-01) (123, -6.62899315357208251953e-02) (124, -7.14506283402442932129e-02) (125, -1.36800725013017654419e-02) (126, -1.25857919454574584961e-01) (127, -6.39546290040016174316e-02) (128, 2.96552269719541072845e-03) (129, -8.51060375571250915527e-02) (130, 3.29630821943283081055e-02) (131, -1.13832280039787292480e-01) (132, 1.14356563426554203033e-03) (133, -2.17819921672344207764e-02) (134, 3.34375277161598205566e-02) (135, 2.71892920136451721191e-02) (136, 9.40344557166099548340e-02) (137, -5.37868775427341461182e-02) (138, -5.14648705720901489258e-02) (139, 7.41333980113267898560e-03) (140, -6.43327906727790832520e-02) (141, -2.82377898693084716797e-02) (142, 6.86136707663536071777e-02) (143, -5.40647879242897033691e-02) (144, 3.58450226485729217529e-02) (145, 9.17290747165679931641e-02) (146, -8.40683504939079284668e-02) (147, 4.35361474752426147461e-01) (148, 4.80225011706352233887e-02) (149, -8.23451802134513854980e-02) (150, 1.56802684068679809570e-02) (151, -1.17122977972030639648e-01) (152, -2.95768044888973236084e-02) (153, -7.14729726314544677734e-02) (154, 9.16588003747165203094e-04) (155, 1.53045337647199630737e-02) (156, -5.24177812039852142334e-02) (157, -6.84312824159860610962e-03) (158, -1.79020725190639495850e-02) (159, -8.20163860917091369629e-02) (160, -1.04856211692094802856e-02) (161, -1.63960326462984085083e-02) (162, -5.16692362725734710693e-02) (163, 2.29567456990480422974e-02) (164, -4.75334748625755310059e-02) (165, 2.74633646011352539062e-01) (166, 3.27272444963455200195e-01) (167, 6.37951046228408813477e-02) (168, -5.47835640609264373779e-02) (169, -1.38147190213203430176e-01) (170, -1.03087730705738067627e-01) (171, -7.30955302715301513672e-02) (172, 5.15622273087501525879e-02) (173, -2.70604826509952545166e-02) (174, 7.82804191112518310547e-03) (175, 2.71366089582443237305e-02) (176, -1.25326931476593017578e-01) (177, 2.28057689964771270752e-02) (178, -7.51845836639404296875e-02) (179, 