FANN_FLO_2.1
num_layers=3
learning_rate=0.700000
connection_rate=1.000000
network_type=0
learning_momentum=0.000000
training_algorithm=2
train_error_function=1
train_stop_function=0
cascade_output_change_fraction=0.010000
quickprop_decay=-0.000100
quickprop_mu=1.750000
rprop_increase_factor=1.200000
rprop_decrease_factor=0.500000
rprop_delta_min=0.000000
rprop_delta_max=50.000000
rprop_delta_zero=0.100000
cascade_output_stagnation_epochs=12
cascade_candidate_change_fraction=0.010000
cascade_candidate_stagnation_epochs=12
cascade_max_out_epochs=150
cascade_min_out_epochs=50
cascade_max_cand_epochs=150
cascade_min_cand_epochs=50
cascade_num_candidate_groups=2
bit_fail_limit=3.49999994039535522461e-01
cascade_candidate_limit=1.00000000000000000000e+03
cascade_weight_multiplier=4.00000005960464477539e-01
cascade_activation_functions_count=10
cascade_activation_functions=3 5 7 8 10 11 14 15 16 17 
cascade_activation_steepnesses_count=4
cascade_activation_steepnesses=2.50000000000000000000e-01 5.00000000000000000000e-01 7.50000000000000000000e-01 1.00000000000000000000e+00 
layer_sizes=257 131 11 
scale_included=0
neurons (num_inputs, activation_function, activation_steepness)=(0, 0, 0.00000000000000000000e+00) (0, 0, 0.00000000000000000000e+00) (0, 0, 0.00000000000000000000e+00) (0, 0, 0.00000000000000000000e+00) (0, 0, 0.00000000000000000000e+00) (0, 0, 0.00000000000000000000e+00) (0, 0, 0.00000000000000000000e+00) (0, 0, 0.00000000000000000000e+00) (0, 0, 0.00000000000000000000e+00) (0, 0, 0.00000000000000000000e+00) (0, 0, 0.00000000000000000000e+00) (0, 0, 0.00000000000000000000e+00) (0, 0, 0.00000000000000000000e+00) (0, 0, 0.00000000000000000000e+00) (0, 0, 0.00000000000000000000e+00) (0, 0, 0.00000000000000000000e+00) (0, 0, 0.00000000000000000000e+00) (0, 0, 0.00000000000000000000e+00) (0, 0, 0.00000000000000000000e+00) (0, 0, 0.00000000000000000000e+00) (0, 0, 0.00000000000000000000e+00) (0, 0, 0.00000000000000000000e+00) (0, 0, 0.00000000000000000000e+00) (0, 0, 0.00000000000000000000e+00) (0, 0, 0.00000000000000000000e+00) (0, 0, 0.00000000000000000000e+00) (0, 0, 0.00000000000000000000e+00) (0, 0, 0.00000000000000000000e+00) (0, 0, 0.00000000000000000000e+00) (0, 0, 0.00000000000000000000e+00) (0, 0, 0.00000000000000000000e+00) (0, 0, 0.00000000000000000000e+00) (0, 0, 0.00000000000000000000e+00) (0, 0, 0.00000000000000000000e+00) (0, 0, 0.00000000000000000000e+00) (0, 0, 0.00000000000000000000e+00) (0, 0, 0.00000000000000000000e+00) (0, 0, 0.00000000000000000000e+00) (0, 0, 0.00000000000000000000e+00) (0, 0, 0.00000000000000000000e+00) (0, 0, 0.00000000000000000000e+00) (0, 0, 0.00000000000000000000e+00) (0, 0, 0.00000000000000000000e+00) (0, 0, 0.00000000000000000000e+00) (0, 0, 0.00000000000000000000e+00) (0, 0, 0.00000000000000000000e+00) (0, 0, 0.00000000000000000000e+00) (0, 0, 0.00000000000000000000e+00) (0, 0, 0.00000000000000000000e+00) (0, 0, 0.00000000000000000000e+00) (0, 0, 0.00000000000000000000e+00) (0, 0, 0.00000000000000000000e+00) (0, 0, 0.00000000000000000000e+00) (0, 0, 0.00000000000000000000e+00) (0, 0, 0.00000000000000000000e+00) (0, 0, 0.00000000000000000000e+00) (0, 0, 0.00000000000000000000e+00) (0, 0, 0.00000000000000000000e+00) (0, 0, 0.00000000000000000000e+00) (0, 0, 0.00000000000000000000e+00) (0, 0, 0.00000000000000000000e+00) (0, 0, 0.00000000000000000000e+00) (0, 0, 0.00000000000000000000e+00) (0, 0, 0.00000000000000000000e+00) (0, 0, 0.00000000000000000000e+00) (0, 0, 0.00000000000000000000e+00) (0, 0, 0.00000000000000000000e+00) (0, 0, 0.00000000000000000000e+00) (0, 0, 0.00000000000000000000e+00) (0, 0, 0.00000000000000000000e+00) (0, 0, 0.00000000000000000000e+00) (0, 0, 0.00000000000000000000e+00) (0, 0, 0.00000000000000000000e+00) (0, 0, 0.00000000000000000000e+00) (0, 0, 0.00000000000000000000e+00) (0, 0, 0.00000000000000000000e+00) (0, 0, 0.00000000000000000000e+00) (0, 0, 0.00000000000000000000e+00) (0, 0, 0.00000000000000000000e+00) (0, 0, 0.00000000000000000000e+00) (0, 0, 0.00000000000000000000e+00) (0, 0, 0.00000000000000000000e+00) (0, 0, 0.00000000000000000000e+00) (0, 0, 0.00000000000000000000e+00) (0, 0, 0.00000000000000000000e+00) (0, 0, 0.00000000000000000000e+00) (0, 0, 0.00000000000000000000e+00) (0, 0, 0.00000000000000000000e+00) (0, 0, 0.00000000000000000000e+00) (0, 0, 0.00000000000000000000e+00) (0, 0, 0.00000000000000000000e+00) (0, 0, 0.00000000000000000000e+00) (0, 0, 0.00000000000000000000e+00) (0, 0, 0.00000000000000000000e+00) (0, 0, 0.00000000000000000000e+00) (0, 0, 0.00000000000000000000e+00) (0, 0, 0.00000000000000000000e+00) (0, 0, 0.00000000000000000000e+00) (0, 0, 0.00000000000000000000e+00) (0, 0, 0.00000000000000000000e+00) (0, 0, 0.00000000000000000000e+00) (0, 0, 0.00000000000000000000e+00) (0, 0, 0.00000000000000000000e+00) (0, 0, 0.00000000000000000000e+00) (0, 0, 0.00000000000000000000e+00) (0, 0, 0.00000000000000000000e+00) (0, 0, 0.00000000000000000000e+00) (0, 0, 0.00000000000000000000e+00) (0, 0, 0.00000000000000000000e+00) (0, 0, 0.00000000000000000000e+00) (0, 0, 0.00000000000000000000e+00) (0, 0, 0.00000000000000000000e+00) (0, 0, 0.00000000000000000000e+00) (0, 0, 0.00000000000000000000e+00) (0, 0, 0.00000000000000000000e+00) (0, 0, 0.00000000000000000000e+00) (0, 0, 0.00000000000000000000e+00) (0, 0, 0.00000000000000000000e+00) (0, 0, 0.00000000000000000000e+00) (0, 0, 0.00000000000000000000e+00) (0, 0, 0.00000000000000000000e+00) (0, 0, 0.00000000000000000000e+00) (0, 0, 0.00000000000000000000e+00) (0, 0, 0.00000000000000000000e+00) (0, 0, 0.00000000000000000000e+00) (0, 0, 0.00000000000000000000e+00) (0, 0, 0.00000000000000000000e+00) (0, 0, 0.00000000000000000000e+00) (0, 0, 0.00000000000000000000e+00) (0, 0, 0.00000000000000000000e+00) (0, 0, 0.00000000000000000000e+00) (0, 0, 0.00000000000000000000e+00) (0, 0, 0.00000000000000000000e+00) (0, 0, 0.00000000000000000000e+00) (0, 0, 0.00000000000000000000e+00) (0, 0, 0.00000000000000000000e+00) (0, 0, 0.00000000000000000000e+00) (0, 0, 0.00000000000000000000e+00) (0, 0, 0.00000000000000000000e+00) (0, 0, 0.00000000000000000000e+00) (0, 0, 0.00000000000000000000e+00) (0, 0, 0.00000000000000000000e+00) (0, 0, 0.00000000000000000000e+00) (0, 0, 0.00000000000000000000e+00) (0, 0, 0.00000000000000000000e+00) (0, 0, 0.00000000000000000000e+00) (0, 0, 0.00000000000000000000e+00) (0, 0, 0.00000000000000000000e+00) (0, 0, 0.00000000000000000000e+00) (0, 0, 0.00000000000000000000e+00) (0, 0, 0.00000000000000000000e+00) (0, 0, 0.00000000000000000000e+00) (0, 0, 0.00000000000000000000e+00) (0, 0, 0.00000000000000000000e+00) (0, 0, 0.00000000000000000000e+00) (0, 0, 0.00000000000000000000e+00) (0, 0, 0.00000000000000000000e+00) (0, 0, 0.00000000000000000000e+00) (0, 0, 0.00000000000000000000e+00) (0, 0, 0.00000000000000000000e+00) (0, 0, 0.00000000000000000000e+00) (0, 0, 0.00000000000000000000e+00) (0, 0, 0.00000000000000000000e+00) (0, 0, 0.00000000000000000000e+00) (0, 0, 0.00000000000000000000e+00) (0, 0, 0.00000000000000000000e+00) (0, 0, 0.00000000000000000000e+00) (0, 0, 0.00000000000000000000e+00) (0, 0, 0.00000000000000000000e+00) (0, 0, 0.00000000000000000000e+00) (0, 0, 0.00000000000000000000e+00) (0, 0, 0.00000000000000000000e+00) (0, 0, 0.00000000000000000000e+00) (0, 0, 0.00000000000000000000e+00) (0, 0, 0.00000000000000000000e+00) (0, 0, 0.00000000000000000000e+00) (0, 0, 0.00000000000000000000e+00) (0, 0, 0.00000000000000000000e+00) (0, 0, 0.00000000000000000000e+00) (0, 0, 0.00000000000000000000e+00) (0, 0, 0.00000000000000000000e+00) (0, 0, 0.00000000000000000000e+00) (0, 0, 0.00000000000000000000e+00) (0, 0, 0.00000000000000000000e+00) (0, 0, 0.00000000000000000000e+00) (0, 0, 0.00000000000000000000e+00) (0, 0, 0.00000000000000000000e+00) (0, 0, 0.00000000000000000000e+00) (0, 0, 0.00000000000000000000e+00) (0, 0, 0.00000000000000000000e+00) (0, 0, 0.00000000000000000000e+00) (0, 0, 0.00000000000000000000e+00) (0, 0, 0.00000000000000000000e+00) (0, 0, 0.00000000000000000000e+00) (0, 0, 0.00000000000000000000e+00) (0, 0, 0.00000000000000000000e+00) (0, 0, 0.00000000000000000000e+00) (0, 0, 0.00000000000000000000e+00) (0, 0, 0.00000000000000000000e+00) (0, 0, 0.00000000000000000000e+00) (0, 0, 0.00000000000000000000e+00) (0, 0, 0.00000000000000000000e+00) (0, 0, 0.00000000000000000000e+00) (0, 0, 0.00000000000000000000e+00) (0, 0, 0.00000000000000000000e+00) (0, 0, 0.00000000000000000000e+00) (0, 0, 0.00000000000000000000e+00) (0, 0, 0.00000000000000000000e+00) (0, 0, 0.00000000000000000000e+00) (0, 0, 0.00000000000000000000e+00) (0, 0, 0.00000000000000000000e+00) (0, 0, 0.00000000000000000000e+00) (0, 0, 0.00000000000000000000e+00) (0, 0, 0.00000000000000000000e+00) (0, 0, 0.00000000000000000000e+00) (0, 0, 0.00000000000000000000e+00) (0, 0, 0.00000000000000000000e+00) (0, 0, 0.00000000000000000000e+00) (0, 0, 0.00000000000000000000e+00) (0, 0, 0.00000000000000000000e+00) (0, 0, 0.00000000000000000000e+00) (0, 0, 0.00000000000000000000e+00) (0, 0, 0.00000000000000000000e+00) (0, 0, 0.00000000000000000000e+00) (0, 0, 0.00000000000000000000e+00) (0, 0, 0.00000000000000000000e+00) (0, 0, 0.00000000000000000000e+00) (0, 0, 0.00000000000000000000e+00) (0, 0, 0.00000000000000000000e+00) (0, 0, 0.00000000000000000000e+00) (0, 0, 0.00000000000000000000e+00) (0, 0, 0.00000000000000000000e+00) (0, 0, 0.00000000000000000000e+00) (0, 0, 0.00000000000000000000e+00) (0, 0, 0.00000000000000000000e+00) (0, 0, 0.00000000000000000000e+00) (0, 0, 0.00000000000000000000e+00) (0, 0, 0.00000000000000000000e+00) (0, 0, 0.00000000000000000000e+00) (0, 0, 0.00000000000000000000e+00) (0, 0, 0.00000000000000000000e+00) (0, 0, 0.00000000000000000000e+00) (0, 0, 0.00000000000000000000e+00) (0, 0, 0.00000000000000000000e+00) (0, 0, 0.00000000000000000000e+00) (0, 0, 0.00000000000000000000e+00) (0, 0, 0.00000000000000000000e+00) (0, 0, 0.00000000000000000000e+00) (0, 0, 0.00000000000000000000e+00) (0, 0, 0.00000000000000000000e+00) (0, 0, 0.00000000000000000000e+00) (0, 0, 0.00000000000000000000e+00) (0, 0, 0.00000000000000000000e+00) (0, 0, 0.00000000000000000000e+00) (0, 0, 0.00000000000000000000e+00) (0, 0, 0.00000000000000000000e+00) (0, 0, 0.00000000000000000000e+00) (257, 5, 5.00000000000000000000e-01) (257, 5, 5.00000000000000000000e-01) (257, 5, 5.00000000000000000000e-01) (257, 5, 5.00000000000000000000e-01) (257, 5, 5.00000000000000000000e-01) (257, 5, 5.00000000000000000000e-01) (257, 5, 5.00000000000000000000e-01) (257, 5, 5.00000000000000000000e-01) (257, 5, 5.00000000000000000000e-01) (257, 5, 5.00000000000000000000e-01) (257, 5, 5.00000000000000000000e-01) (257, 5, 5.00000000000000000000e-01) (257, 5, 5.00000000000000000000e-01) (257, 5, 5.00000000000000000000e-01) (257, 5, 5.00000000000000000000e-01) (257, 5, 5.00000000000000000000e-01) (257, 5, 5.00000000000000000000e-01) (257, 5, 5.00000000000000000000e-01) (257, 5, 5.00000000000000000000e-01) (257, 5, 5.00000000000000000000e-01) (257, 5, 5.00000000000000000000e-01) (257, 5, 5.00000000000000000000e-01) (257, 5, 5.00000000000000000000e-01) (257, 5, 5.00000000000000000000e-01) (257, 5, 5.00000000000000000000e-01) (257, 5, 5.00000000000000000000e-01) (257, 5, 5.00000000000000000000e-01) (257, 5, 5.00000000000000000000e-01) (257, 5, 5.00000000000000000000e-01) (257, 5, 5.00000000000000000000e-01) (257, 5, 5.00000000000000000000e-01) (257, 5, 5.00000000000000000000e-01) (257, 5, 5.00000000000000000000e-01) (257, 5, 5.00000000000000000000e-01) (257, 5, 5.00000000000000000000e-01) (257, 5, 5.00000000000000000000e-01) (257, 5, 5.00000000000000000000e-01) (257, 5, 5.00000000000000000000e-01) (257, 5, 5.00000000000000000000e-01) (257, 5, 5.00000000000000000000e-01) (257, 5, 5.00000000000000000000e-01) (257, 5, 5.00000000000000000000e-01) (257, 5, 5.00000000000000000000e-01) (257, 5, 5.00000000000000000000e-01) (257, 5, 5.00000000000000000000e-01) (257, 5, 5.00000000000000000000e-01) (257, 5, 5.00000000000000000000e-01) (257, 5, 5.00000000000000000000e-01) (257, 5, 5.00000000000000000000e-01) (257, 5, 5.00000000000000000000e-01) (257, 5, 5.00000000000000000000e-01) (257, 5, 5.00000000000000000000e-01) (257, 5, 5.00000000000000000000e-01) (257, 5, 5.00000000000000000000e-01) (257, 5, 5.00000000000000000000e-01) (257, 5, 5.00000000000000000000e-01) (257, 5, 5.00000000000000000000e-01) (257, 5, 5.00000000000000000000e-01) (257, 5, 5.00000000000000000000e-01) (257, 5, 5.00000000000000000000e-01) (257, 5, 5.00000000000000000000e-01) (257, 5, 5.00000000000000000000e-01) (257, 5, 5.00000000000000000000e-01) (257, 5, 5.00000000000000000000e-01) (257, 5, 5.00000000000000000000e-01) (257, 5, 5.00000000000000000000e-01) (257, 5, 5.00000000000000000000e-01) (257, 5, 5.00000000000000000000e-01) (257, 5, 5.00000000000000000000e-01) (257, 5, 5.00000000000000000000e-01) (257, 5, 5.00000000000000000000e-01) (257, 5, 5.00000000000000000000e-01) (257, 5, 5.00000000000000000000e-01) (257, 5, 5.00000000000000000000e-01) (257, 5, 5.00000000000000000000e-01) (257, 5, 5.00000000000000000000e-01) (257, 5, 5.00000000000000000000e-01) (257, 5, 5.00000000000000000000e-01) (257, 5, 5.00000000000000000000e-01) (257, 5, 5.00000000000000000000e-01) (257, 5, 5.00000000000000000000e-01) (257, 5, 5.00000000000000000000e-01) (257, 5, 5.00000000000000000000e-01) (257, 5, 5.00000000000000000000e-01) (257, 5, 5.00000000000000000000e-01) (257, 5, 5.00000000000000000000e-01) (257, 5, 5.00000000000000000000e-01) (257, 5, 5.00000000000000000000e-01) (257, 5, 5.00000000000000000000e-01) (257, 5, 5.00000000000000000000e-01) (257, 5, 5.00000000000000000000e-01) (257, 5, 5.00000000000000000000e-01) (257, 5, 5.00000000000000000000e-01) (257, 5, 5.00000000000000000000e-01) (257, 5, 5.00000000000000000000e-01) (257, 5, 5.00000000000000000000e-01) (257, 5, 5.00000000000000000000e-01) (257, 5, 5.00000000000000000000e-01) (257, 5, 5.00000000000000000000e-01) (257, 5, 5.00000000000000000000e-01) (257, 5, 5.00000000000000000000e-01) (257, 5, 5.00000000000000000000e-01) (257, 5, 5.00000000000000000000e-01) (257, 5, 5.00000000000000000000e-01) (257, 5, 5.00000000000000000000e-01) (257, 5, 5.00000000000000000000e-01) (257, 5, 5.00000000000000000000e-01) (257, 5, 5.00000000000000000000e-01) (257, 5, 5.00000000000000000000e-01) (257, 5, 5.00000000000000000000e-01) (257, 5, 5.00000000000000000000e-01) (257, 5, 5.00000000000000000000e-01) (257, 5, 5.00000000000000000000e-01) (257, 5, 5.00000000000000000000e-01) (257, 5, 5.00000000000000000000e-01) (257, 5, 5.00000000000000000000e-01) (257, 5, 5.00000000000000000000e-01) (257, 5, 5.00000000000000000000e-01) (257, 5, 5.00000000000000000000e-01) (257, 5, 5.00000000000000000000e-01) (257, 5, 5.00000000000000000000e-01) (257, 5, 5.00000000000000000000e-01) (257, 5, 5.00000000000000000000e-01) (257, 5, 5.00000000000000000000e-01) (257, 5, 5.00000000000000000000e-01) (257, 5, 5.00000000000000000000e-01) (257, 5, 5.00000000000000000000e-01) (257, 5, 5.00000000000000000000e-01) (257, 5, 5.00000000000000000000e-01) (257, 5, 5.00000000000000000000e-01) (0, 5, 0.00000000000000000000e+00) (131, 5, 5.00000000000000000000e-01) (131, 5, 5.00000000000000000000e-01) (131, 5, 5.00000000000000000000e-01) (131, 5, 5.00000000000000000000e-01) (131, 5, 5.00000000000000000000e-01) (131, 5, 5.00000000000000000000e-01) (131, 5, 5.00000000000000000000e-01) (131, 5, 5.00000000000000000000e-01) (131, 5, 5.00000000000000000000e-01) (131, 5, 5.00000000000000000000e-01) (0, 5, 0.00000000000000000000e+00) 
connections (connected_to_neuron, weight)=(0, -4.99132066965103149414e-01) (1, -4.56401646137237548828e-01) (2, -1.18723058700561523438e+00) (3, 2.72158414125442504883e-01) (4, 4.78249818086624145508e-01) (5, -8.00774171948432922363e-02) (6, -1.19163036346435546875e+00) (7, -8.01560163497924804688e-01) (8, 3.68490552902221679688e+00) (9, 1.49790048599243164062e-01) (10, 2.47280463576316833496e-01) (11, -2.35238477587699890137e-01) (12, -1.70134812593460083008e-01) (13, 4.67921681702136993408e-02) (14, -6.17334425449371337891e-01) (15, 4.60974082946777343750e+01) (16, -5.03581225872039794922e-01) (17, -2.57955074310302734375e-01) (18, -3.36657464504241943359e-01) (19, -1.88796035945415496826e-02) (20, -1.69774740934371948242e-01) (21, -6.16180419921875000000e-01) (22, -5.64962923526763916016e-01) (23, -2.95442491769790649414e-01) (24, -5.03909215331077575684e-02) (25, 2.59310472756624221802e-03) (26, -8.91220793128013610840e-02) (27, 1.29792919921875000000e+03) (28, -2.46206402778625488281e+00) (29, -5.12758791446685791016e-01) (30, -1.52192533016204833984e+00) (31, 3.20220661163330078125e+00) (32, -1.66706010699272155762e-01) (33, 6.67506828904151916504e-02) (34, -1.02843500673770904541e-01) (35, -5.28067387640476226807e-02) (36, -1.18458375334739685059e-01) (37, -3.81555333733558654785e-02) (38, -3.25812250375747680664e-01) (39, -1.55037380754947662354e-02) (40, 1.38622951507568359375e+00) (41, 1.49999035644531250000e+03) (42, 2.52026534080505371094e+00) (43, 1.40969787597656250000e+03) (44, 9.89741563796997070312e-01) (45, 1.48656298828125000000e+03) (46, 1.49799990653991699219e+00) (47, 7.66311466693878173828e-01) (48, -1.47381216287612915039e-01) (49, -5.70748709142208099365e-02) (50, 1.50593342259526252747e-02) (51, -7.20062702894210815430e-02) (52, 6.13039016723632812500e-01) (53, 7.95974433422088623047e-02) (54, -2.28164508938789367676e-01) (55, 7.55332335829734802246e-02) (56, 1.42589956521987915039e-01) (57, -3.01940646022558212280e-03) (58, 1.19162268936634063721e-01) (59, 7.84872565418481826782e-03) (60, 2.75334287434816360474e-02) (61, 2.35467795282602310181e-02) (62, -2.66558587551116943359e-01) (63, -4.00354802608489990234e-01) (64, -1.49637520313262939453e-01) (65, -7.37794935703277587891e-02) (66, 6.13400898873805999756e-03) (67, 8.54218527674674987793e-02) (68, 3.02827358245849609375e-01) (69, -1.50814616680145263672e+00) (70, -1.52209222316741943359e-01) (71, -8.53434428572654724121e-02) (72, 4.90779578685760498047e-02) (73, 5.05412928760051727295e-02) (74, 1.50129988789558410645e-01) (75, 2.13920414447784423828e-01) (76, 1.26023352146148681641e-01) (77, 5.56744970381259918213e-02) (78, -6.43287897109985351562e-01) (79, -2.65464544296264648438e-01) (80, 5.89871816337108612061e-02) (81, 1.52981400489807128906e-01) (82, 2.86423675715923309326e-02) (83, -5.18600568175315856934e-02) (84, -1.56402409076690673828e-01) (85, -1.04185780510306358337e-02) (86, -8.26422870159149169922e-02) (87, 9.38304737210273742676e-02) (88, 1.61711901426315307617e-01) (89, 1.26627221703529357910e-01) (90, 4.35398578643798828125e-01) (91, 2.77094334363937377930e-01) (92, -1.20760641992092132568e-01) (93, 4.16142284870147705078e-01) (94, 3.07077795267105102539e-01) (95, 5.54797761142253875732e-02) (96, -2.13719494640827178955e-02) (97, 1.82615086436271667480e-01) (98, -1.18845514953136444092e-02) (99, -2.24522218108177185059e-01) (100, -6.78342133760452270508e-02) (101, -4.72012944519519805908e-02) (102, 7.20776021480560302734e-02) (103, 5.42134791612625122070e-02) (104, 2.21708312630653381348e-01) (105, 3.01054120063781738281e-01) (106, 5.23595996201038360596e-02) (107, 1.38241991400718688965e-01) (108, -2.09582105278968811035e-01) (109, 1.95234179496765136719e-01) (110, 1.44247651100158691406e+00) (111, 2.57581293582916259766e-01) (112, -1.86478123068809509277e-01) (113, 2.93130815029144287109e-01) (114, 2.40101143717765808105e-01) (115, 2.62150913476943969727e-01) (116, 8.14006850123405456543e-02) (117, 8.03946554660797119141e-02) (118, -4.79296110570430755615e-02) (119, -5.45084550976753234863e-02) (120, -2.07874644547700881958e-02) (121, 2.19176486134529113770e-02) (122, 9.91425141692161560059e-02) (123, 2.03606113791465759277e-02) (124, -3.96825708448886871338e-02) (125, 3.02436888217926025391e-01) (126, 2.87697762250900268555e-01) (127, 5.06720602512359619141e-01) (128, 1.12781748175621032715e-01) (129, 4.67394888401031494141e-02) (130, -6.47379338741302490234e-01) (131, -7.87441372871398925781e-01) (132, 6.92685320973396301270e-02) (133, 1.00350409746170043945e-01) (134, 2.78004467487335205078e-01) (135, 9.47851780802011489868e-03) (136, 5.42588889598846435547e-01) (137, 1.99511259794235229492e-01) (138, 1.42465233802795410156e-01) (139, 1.01027429103851318359e-01) (140, -6.77470490336418151855e-02) (141, 5.51186688244342803955e-02) (142, -6.74936845898628234863e-02) (143, 1.56168296933174133301e-01) (144, 1.08981117606163024902e-01) (145, 1.37289881706237792969e-01) (146, 3.07866036891937255859e-01) (147, -1.07400789856910705566e-01) (148, 5.57164669036865234375e-01) (149, 9.50888544321060180664e-02) (150, 3.80168780684471130371e-02) (151, 1.89477324485778808594e-01) (152, 2.69571244716644287109e-01) (153, 2.86405205726623535156e-01) (154, 2.62695513665676116943e-02) (155, -2.68505867570638656616e-02) (156, 9.34536904096603393555e-02) (157, 1.39696612954139709473e-01) (158, 1.26624405384063720703e-01) (159, 1.23262323439121246338e-01) (160, 4.88281063735485076904e-02) (161, 1.15485101938247680664e-01) (162, -8.55063572525978088379e-02) (163, 1.55952513217926025391e-01) (164, 3.47140967845916748047e-01) (165, -1.09224069118499755859e+00) (166, 9.34435188770294189453e-01) (167, 3.11129480600357055664e-01) (168, 2.22936391830444335938e-01) (169, 4.52516734600067138672e-01) (170, -3.05489357560873031616e-02) (171, -7.86004588007926940918e-03) (172, -1.27929434180259704590e-01) (173, 2.83921182155609130859e-01) (174, 3.16843956708908081055e-01) (175, 6.86579495668411254883e-02) (176, 3.57922017574310302734e-02) (177, 1.45710304379463195801e-01) (178, -2.28128820657730102539e-01) (179, -1.24857455492019653320e-01) (180, 5.06591647863388061523e-02) (181, 8.01709219813346862793e-02) (182, 1.88577592372894287109e-01) (183, 2.79774069786071777344e-01) (184, 2.09481984376907348633e-01) (185, 4.46604527533054351807e-02) (186, 8.73021930456161499023e-02) (187, -6.17227777838706970215e-02) (188, -4.17074829339981079102e-01) (189, 1.84955537319183349609e-01) (190, 2.17176154255867004395e-02) (191, 2.01307311654090881348e-01) (192, 6.46353736519813537598e-02) (193, 8.27162116765975952148e-02) (194, 5.67439973354339599609e-01) (195, 2.16289103031158447266e-01) (196, 1.36290490627288818359e+00) (197, -3.99021431803703308105e-02) (198, 1.44705146551132202148e-01) (199, -9.79487784206867218018e-03) (200, -9.54128918237984180450e-04) (201, 9.03151780366897583008e-02) (202, -8.17112699151039123535e-02) (203, -2.94427070766687393188e-02) (204, 7.87072181701660156250e-02) (205, 4.27243709564208984375e-02) (206, 3.16689871251583099365e-02) (207, -3.36270686239004135132e-03) (208, 1.45068898797035217285e-01) (209, 2.32696592807769775391e-01) (210, 1.86594033241271972656e+00) (211, 5.56459184736013412476e-04) (212, -4.12660777568817138672e-01) (213, -1.73738479614257812500e-01) (214, 1.44589200615882873535e-01) (215, 1.48642947897315025330e-02) (216, -1.01599991321563720703e-01) (217, -3.09518855065107345581e-02) (218, 1.90657690167427062988e-01) (219, 1.80647984147071838379e-01) (220, 1.77269518375396728516e-01) (221, 9.02635529637336730957e-02) (222, 2.78450753539800643921e-02) (223, 1.00884616374969482422e-01) (224, 1.21949255466461181641e-01) (225, -1.15158647298812866211e-01) (226, 1.69073057174682617188e+00) (227, -1.03251459077000617981e-02) (228, 9.20827627182006835938e-01) (229, 5.43592751026153564453e-01) (230, 4.59015592932701110840e-02) (231, 1.14697702229022979736e-01) (232, 1.32922470569610595703e-01) (233, -1.61562915891408920288e-02) (234, 7.68059641122817993164e-02) (235, 1.89784169197082519531e-01) (236, 3.39908897876739501953e-02) (237, 6.98904246091842651367e-02) (238, 1.86911374330520629883e-01) (239, -1.22982525825500488281e+00) (240, 3.15423041582107543945e-01) (241, -2.98544079065322875977e-01) (242, 4.98855322599411010742e-01) (243, -8.73603940010070800781e-01) (244, 5.22249400615692138672e-01) (245, 4.17759857177734375000e+02) (246, -4.16977355957031250000e+02) (247, 1.09058119356632232666e-01) (248, -6.00395858287811279297e-01) (249, 3.26847851276397705078e-01) (250, -7.74523764848709106445e-02) (251, 3.31757187843322753906e-01) (252, 3.90537351369857788086e-01) (253, 3.31537067890167236328e-01) (254, 2.88848668336868286133e-01) (255, -1.41870081424713134766e+00) (256, 5.39695890620350837708e-03) (0, 1.36390197277069091797e+00) (1, 1.54553723335266113281e+00) (2, 1.41037297248840332031e+00) (3, 1.17050015926361083984e+00) (4, 5.30870318412780761719e-01) (5, -1.54350674152374267578e+00) (6, -6.83645069599151611328e-01) (7, 6.62588477134704589844e-01) (8, -1.80835630744695663452e-02) (9, -2.84562885761260986328e-01) (10, -3.17893803119659423828e-01) (11, 1.79046750068664550781e-01) (12, 1.52006775140762329102e-01) (13, 4.96336698532104492188e-01) (14, 2.28044676780700683594e+00) (15, 7.38690197467803955078e-01) (16, 4.35277312994003295898e-01) (17, 7.41119265556335449219e-01) (18, 1.19307029247283935547e+00) (19, 8.75177681446075439453e-01) (20, -6.63725659251213073730e-02) (21, 9.43290054798126220703e-01) (22, 1.06502079963684082031e+00) (23, 1.47486841678619384766e+00) (24, 8.42164933681488037109e-01) (25, 5.28488516807556152344e-01) (26, 4.78020876646041870117e-01) (27, 6.60700380802154541016e-01) (28, -1.45975768566131591797e-01) (29, -1.72152861952781677246e-01) (30, 1.01875865459442138672e+00) (31, 1.53744590282440185547e+00) (32, 4.22889500856399536133e-01) (33, 5.44672727584838867188e-01) (34, 5.65647602081298828125e-01) (35, 3.37587893009185791016e-01) (36, 7.07905590534210205078e-01) (37, 5.93400478363037109375e-01) (38, 7.61252045631408691406e-01) (39, 2.33900204300880432129e-01) (40, -3.53428088128566741943e-02) (41, -2.10050797462463378906e+00) (42, 6.02641224861145019531e-01) (43, 2.70409703254699707031e+00) (44, 4.53439891338348388672e-01) (45, -2.37534379959106445312e+00) (46, -1.36679923534393310547e+00) (47, 1.14950501918792724609e+00) (48, 3.37481349706649780273e-01) (49, 6.89803183078765869141e-01) (50, 5.12754917144775390625e-01) (51, -9.26777422428131103516e-02) (52, 3.89022231101989746094e-01) (53, 3.33543330430984497070e-01) (54, 2.46739387512207031250e-01) (55, -2.52042949199676513672e-01) (56, -5.32450377941131591797e-02) (57, 2.28876113891601562500e-01) (58, 3.57199549674987792969e-01) (59, -2.28723928332328796387e-01) (60, -3.84566307067871093750e-01) (61, -3.81861239671707153320e-01) (62, -9.97233092784881591797e-01) (63, -2.52654939889907836914e-01) (64, 1.89421340823173522949e-01) (65, 2.05272361636161804199e-01) (66, 2.81614869832992553711e-01) (67, 1.66370779275894165039e-01) (68, 9.32264864444732666016e-01) (69, 3.03347826004028320312e-01) (70, -1.12836092710494995117e-01) (71, -3.90836238861083984375e-01) (72, 1.53766542673110961914e-01) (73, -3.25513541698455810547e-01) (74, 1.77019327878952026367e-01) (75, 2.43460670113563537598e-01) (76, 1.73398599028587341309e-01) (77, -2.64480352401733398438e-01) (78, 4.06005293130874633789e-01) (79, 3.28733503818511962891e-01) (80, -2.37975120544433593750e-01) (81, -3.09460222721099853516e-01) (82, -1.78294748067855834961e-01) (83, -1.40887841582298278809e-01) (84, -1.59810975193977355957e-01) (85, -7.25320819765329360962e-03) (86, -2.95568481087684631348e-02) (87, 1.94188579916954040527e-01) (88, 1.40088871121406555176e-01) (89, 2.29732990264892578125e-01) (90, 1.66615486145019531250e-01) (91, -5.44955097138881683350e-02) (92, -2.49174341559410095215e-01) (93, 9.22715738415718078613e-02) (94, 3.31688612699508666992e-01) (95, 4.09763395786285400391e-01) (96, -1.32107004523277282715e-01) (97, -2.32880692929029464722e-02) (98, -1.47484868764877319336e-01) (99, -3.89553457498550415039e-01) (100, 8.45160260796546936035e-02) (101, -4.32886600494384765625e-01) (102, 2.84256398677825927734e-01) (103, -7.36954212188720703125e-01) (104, -6.84203207492828369141e-02) (105, 7.50302821397781372070e-02) (106, -5.67631497979164123535e-02) (107, -3.99436391890048980713e-02) (108, 1.14580979570746421814e-02) (109, 5.22241652011871337891e-01) (110, 7.35280513763427734375e-01) (111, 6.97400644421577453613e-02) (112, 4.07616734504699707031e-01) (113, -5.09954869747161865234e-01) (114, -7.85159826278686523438e-01) (115, -5.61365112662315368652e-02) (116, -4.76620286703109741211e-01) (117, -2.93110042810440063477e-01) (118, -3.01290094852447509766e-01) (119, -3.03356677293777465820e-01) (120, -1.11782228946685791016e+00) (121, -5.40809869766235351562e-01) (122, 2.91239935904741287231e-02) (123, -2.38819971680641174316e-01) (124, 3.95572811365127563477e-01) (125, 1.57813858985900878906e+00) (126, 6.46195292472839355469e-01) (127, 2.40188658237457275391e-01) (128, -3.65296900272369384766e-01) (129, -6.26897335052490234375e-01) (130, -4.55289512872695922852e-01) (131, 9.15294662117958068848e-02) (132, -5.40642160922288894653e-03) (133, -3.84969174861907958984e-01) (134, -1.88882336020469665527e-01) (135, -2.19981983304023742676e-01) (136, -2.49960586428642272949e-01) (137, -2.80193954706192016602e-01) (138, -2.91663438081741333008e-01) (139, -1.76867708563804626465e-01) (140, -2.10672706365585327148e-01) (141, -2.36112162470817565918e-01) (142, 3.83783817291259765625e-01) (143, 3.18223714828491210938e-01) (144, -2.38926738500595092773e-01) (145, -3.70140701532363891602e-01) (146, -2.23877638578414916992e-01) (147, -2.83654987812042236328e-01) (148, -1.60603225231170654297e-01) (149, -3.58663946390151977539e-02) (150, 9.18850898742675781250e-02) (151, -3.33193689584732055664e-01) (152, -5.30713498592376708984e-01) (153, -4.29019689559936523438e-01) (154, -3.51827025413513183594e-01) (155, -1.35081872344017028809e-01) (156, 3.14843297004699707031e-01) (157, 2.92567342519760131836e-01) (158, 2.47311353683471679688e-01) (159, 2.36471474170684814453e-01) (160, 2.28102490305900573730e-01) (161, -3.92259567975997924805e-01) (162, -2.45607763528823852539e-01) (163, -2.52258956432342529297e-01) (164, -1.46409243345260620117e-01) (165, 4.02963273227214813232e-02) (166, -2.79084056615829467773e-01) (167, -7.78718590736389160156e-02) (168, -6.97505846619606018066e-02) (169, 3.48774492740631103516e-02) (170, -1.73550155013799667358e-02) (171, -3.21098953485488891602e-01) (172, -6.42387092113494873047e-01) (173, 7.52150192856788635254e-02) (174, 1.54768794775009155273e-01) (175, 1.68806329369544982910e-01) (176, -6.49817883968353271484e-02) (177, 2.02508457005023956299e-03) (178, 5.02630293369293212891e-01) (179, 1.68032124638557434082e-01) (180, -2.91133224964141845703e-01) (181, -1.36353373527526855469e-01) (182, -1.53024345636367797852e-01) (183, -5.29391348361968994141e-01) (184, -4.42814081907272338867e-01) (185, -2.57684469223022460938e-01) (186, -1.39823362231254577637e-01) (187, -4.78844314813613891602e-01) (188, -4.24174934625625610352e-01) (189, -2.70683944225311279297e-01) (190, -2.76633620262145996094e-01) (191, -1.49828121066093444824e-01) (192, -3.07787265628576278687e-02) (193, -1.21797569096088409424e-01) (194, 2.59986907243728637695e-01) (195, 2.43690609931945800781e-01) (196, 1.90044119954109191895e-01) (197, 3.21596086025238037109e-01) (198, -1.94435521960258483887e-01) (199, -2.37465411424636840820e-01) (200, -2.48790472745895385742e-01) (201, 1.02528803050518035889e-01) (202, -2.30730980634689331055e-01) (203, 2.65801638364791870117e-01) (204, -4.15009826421737670898e-01) (205, -2.25098252296447753906e-01) (206, -3.01362246274948120117e-01) (207, -2.85194486379623413086e-01) (208, 1.67165681719779968262e-01) (209, -2.05542907118797302246e-01) (210, -2.19274714589118957520e-01) (211, 1.72216761112213134766e+00) (212, 3.71021240949630737305e-01) (213, 4.47057604789733886719e-01) (214, 2.47749295085668563843e-02) (215, -8.07427465915679931641e-02) (216, -1.04702979326248168945e-01) (217, 1.87250692397356033325e-02) (218, -1.80551465600728988647e-02) (219, -3.30207608640193939209e-02) (220, -3.72207462787628173828e-02) (221, -5.48651777207851409912e-02) (222, 2.23433948121964931488e-03) (223, -2.30882212519645690918e-01) (224, -8.81745889782905578613e-02) (225, -2.13355451822280883789e-01) (226, -1.32112061977386474609e+00) (227, 1.46119701862335205078e+00) (228, 5.56609749794006347656e-01) (229, 5.41347563266754150391e-01) (230, 8.62062692642211914062e-01) (231, 2.53179728984832763672e-01) (232, -3.04893031716346740723e-02) (233, 6.40008375048637390137e-02) (234, -5.32584786415100097656e-02) (235, -9.87555831670761108398e-02) (236, 1.50677263736724853516e-01) (237, -1.57465875148773193359e-01) (238, -3.58489990234375000000e-01) (239, 1.14334650337696075439e-01) (240, -5.43767094612121582031e-01) (241, -2.91709125041961669922e-01) (242, -1.50163844227790832520e-01) (243, -5.41218280792236328125e-01) (244, 3.73252868652343750000e-01) (245, 7.40595400333404541016e-01) (246, 1.17707586288452148438e+00) (247, 4.80504572391510009766e-01) (248, -6.23299956321716308594e-01) (249, -5.01632727682590484619e-02) (250, 2.09923148155212402344e-01) (251, 1.69603064656257629395e-01) (252, -8.16921770572662353516e-01) (253, -1.40605223178863525391e+00) (254, -4.14737403392791748047e-01) (255, 1.30464613437652587891e+00) (256, -3.24203163385391235352e-01) (0, -4.31372032165527343750e+01) (1, -8.55485737323760986328e-01) (2, -2.85287648439407348633e-01) (3, 1.17355637252330780029e-01) (4, 6.09330236911773681641e-01) (5, -1.22270345687866210938e+00) (6, -1.57421931624412536621e-01) (7, -5.45378356933593750000e+02) (8, -4.91393297910690307617e-01) (9, -2.06765472888946533203e-01) (10, 6.90693855285644531250e-02) (11, -1.41365301609039306641e+00) (12, -7.80867459252476692200e-03) (13, 7.18011632561683654785e-02) (14, -1.97613430023193359375e+00) (15, -1.32551431655883789062e+01) (16, -1.66685366630554199219e+00) (17, -1.50000000000000000000e+03) (18, -1.49949267578125000000e+03) (19, -1.49995117187500000000e+03) (20, -1.48252929687500000000e+03) (21, -1.49602502441406250000e+03) (22, 9.24484878778457641602e-02) (23, -4.74472731351852416992e-01) (24, -2.69189715385437011719e-01) (25, -4.52455431222915649414e-01) (26, -4.31692093610763549805e-01) (27, -5.59394598007202148438e-01) (28, 2.12059795856475830078e-01) (29, -1.21607749938964843750e+02) (30, -5.48464000225067138672e-01) (31, 2.62349910736083984375e+01) (32, -1.47937622070312500000e+03) (33, -1.49967102050781250000e+03) (34, -1.50000000000000000000e+03) (35, -1.47963867187500000000e+03) (36, -1.50000000000000000000e+03) (37, -1.50000000000000000000e+03) (38, -5.66244304180145263672e-01) (39, -4.47458505630493164062e-01) (40, -6.10374808311462402344e-01) (41, 1.79735392332077026367e-01) (42, -1.46381422877311706543e-01) (43, -5.10213613510131835938e-01) (44, 2.40689218044281005859e-01) (45, -1.49988977050781250000e+03) (46, -9.67132598161697387695e-02) (47, 2.43192300200462341309e-01) (48, -1.80628478527069091797e-01) (49, -1.20293937623500823975e-01) (50, -1.45277343750000000000e+03) (51, 2.77213305234909057617e-01) (52, -1.38727879524230957031e+00) (53, -3.08428615331649780273e-01) (54, -7.41241574287414550781e-01) (55, -1.49869714355468750000e+03) (56, -1.43895397949218750000e+03) (57, -6.06140017509460449219e-01) (58, -7.48159170150756835938e-01) (59, -5.10230898857116699219e-01) (60, -5.04827201366424560547e-02) (61, -2.36120462417602539062e-01) (62, 9.19509902596473693848e-02) (63, -5.63697405159473419189e-02) (64, -9.46825146675109863281e-02) (65, -1.16086140275001525879e-01) (66, -3.31165790557861328125e-01) (67, -4.10700976848602294922e-01) (68, -2.16718626022338867188e+00) (69, -1.15646019577980041504e-01) (70, 2.03823998570442199707e-01) (71, -6.07911776751279830933e-03) (72, -2.00398707389831542969e+00) (73, -2.93484777212142944336e-01) (74, -8.18607270717620849609e-01) (75, -1.78982686996459960938e+00) (76, -2.01938700675964355469e+00) (77, -3.99724185466766357422e-01) (78, 7.07231536507606506348e-02) (79, -3.25389295816421508789e-01) (80, -6.83383047580718994141e-01) (81, -2.13146895170211791992e-01) (82, -8.24744641780853271484e-01) (83, -1.50000000000000000000e+03) (84, -2.33512172698974609375e+01) (85, 1.76821276545524597168e-01) (86, -3.70184040069580078125e+00) (87, -1.36190140247344970703e+00) (88, -3.94930690526962280273e-01) (89, -2.48333215713500976562e-01) (90, -8.95589411258697509766e-01) (91, -4.49973821640014648438e+00) (92, -3.16116303205490112305e-01) (93, -1.66220235824584960938e+00) (94, -1.96322834491729736328e+00) (95, -9.76509600877761840820e-02) (96, -1.38194724917411804199e-01) (97, -6.05480313301086425781e-01) (98, -3.94392608642578125000e+02) (99, -7.44074344635009765625e+00) (100, 5.46298399567604064941e-02) (101, 1.57727017998695373535e-01) (102, -1.38393774628639221191e-01) (103, 1.26241922378540039062e-01) (104, 3.78785729408264160156e-01) (105, 8.10985565185546875000e-02) (106, -1.21538639068603515625e+00) (107, -7.92597651481628417969e-01) (108, -1.44042236328125000000e+03) (109, -1.77630828857421875000e+02) (110, -2.14687991142272949219e+00) (111, -5.80326318740844726562e-01) (112, -1.47551782226562500000e+03) (113, -1.44667456054687500000e+03) (114, -1.49101660156250000000e+03) (115, -1.45072436523437500000e+03) (116, 2.32210561633110046387e-01) (117, 1.87281876802444458008e-01) (118, -2.83695846796035766602e-01) (119, -9.04941037297248840332e-02) (120, -4.51804399490356445312e-01) (121, -2.85501897335052490234e-01) (122, -5.70721507072448730469e-01) (123, -3.80595147609710693359e-01) (124, -1.50000000000000000000e+03) (125, -2.47591590881347656250e+00) (126, -1.25540828704833984375e+00) (127, -4.72133427858352661133e-01) (128, -1.48762451171875000000e+03) (129, -1.47806372070312500000e+03) (130, -1.47485034179687500000e+03) (131, 3.16397309303283691406e-01) (132, 3.87051701545715332031e-01) (133, 6.06511309742927551270e-02) (134, -6.81940078735351562500e-01) (135, 3.45603942871093750000e-01) (136, -1.49112976074218750000e+03) (137, 1.23036824166774749756e-01) (138, -7.08973407745361328125e-01) (139, -1.49575158691406250000e+03) (140, -2.36752009391784667969e+00) (141, -1.86346694827079772949e-01) (142, -5.65762281417846679688e-01) (143, -6.37577295303344726562e-01) (144, -1.01413240432739257812e+01) (145, -7.53684699535369873047e-01) (146, -1.47708886718750000000e+03) (147, -5.69579362869262695312e-01) (148, -4.25177145004272460938e+00) (149, -1.85578106902539730072e-03) (150, 2.97316819429397583008e-01) (151, 1.08901910483837127686e-01) (152, -3.09139221906661987305e-01) (153, -7.21330046653747558594e-01) (154, -5.41482448577880859375e-01) (155, -3.09416770935058593750e-01) (156, -4.00234937667846679688e+00) (157, -5.05549550056457519531e-01) (158, -5.02841300964355468750e+01) (159, -8.08540880680084228516e-01) (160, -1.86838316917419433594e+00) (161, -1.44597106933593750000e+03) (162, -1.47973669433593750000e+03) (163, -4.42976808547973632812e+00) (164, -5.18247224390506744385e-02) (165, -4.07332115173339843750e+01) (166, -4.11767721176147460938e+00) (167, 1.28108292818069458008e-01) (168, -5.40706887841224670410e-02) (169, -7.65873551368713378906e-01) (170, 2.16970652341842651367e-01) (171, 2.29402750730514526367e-01) (172, -3.99040699005126953125e-01) (173, -1.44639904785156250000e+03) (174, -1.59593176841735839844e+00) (175, -1.02093744277954101562e+00) (176, -4.52690243721008300781e-01) (177, -3.25376927852630615234e-01) (178, -2.15961903333663940430e-01) (179, -6.05518341064453125000e-01) (180, -3.70077371597290039062e-01) (181, -1.21356201171875000000e+01) (182, -2.51031827926635742188e+00) (183, -1.89427986741065979004e-01) (184, -2.07572296261787414551e-01) (185, -1.42191097140312194824e-01) (186, -8.96197021007537841797e-01) (187, 1.44716808572411537170e-02) (188, -3.15301388502120971680e-01) (189, -1.49854174804687500000e+03) (190, -1.49851318359375000000e+03) (191, -5.51005959510803222656e-01) (192, -4.76790487766265869141e-01) (193, -2.05555781722068786621e-01) (194, -7.38773345947265625000e-01) (195, -7.11591911315917968750e+00) (196, -6.69749200344085693359e-01) (197, -9.07108485698699951172e-01) (198, -1.98846125602722167969e+00) (199, -3.86169743537902832031e+00) (200, -4.26690310239791870117e-01) (201, -2.36313827514648437500e+02) (202, -4.12755370140075683594e-01) (203, -1.49960473632812500000e+03) (204, -1.50000000000000000000e+03) (205, -6.48657917976379394531e-01) (206, -2.57459808349609375000e+02) (207, -9.35426414012908935547e-01) (208, -1.81811559200286865234e+00) (209, -7.06159651279449462891e-01) (210, 2.42850837707519531250e+01) (211, -1.46320385742187500000e+03) (212, -1.04856050014495849609e+00) (213, -8.39201092720031738281e-01) (214, -1.23763203620910644531e+00) (215, -1.31973469257354736328e+00) (216, -4.15039271116256713867e-01) (217, -4.60212677717208862305e-01) (218, -2.91813621520996093750e+01) (219, -5.31561911106109619141e-01) (220, -9.74368080496788024902e-02) (221, -2.26228028535842895508e-01) (222, 3.53766717016696929932e-02) (223, -1.76771119236946105957e-01) (224, -1.44391655921936035156e-01) (225, -3.62785458564758300781e-01) (226, 7.26017296314239501953e-01) (227, -1.48728479003906250000e+03) (228, 3.08969374746084213257e-02) (229, -1.05499875545501708984e+00) (230, -1.01488494873046875000e+00) (231, -6.35712802410125732422e-01) (232, -4.85646307468414306641e-01) (233, -1.29606556892395019531e+00) (234, 4.89153303205966949463e-02) (235, -5.24986267089843750000e-01) (236, -1.83213315904140472412e-02) (237, -1.26465484499931335449e-02) (238, 8.02608653903007507324e-02) (239, -5.80587029457092285156e-01) (240, -3.21183174848556518555e-01) (241, -3.27662557363510131836e-01) (242, 2.45592758059501647949e-01) (243, 3.09077948331832885742e-02) (244, -3.94599318504333496094e-01) (245, -9.61963236331939697266e-01) (246, 1.49999975585937500000e+03) (247, -1.76445066928863525391e-01) (248, -2.63037651777267456055e-01) (249, -1.13509035110473632812e+00) (250, -1.49851208496093750000e+03) (251, -1.49849194335937500000e+03) (252, -1.49956738281250000000e+03) (253, -1.47180969238281250000e+03) (254, -1.49968530273437500000e+03) (255, -1.48374572753906250000e+03) (256, -3.79265993833541870117e-01) (0, 1.50000000000000000000e+03) (1, 1.50000000000000000000e+03) (2, 1.50000000000000000000e+03) (3, 3.07505726814270019531e-01) (4, 2.54367440938949584961e-01) (5, -4.56251412630081176758e-01) (6, -3.35961818695068359375e-01) (7, 2.14215612411499023438e+00) (8, 1.31928944587707519531e+00) (9, 1.54700651168823242188e+01) (10, 1.53829026222229003906e+00) (11, 4.28987257182598114014e-02) (12, 1.43420502543449401855e-01) (13, 1.16839897632598876953e+00) (14, 1.80816620588302612305e-01) (15, 1.50252699851989746094e+00) (16, 3.84621582031250000000e+02) (17, 1.50000000000000000000e+03) (18, 1.50000000000000000000e+03) (19, 1.50000000000000000000e+03) (20, 1.79899520874023437500e+01) (21, 1.50000000000000000000e+03) (22, 3.39318782091140747070e-01) (23, 7.17315196990966796875e-01) (24, 9.10532549023628234863e-02) (25, 1.87609374523162841797e-01) (26, 3.16634356975555419922e-01) (27, 4.96771819889545440674e-02) (28, 1.68320521712303161621e-01) (29, 2.00067234039306640625e+01) (30, 1.73064544796943664551e-01) (31, -3.20798420906066894531e+00) (32, 1.50000000000000000000e+03) (33, 1.50000000000000000000e+03) (34, 1.50000000000000000000e+03) (35, 1.50000000000000000000e+03) (36, 1.50000000000000000000e+03) (37, 1.74954795837402343750e+00) (38, 1.08149003982543945312e+00) (39, 7.96013057231903076172e-01) (40, 6.96181297302246093750e-01) (41, 8.49295318126678466797e-01) (42, 2.10986316204071044922e-01) (43, 1.77535444498062133789e-01) (44, -7.90156945586204528809e-02) (45, -9.86848652362823486328e-01) (46, -4.35636169433593750000e+02) (47, -3.20113515853881835938e+00) (48, 3.67166023254394531250e+01) (49, 1.91948909759521484375e+01) (50, 1.50000000000000000000e+03) (51, 8.07362515479326248169e-03) (52, -5.67283928394317626953e-02) (53, 1.81670099496841430664e-01) (54, 4.49870666489005088806e-03) (55, 1.50000000000000000000e+03) (56, 1.50000000000000000000e+03) (57, 1.18960142135620117188e+00) (58, 6.09725296497344970703e-01) (59, 1.71383917331695556641e-01) (60, 1.85759231448173522949e-01) (61, -5.27809709310531616211e-02) (62, 3.64853215217590332031e+00) (63, 7.95923614501953125000e+00) (64, 6.22439563274383544922e-01) (65, 1.50000000000000000000e+03) (66, 2.55172100067138671875e+01) (67, 5.40627837181091308594e-01) (68, 6.23387932777404785156e-01) (69, 2.51510739326477050781e-01) (70, 8.61050367355346679688e-01) (71, 8.19047451019287109375e-01) (72, 9.02779698371887207031e-01) (73, 4.95540052652359008789e-01) (74, 3.04688543081283569336e-01) (75, 3.02375376224517822266e-01) (76, 6.22312119230628013611e-03) (77, -1.58590264618396759033e-02) (78, 6.80696740746498107910e-02) (79, 4.23751398921012878418e-02) (80, 1.55039250850677490234e-01) (81, 2.20422431826591491699e-01) (82, 1.50000000000000000000e+03) (83, 3.08891922235488891602e-01) (84, 2.50378817319869995117e-01) (85, 2.21144363284111022949e-01) (86, 2.13236212730407714844e-01) (87, 1.71467900276184082031e-01) (88, 1.44521951675415039062e-01) (89, 1.34010910987854003906e-01) (90, 1.00365154445171356201e-01) (91, 1.74642518162727355957e-01) (92, 2.10655495524406433105e-01) (93, 2.98067539930343627930e-01) (94, 2.09726944565773010254e-01) (95, 3.40879619121551513672e-01) (96, 2.40915790200233459473e-01) (97, 2.25039854645729064941e-01) (98, 2.82377272844314575195e-01) (99, 3.18911820650100708008e-01) (100, 4.57762509584426879883e-01) (101, 1.63520261645317077637e-01) (102, 1.50937736034393310547e-01) (103, 2.00728893280029296875e-01) (104, 2.20488572120666503906e+00) (105, 7.09365129470825195312e-01) (106, 2.25057184696197509766e-01) (107, 2.97074258327484130859e-01) (108, 5.42902886867523193359e-01) (109, 7.42716372013092041016e-01) (110, 9.30420654296875000000e+02) (111, 2.72381901741027832031e-01) (112, 2.75750517845153808594e-01) (113, 6.03433036804199218750e+01) (114, 2.47028613090515136719e+00) (115, 3.45389771461486816406e+00) (116, 9.20102834701538085938e-01) (117, 2.82003700733184814453e-01) (118, 2.98432588577270507812e-01) (119, 4.72531646490097045898e-01) (120, 3.87269318103790283203e-01) (121, 3.53757232427597045898e-01) (122, 3.15462440252304077148e-01) (123, 2.51490265130996704102e-01) (124, 1.10385143756866455078e+00) (125, 2.67464660644531250000e+02) (126, 1.92555040121078491211e-01) (127, 3.03312897682189941406e-01) (128, 8.31489562988281250000e-01) (129, 7.10617601871490478516e-01) (130, 1.50000000000000000000e+03) (131, 1.50000000000000000000e+03) (132, 6.98943197727203369141e-01) (133, 4.00981217622756958008e-01) (134, 2.50009012222290039062e+00) (135, 6.34592175483703613281e-01) (136, 1.50000000000000000000e+03) (137, 1.50000000000000000000e+03) (138, 3.60225200653076171875e-01) (139, 2.67676085233688354492e-01) (140, 2.42072820663452148438e+00) (141, 2.42968827486038208008e-01) (142, 1.16405987739562988281e+00) (143, 1.16268253326416015625e+00) (144, 1.19472801685333251953e+00) (145, 2.41322785615921020508e-01) (146, 2.17893198132514953613e-01) (147, 7.56463184952735900879e-02) (148, 1.23327538371086120605e-01) (149, 1.42576009035110473633e-01) (150, 3.16646158695220947266e-01) (151, 2.79912412166595458984e-01) (152, 4.31920498609542846680e-01) (153, 5.68064928054809570312e-01) (154, 1.13878357410430908203e+00) (155, 6.24720802307128906250e+01) (156, 1.68257713317871093750e+00) (157, 5.67521691322326660156e-01) (158, 5.23530721664428710938e-01) (159, 2.97607841491699218750e+01) (160, 1.04622300714254379272e-02) (161, 6.21597647666931152344e-01) (162, 4.31834876537322998047e-01) (163, 1.50000000000000000000e+03) (164, 3.30259263515472412109e-01) (165, -8.56840983033180236816e-02) (166, 1.03656761348247528076e-01) (167, 1.31865993142127990723e-01) (168, 2.62767016887664794922e-01) (169, 4.41797524690628051758e-01) (170, 5.49706518650054931641e-01) (171, 1.17284989356994628906e+00) (172, 4.33433145284652709961e-01) (173, 1.50000000000000000000e+03) (174, 6.71110674738883972168e-02) (175, 1.73327863216400146484e-01) (176, 1.78613021969795227051e-01) (177, 1.62885949015617370605e-01) (178, 3.99317532777786254883e-01) (179, 6.30512416362762451172e-01) (180, 2.15893507003784179688e-01) (181, 7.89883613586425781250e-01) (182, 4.51788008213043212891e-01) (183, 4.41012084484100341797e-01) (184, 2.53794521093368530273e-01) (185, 3.46682578325271606445e-01) (186, 8.55083048343658447266e-01) (187, 1.15528814494609832764e-01) (188, 7.45601177215576171875e-01) (189, 4.98634368181228637695e-01) (190, 2.00545291900634765625e+01) (191, 1.10080637037754058838e-01) (192, 2.85949140787124633789e-01) (193, 1.11310139298439025879e-01) (194, 1.23621237277984619141e+00) (195, 2.30650207519531250000e+02) (196, 2.85889446735382080078e-01) (197, 4.04440909624099731445e-01) (198, 4.91815984249114990234e-01) (199, 1.91719934344291687012e-01) (200, -2.20400076359510421753e-02) (201, 1.68826490640640258789e-01) (202, 8.03021550178527832031e-01) (203, 5.68930089473724365234e-01) (204, 1.08510696887969970703e+00) (205, 3.21892172098159790039e-01) (206, 3.84488999843597412109e-01) (207, -5.33417202532291412354e-02) (208, 1.20988845825195312500e-01) (209, -1.25264346599578857422e+00) (210, 2.68560558557510375977e-01) (211, 1.50000000000000000000e+03) (212, 7.11241579055786132812e+00) (213, 9.88822698593139648438e-01) (214, 2.44587123394012451172e-01) (215, 7.99820363521575927734e-01) (216, 5.31376540660858154297e-01) (217, 3.44520539045333862305e-01) (218, 1.42064428329467773438e+00) (219, 6.73074185848236083984e-01) (220, 3.05160880088806152344e-01) (221, 1.89315780997276306152e-01) (222, 2.66155511140823364258e-01) (223, 3.14521163702011108398e-01) (224, -2.35660389065742492676e-01) (225, -4.12415415048599243164e-01) (226, -9.32523536682128906250e+00) (227, 9.06307678222656250000e+02) (228, 7.24275529384613037109e-01) (229, 1.50000000000000000000e+03) (230, 1.56612243652343750000e+01) (231, 3.09817403554916381836e-01) (232, 9.16238188743591308594e-01) (233, 3.39918065071105957031e+00) (234, 3.90688925981521606445e-01) (235, 2.93275326490402221680e-01) (236, 2.92353689670562744141e-01) (237, 2.63204962015151977539e-01) (238, 1.86265110969543457031e-01) (239, 2.01366856694221496582e-01) (240, 2.40486234426498413086e-01) (241, 8.84377732872962951660e-02) (242, 4.80934083461761474609e-02) (243, 4.60356283187866210938e+00) (244, 1.89678966999053955078e-01) (245, -9.67775249481201171875e+00) (246, -5.50582838058471679688e+00) (247, 8.20692330598831176758e-02) (248, -4.95801019668579101562e+00) (249, 1.83974757790565490723e-01) (250, 2.11651504039764404297e-01) (251, 3.22720855474472045898e-01) (252, 1.30479767918586730957e-01) (253, -3.54489654302597045898e-01) (254, -1.90196323394775390625e+00) (255, -1.42990835011005401611e-02) (256, 1.42388358712196350098e-01) (0, -2.40514183044433593750e+00) (1, -3.20887804031372070312e+00) (2, -5.30781447887420654297e-01) (3, 7.67047107219696044922e-01) (4, 1.02047320556640625000e+03) (5, -3.52434253692626953125e+00) (6, 2.40322351455688476562e+00) (7, -1.81716716289520263672e+00) (8, 3.93656462430953979492e-01) (9, 4.82601821422576904297e-02) (10, 2.30163335800170898438e-01) (11, -1.70834505558013916016e+00) (12, -4.03038918972015380859e-01) (13, 1.50000000000000000000e+03) (14, 6.24546051025390625000e-01) (15, 1.50000000000000000000e+03) (16, 3.60757946968078613281e-01) (17, 2.83275127410888671875e-01) (18, 3.38414281606674194336e-01) (19, 1.18992820382118225098e-01) (20, -4.57432794570922851562e+00) (21, 2.56812781095504760742e-01) (22, 1.87683641910552978516e-01) (23, 2.26320788264274597168e-01) (24, 3.09406965970993041992e-01) (25, 3.87408137321472167969e-01) (26, 3.65287512540817260742e-01) (27, 1.03603076934814453125e+00) (28, 8.41741144657135009766e-01) (29, -9.87147465348243713379e-02) (30, 5.39302453398704528809e-02) (31, 1.99053359031677246094e+00) (32, 1.25633984804153442383e-01) (33, 2.01397344470024108887e-01) (34, 1.37830683961510658264e-02) (35, 2.38541767001152038574e-01) (36, 2.11946919560432434082e-01) (37, 5.41451834142208099365e-02) (38, 3.25686126947402954102e-01) (39, 3.84023457765579223633e-01) (40, 1.99350163340568542480e-01) (41, 1.05368383789062500000e+03) (42, 6.13055908203125000000e+02) (43, 7.58944094181060791016e-01) (44, 2.94900417327880859375e+01) (45, -1.07667732238769531250e+00) (46, -1.05388946831226348877e-02) (47, 2.50492930412292480469e-01) (48, -1.68970715999603271484e+00) (49, 2.10835516452789306641e-01) (50, 3.13055485486984252930e-01) (51, 4.80404973030090332031e-01) (52, 2.46239513158798217773e-01) (53, 2.07053363323211669922e-01) (54, 3.17444145679473876953e-01) (55, 3.30810874700546264648e-01) (56, 1.30174830555915832520e-01) (57, 2.77443289756774902344e-01) (58, 3.66033941507339477539e-01) (59, 3.81399393081665039062e-01) (60, 3.96430313587188720703e-01) (61, 3.79800617694854736328e-01) (62, 1.35357916355133056641e+00) (63, 2.04277738928794860840e-01) (64, -2.93405580520629882812e+00) (65, 8.35107713937759399414e-02) (66, 3.28223824501037597656e-01) (67, 4.23432104289531707764e-02) (68, 1.36064976453781127930e-01) (69, 2.68790751695632934570e-01) (70, 4.97198551893234252930e-01) (71, 6.61365091800689697266e-01) (72, 4.89237874746322631836e-01) (73, 1.93381175398826599121e-01) (74, 2.83725112676620483398e-01) (75, 2.70745784044265747070e-01) (76, 2.05146938562393188477e-01) (77, 2.73823618888854980469e-01) (78, -1.08742967247962951660e-01) (79, 1.58977732062339782715e-01) (80, 1.85299843549728393555e-01) (81, 2.47184559702873229980e-01) (82, 3.96976888179779052734e-01) (83, -4.33789044618606567383e-02) (84, 1.62464588880538940430e-01) (85, 3.22340577840805053711e-01) (86, 2.62749120593070983887e-02) (87, 2.69072890281677246094e-01) (88, 2.26020187139511108398e-01) (89, 2.94977307319641113281e-01) (90, 3.34580570459365844727e-01) (91, 2.09158375859260559082e-01) (92, 2.47568652033805847168e-01) (93, 1.39745086431503295898e-01) (94, 2.39318192005157470703e-01) (95, 4.92119550704956054688e-01) (96, 4.56936180591583251953e-01) (97, 1.59804612398147583008e-01) (98, 1.31744295358657836914e-01) (99, 2.59234774857759475708e-02) (100, 4.68128979206085205078e-01) (101, 2.91246265172958374023e-01) (102, 2.12899729609489440918e-01) (103, 2.02733948826789855957e-01) (104, 5.95121879577636718750e+01) (105, 3.35336148738861083984e-01) (106, 3.71710091829299926758e-01) (107, 2.95508354902267456055e-01) (108, 2.49005496501922607422e-01) (109, 3.37148278951644897461e-01) (110, 4.12316113710403442383e-01) (111, 4.77395445108413696289e-01) (112, -2.12830260396003723145e-01) (113, -1.28180205821990966797e-01) (114, -1.23842179775238037109e-01) (115, -1.48613125085830688477e-01) (116, 3.76580990850925445557e-02) (117, 4.71465528011322021484e-01) (118, 4.21498119831085205078e-01) (119, 2.67327129840850830078e-01) (120, 2.95969814062118530273e-01) (121, 2.01290875673294067383e-01) (122, 2.59179383516311645508e-01) (123, 2.20056325197219848633e-01) (124, 3.32629919052124023438e-01) (125, 1.98461845517158508301e-01) (126, 4.21046435832977294922e-01) (127, 4.04295504093170166016e-01) (128, -3.75879502296447753906e+00) (129, -2.68683004379272460938e+00) (130, -2.24976882338523864746e-01) (131, -3.07046115398406982422e-01) (132, 4.23186451196670532227e-01) (133, 1.96451574563980102539e-01) (134, 2.79816716909408569336e-01) (135, 3.69664788246154785156e-01) (136, 3.32174599170684814453e-01) (137, 1.50676324963569641113e-01) (138, 1.10284805297851562500e-01) (139, 1.72749504446983337402e-01) (140, 2.42549434304237365723e-01) (141, 3.21039259433746337891e-01) (142, 3.66328179836273193359e-01) (143, 3.44661325216293334961e-01) (144, 3.10976296663284301758e-01) (145, -3.42201519012451171875e+00) (146, -3.01534067839384078979e-02) (147, -3.56366902589797973633e-01) (148, 5.49966804683208465576e-02) (149, 2.65157729387283325195e-01) (150, 1.58154200762510299683e-02) (151, 2.95570790767669677734e-01) (152, 3.90061229467391967773e-01) (153, 1.95045918226242065430e-01) (154, 2.59166121482849121094e-01) (155, 3.82352411746978759766e-01) (156, 3.59472006559371948242e-01) (157, 3.41037243604660034180e-01) (158, 1.28562062978744506836e-01) (159, 4.19376865029335021973e-02) (160, 1.06976591050624847412e-01) (161, 2.39409923553466796875e-01) (162, 1.75051644444465637207e-01) (163, -2.97638177871704101562e-01) (164, -3.62554252147674560547e-01) (165, -2.04874649643898010254e-01) (166, -1.93907308578491210938e+00) (167, 2.63478755950927734375e-01) (168, 1.42713814973831176758e-01) (169, 1.66448071599006652832e-01) (170, 3.39245200157165527344e-01) (171, 3.58322679996490478516e-01) (172, 3.09443265199661254883e-01) (173, 2.94530898332595825195e-01) (174, 2.38508135080337524414e-01) (175, 3.02577555179595947266e-01) (176, 2.05102801322937011719e-01) (177, 3.48316520452499389648e-01) (178, 1.89482942223548889160e-01) (179, 3.56747090816497802734e-01) (180, 1.97988227009773254395e-01) (181, 2.02325791120529174805e-01) (182, 2.77655452489852905273e-01) (183, -1.84041455388069152832e-01) (184, 2.03561335802078247070e-02) (185, 1.11179895699024200439e-01) (186, -5.00172972679138183594e-02) (187, -2.33989119529724121094e-01) (188, -2.25274249911308288574e-01) (189, 2.73776829242706298828e-01) (190, 2.35337063670158386230e-01) (191, 2.43354439735412597656e-01) (192, 4.91989701986312866211e-01) (193, 1.20359849929809570312e+00) (194, 1.14194303750991821289e-01) (195, 1.80410891771316528320e-01) (196, 3.92507612705230712891e-01) (197, 3.25497418642044067383e-01) (198, 4.28779274225234985352e-01) (199, 2.95093446969985961914e-01) (200, 3.11020165681838989258e-01) (201, 3.32047373056411743164e-01) (202, 2.46979817748069763184e-01) (203, -1.23595841228961944580e-01) (204, 1.85228064656257629395e-01) (205, 2.47374802827835083008e-01) (206, 1.67230114340782165527e-01) (207, 1.04729615151882171631e-01) (208, 4.55293506383895874023e-01) (209, 4.48729187250137329102e-01) (210, 2.46323078870773315430e-01) (211, 2.67206072807312011719e-01) (212, 2.70215332508087158203e-01) (213, 4.50315684080123901367e-01) (214, 3.31088334321975708008e-01) (215, 4.66542154550552368164e-01) (216, 4.47941929101943969727e-01) (217, 3.73983949422836303711e-01) (218, 1.85844257473945617676e-01) (219, 3.32869172096252441406e-01) (220, 1.94202557206153869629e-01) (221, 3.06949585676193237305e-01) (222, 3.20099174976348876953e-01) (223, 2.44836986064910888672e-01) (224, 5.99049508571624755859e-01) (225, 3.73156487941741943359e-01) (226, 2.21197336912155151367e-01) (227, 1.07678890228271484375e-01) (228, -2.60292077064514160156e+00) (229, 2.74698448181152343750e+00) (230, 4.17680710554122924805e-01) (231, 3.39762151241302490234e-01) (232, 2.94325798749923706055e-01) (233, 5.89851856231689453125e-01) (234, 3.67663443088531494141e-01) (235, 3.56001347303390502930e-01) (236, 2.63949304819107055664e-01) (237, 2.38744318485260009766e-01) (238, 3.00031095743179321289e-01) (239, 5.48024773597717285156e-02) (240, 3.71659666299819946289e-01) (241, -2.48555198311805725098e-01) (242, -6.44478499889373779297e-01) (243, 2.59782046079635620117e-01) (244, 2.79126733541488647461e-01) (245, -5.38658571243286132812e+00) (246, 1.49484485387802124023e-01) (247, 3.75381737947463989258e-01) (248, -2.77621459960937500000e+00) (249, 5.11178135871887207031e-01) (250, 5.17055690288543701172e-01) (251, 5.25417089462280273438e-01) (252, 2.87565171718597412109e-01) (253, 1.71228492259979248047e+00) (254, 2.85241514444351196289e-01) (255, -5.44908237457275390625e+00) (256, 2.67731875181198120117e-01) (0, -1.46863579750061035156e+00) (1, 3.35388094186782836914e-01) (2, 1.04658651351928710938e+00) (3, 1.10877811908721923828e+00) (4, -7.86663666367530822754e-02) (5, -4.88805800676345825195e-01) (6, -4.20935583114624023438e+00) (7, 4.13919538259506225586e-01) (8, 2.12257790565490722656e+00) (9, 3.37327495217323303223e-02) (10, -1.61625761538743972778e-02) (11, 1.88175868988037109375e+00) (12, 1.06353826522827148438e+01) (13, -4.58007860183715820312e+00) (14, 1.19115095138549804688e+01) (15, -2.73813190460205078125e+01) (16, 2.74918615818023681641e-01) (17, 7.83084481954574584961e-02) (18, -6.89184844493865966797e-01) (19, -1.26634985208511352539e-01) (20, 1.84785082936286926270e-01) (21, 2.05243021249771118164e-01) (22, 2.92383899688720703125e+01) (23, 3.88644784688949584961e-02) (24, -2.11913093924522399902e-01) (25, 1.33884891867637634277e-01) (26, 4.96690608561038970947e-02) (27, -2.70594656467437744141e-01) (28, 5.67939519882202148438e-01) (29, 6.25247375488281250000e+02) (30, 1.49999243164062500000e+03) (31, 1.10431350767612457275e-01) (32, -1.92548513412475585938e-01) (33, -1.22339591383934020996e-01) (34, 1.65963008999824523926e-01) (35, -1.48863643407821655273e-01) (36, 6.76653161644935607910e-02) (37, -2.28900611400604248047e-01) (38, 1.39471367001533508301e-01) (39, 1.10070742666721343994e-01) (40, 6.10516630113124847412e-02) (41, 3.91065359115600585938e-01) (42, -4.65033426880836486816e-02) (43, -2.42086932063102722168e-01) (44, -9.90772247314453125000e-02) (45, -7.06786453723907470703e-01) (46, 1.31384241580963134766e+00) (47, 1.50661811232566833496e-01) (48, -5.67232191562652587891e-01) (49, 9.79852303862571716309e-02) (50, 7.14864730834960937500e-02) (51, -6.15141391754150390625e-01) (52, -4.56379830837249755859e-01) (53, -3.13179455697536468506e-02) (54, 5.73813877999782562256e-02) (55, 2.07486003637313842773e-01) (56, 4.59203012287616729736e-02) (57, 1.11736081540584564209e-01) (58, 4.09479402005672454834e-02) (59, 7.42091685533523559570e-02) (60, 1.47794991731643676758e-01) (61, 6.03546953201293945312e+00) (62, 1.37688100337982177734e+00) (63, -4.85987178981304168701e-02) (64, -1.20712511241436004639e-01) (65, 1.34790735319256782532e-02) (66, -1.92538186907768249512e-01) (67, 1.39244079589843750000e-01) (68, 3.33708584308624267578e-01) (69, 1.79462227970361709595e-02) (70, -6.06100000441074371338e-02) (71, -5.57465255260467529297e-01) (72, 1.60403341054916381836e-01) (73, 4.62397821247577667236e-02) (74, 6.90419450402259826660e-02) (75, 1.54572084546089172363e-01) (76, 9.28186252713203430176e-02) (77, -2.10269629955291748047e-01) (78, 4.01654750108718872070e-01) (79, 1.57728828489780426025e-02) (80, 2.10333213210105895996e-01) (81, -1.63772046566009521484e-01) (82, -2.10440590977668762207e-01) (83, -7.13740229606628417969e-01) (84, 2.94554263353347778320e-01) (85, 1.15782752633094787598e-01) (86, 3.34797024726867675781e-01) (87, 3.19238975644111633301e-02) (88, 1.14415638148784637451e-01) (89, 2.16401368379592895508e-01) (90, -2.87389993667602539062e-01) (91, 3.83529692888259887695e-01) (92, -2.36838459968566894531e-02) (93, -1.27172291278839111328e-01) (94, 2.81054084189236164093e-03) (95, -2.44549006223678588867e-01) (96, 7.97417908906936645508e-02) (97, 9.44730490446090698242e-02) (98, 1.48358404636383056641e-01) (99, 8.80547538399696350098e-02) (100, 2.57451802492141723633e-01) (101, 8.62367600202560424805e-02) (102, 2.96678692102432250977e-01) (103, -3.32667112350463867188e-01) (104, 7.63883143663406372070e-02) (105, 9.12648439407348632812e-02) (106, 1.41566947102546691895e-01) (107, 2.47544925659894943237e-02) (108, -7.32480883598327636719e-02) (109, -1.43563076853752136230e-01) (110, 4.20165091753005981445e-01) (111, -1.87578927725553512573e-02) (112, -4.51589003205299377441e-02) (113, 8.07693451642990112305e-02) (114, -2.71390199661254882812e-01) (115, -2.17433437705039978027e-01) (116, 1.87105056829750537872e-03) (117, 1.15051791071891784668e-01) (118, 1.15729808807373046875e-01) (119, -1.33117541670799255371e-01) (120, 1.72016829252243041992e-01) (121, 1.01150222122669219971e-01) (122, 3.75977084040641784668e-02) (123, -1.69618725776672363281e-01) (124, 1.85577869415283203125e-01) (125, -3.60566914081573486328e-01) (126, -2.67304062843322753906e-01) (127, -6.17356561124324798584e-02) (128, 6.59418702125549316406e-02) (129, -2.06780955195426940918e-01) (130, 9.87934708595275878906e-01) (131, -2.57459133863449096680e-01) (132, 2.27987885475158691406e-01) (133, 5.98423838615417480469e-01) (134, 5.52549436688423156738e-02) (135, 1.25569775700569152832e-01) (136, 7.70024731755256652832e-02) (137, 8.08916538953781127930e-02) (138, 8.34617093205451965332e-02) (139, 4.39211986958980560303e-02) (140, 1.07403948903083801270e-01) (141, 1.08328565955162048340e-01) (142, 2.74520143866539001465e-02) (143, 2.19865068793296813965e-01) (144, 1.00671403110027313232e-01) (145, -1.38002084568142890930e-02) (146, -9.57416892051696777344e-02) (147, -3.46236377954483032227e-01) (148, 6.22251629829406738281e-02) (149, 7.77466416358947753906e-01) (150, -9.50462400913238525391e-01) (151, 2.75071531534194946289e-01) (152, 2.03093528747558593750e+00) (153, 8.09602141380310058594e-02) (154, 9.25592109560966491699e-02) (155, 8.79758074879646301270e-02) (156, -1.47731423377990722656e-01) (157, -2.26861517876386642456e-02) (158, 3.21849256753921508789e-01) (159, -8.69271159172058105469e-03) (160, -1.66870638728141784668e-01) (161, 4.16849523782730102539e-01) (162, -4.54006582498550415039e-01) (163, 3.56742292642593383789e-01) (164, 2.18902558088302612305e-01) (165, 2.10662577301263809204e-02) (166, 2.73686796426773071289e-01) (167, 1.04768216609954833984e-01) (168, 9.60887297987937927246e-02) (169, 1.73957735300064086914e-01) (170, 4.75175797939300537109e-01) (171, -1.14714294672012329102e-01) (172, 3.35353314876556396484e-01) (173, 1.55797168612480163574e-01) (174, -1.86228796839714050293e-01) (175, -7.50247538089752197266e-02) (176, -2.41713821887969970703e-01) (177, 3.59734356403350830078e-01) (178, -2.63632126152515411377e-02) (179, -1.44886389374732971191e-01) (180, 1.79701849818229675293e-01) (181, 8.85508656501770019531e-02) (182, 6.04032278060913085938e-02) (183, 9.48970951139926910400e-03) (184, -6.39558136463165283203e-01) (185, 2.10700511932373046875e-01) (186, 3.51014912128448486328e-01) (187, 2.04821810126304626465e-01) (188, 3.21718662977218627930e-01) (189, 1.47940307855606079102e-01) (190, 2.49265953898429870605e-01) (191, -1.95518899708986282349e-02) (192, 1.45573392510414123535e-01) (193, 2.13230967521667480469e-01) (194, -9.25546884536743164062e-01) (195, -1.12193778157234191895e-01) (196, 1.00884914398193359375e+00) (197, 1.38787493109703063965e-01) (198, 3.16632650792598724365e-02) (199, 1.53914764523506164551e-01) (200, 1.09391823410987854004e-01) (201, 5.26054017245769500732e-02) (202, -6.05116635560989379883e-02) (203, 1.16318464279174804688e-01) (204, 1.47212162613868713379e-01) (205, 2.46401563286781311035e-01) (206, 8.97303670644760131836e-02) (207, 1.34396972134709358215e-03) (208, 4.92124333977699279785e-02) (209, 4.40540276467800140381e-02) (210, -1.86942851543426513672e+00) (211, 9.19367027282714843750e+00) (212, 5.35949707031250000000e-01) (213, 2.80556350946426391602e-01) (214, 2.73792654275894165039e-01) (215, 1.76492318511009216309e-01) (216, 1.57775580883026123047e-01) (217, 5.92847056686878204346e-02) (218, 6.46468112245202064514e-03) (219, 2.35121771693229675293e-02) (220, 7.19300806522369384766e-02) (221, 2.95244585722684860229e-02) (222, 1.98922157287597656250e-01) (223, 2.46884152293205261230e-02) (224, -8.43361020088195800781e-01) (225, 1.05595362186431884766e+00) (226, 4.04446840286254882812e-01) (227, 2.08055660128593444824e-01) (228, -7.58596122264862060547e-01) (229, 1.49976269531250000000e+03) (230, 9.08018859863281250000e+02) (231, 3.27019125223159790039e-01) (232, 4.18083399534225463867e-01) (233, 2.34470874071121215820e-01) (234, 1.74893230199813842773e-01) (235, 4.75205361843109130859e-01) (236, 2.59088128805160522461e-01) (237, 2.48388811945915222168e-01) (238, 5.09267985820770263672e-01) (239, 7.81978785991668701172e-01) (240, -4.99355852603912353516e-01) (241, -3.36966753005981445312e-01) (242, 1.05995070934295654297e+00) (243, -1.88849806785583496094e-01) (244, 6.33684754371643066406e-01) (245, 2.19451636075973510742e-01) (246, -5.33173084259033203125e-01) (247, 1.69181954115629196167e-02) (248, -1.15916442871093750000e+00) (249, 1.54419794678688049316e-01) (250, 1.44659984111785888672e+00) (251, 2.02283427119255065918e-01) (252, 1.49999768066406250000e+03) (253, -7.84742951393127441406e-01) (254, -4.05133157968521118164e-01) (255, 5.67365810275077819824e-02) (256, 1.35942205786705017090e-01) (0, 5.82751929759979248047e-01) (1, 4.05331939458847045898e-01) (2, -3.30208539962768554688e-01) (3, 3.11171233654022216797e-01) (4, -3.17742973566055297852e-01) (5, 2.22284689545631408691e-01) (6, -4.43606138229370117188e-01) (7, -1.13016223907470703125e+00) (8, 1.32337331771850585938e+00) (9, 1.33742585778236389160e-01) (10, 1.32661119103431701660e-01) (11, 2.41123344749212265015e-02) (12, 1.12088143825531005859e-01) (13, 9.14167881011962890625e-01) (14, -1.34970843791961669922e-01) (15, -6.86783194541931152344e-01) (16, 2.11975380778312683105e-01) (17, 8.65962982177734375000e-01) (18, -9.43564102053642272949e-02) (19, -1.52655810117721557617e-01) (20, 2.20243066549301147461e-01) (21, 4.01375472545623779297e-01) (22, -6.51727974414825439453e-01) (23, -3.24518859386444091797e-01) (24, -2.23857164382934570312e-01) (25, -2.02520757913589477539e-01) (26, -1.28970831632614135742e-01) (27, -4.17929053306579589844e-01) (28, 3.30881214141845703125e+00) (29, 1.32990336418151855469e+00) (30, -2.13495686650276184082e-01) (31, -2.80905932188034057617e-01) (32, -1.28523156046867370605e-01) (33, 3.89226466417312622070e-01) (34, 1.23962633311748504639e-01) (35, 1.98543921113014221191e-01) (36, 8.17507728934288024902e-02) (37, -3.03118284791707992554e-02) (38, 8.73618423938751220703e-02) (39, 3.72931718826293945312e-01) (40, 4.14680391550064086914e-01) (41, 4.38692197203636169434e-02) (42, -8.75026658177375793457e-02) (43, -2.40703031420707702637e-01) (44, 8.21652173995971679688e-01) (45, -7.05144345760345458984e-01) (46, 1.05830287933349609375e+00) (47, -4.25010383129119873047e-01) (48, -8.13711345195770263672e-01) (49, 1.00972920656204223633e-01) (50, -1.57823488116264343262e-01) (51, 7.29558765888214111328e-02) (52, 1.82467415928840637207e-01) (53, 9.85154211521148681641e-02) (54, -2.43741884827613830566e-01) (55, 3.09197634458541870117e-01) (56, 7.78174579143524169922e-01) (57, 3.54616373777389526367e-01) (58, -4.63289953768253326416e-03) (59, 5.59536628425121307373e-02) (60, -1.22403070330619812012e-01) (61, -2.65115834772586822510e-02) (62, 8.10369908809661865234e-01) (63, 2.28404030203819274902e-01) (64, 5.18443048000335693359e-01) (65, 1.83376058936119079590e-01) (66, -1.44504442811012268066e-01) (67, 1.49465680122375488281e-01) (68, 2.10111793130636215210e-02) (69, 1.83151602745056152344e-01) (70, 1.70017704367637634277e-01) (71, 1.82378172874450683594e-01) (72, 2.67884880304336547852e-02) (73, 1.72438293695449829102e-01) (74, 1.98139384388923645020e-01) (75, -1.22944019734859466553e-01) (76, -9.80983376502990722656e-02) (77, 5.91444112360477447510e-02) (78, -2.59620070457458496094e-01) (79, 4.13680464029312133789e-01) (80, 3.66222679615020751953e-01) (81, 3.51873263716697692871e-02) (82, 1.27751424908638000488e-01) (83, -6.36685173958539962769e-03) (84, -1.24834053218364715576e-01) (85, -4.37946170568466186523e-02) (86, 2.32084691524505615234e-01) (87, 4.11858744919300079346e-02) (88, -3.48584949970245361328e-02) (89, -4.71262112259864807129e-02) (90, -5.04825860261917114258e-02) (91, -3.19077521562576293945e-01) (92, 9.95379760861396789551e-02) (93, -2.53368616104125976562e-01) (94, 5.69495439529418945312e-01) (95, 5.37536978721618652344e-01) (96, -1.55251368880271911621e-01) (97, 1.65604159235954284668e-01) (98, 6.08236789703369140625e-01) (99, 1.72199785709381103516e-01) (100, -3.76491844654083251953e-02) (101, 1.49733601137995719910e-02) (102, 6.08000606298446655273e-02) (103, 3.69782418012619018555e-01) (104, 1.71328917145729064941e-01) (105, 2.06244975328445434570e-01) (106, 8.98980274796485900879e-02) (107, -2.19501957297325134277e-01) (108, -6.02717399597167968750e-02) (109, -2.30568259954452514648e-01) (110, 1.17352807521820068359e+00) (111, 1.12032324075698852539e-01) (112, 2.44040086865425109863e-01) (113, 2.26468890905380249023e-01) (114, 1.42841592431068420410e-01) (115, -3.82189266383647918701e-02) (116, -6.04095697402954101562e-01) (117, -5.42742572724819183350e-03) (118, 1.45154759287834167480e-01) (119, 5.46061158180236816406e-01) (120, 1.34924963116645812988e-01) (121, -4.30022142827510833740e-02) (122, 7.06543177366256713867e-02) (123, 2.83302664756774902344e-01) (124, -3.19451212882995605469e-01) (125, 6.09342932701110839844e-01) (126, 6.72370016574859619141e-01) (127, 2.25892469286918640137e-01) (128, -5.27345716953277587891e-01) (129, 3.94557416439056396484e-02) (130, 4.64748740196228027344e-01) (131, 1.24102622270584106445e-01) (132, 9.52754095196723937988e-02) (133, -6.87326908111572265625e-01) (134, 2.23634928464889526367e-01) (135, 1.95591345429420471191e-01) (136, 5.59923529624938964844e-01) (137, 1.66634544730186462402e-01) (138, 1.41697168350219726562e-01) (139, 2.69495368003845214844e-01) (140, 4.68975603580474853516e-01) (141, 8.48036706447601318359e-01) (142, 3.35857979953289031982e-02) (143, -1.71479195356369018555e-01) (144, 1.74221158027648925781e-01) (145, 3.08742880821228027344e-01) (146, 3.03524434566497802734e-01) (147, 4.81390237808227539062e-01) (148, 3.67325097322463989258e-01) (149, -3.79671573638916015625e-01) (150, -2.90302872657775878906e-01) (151, 4.01400029659271240234e-01) (152, -3.01182329654693603516e-01) (153, -7.26727172732353210449e-02) (154, -1.63726478815078735352e-01) (155, 9.21073675155639648438e-01) (156, 4.10415977239608764648e-01) (157, 1.18312084674835205078e+00) (158, 9.52921286225318908691e-02) (159, -9.86628234386444091797e-02) (160, -1.06278084218502044678e-01) (161, -1.00206807255744934082e-02) (162, -1.49607047438621520996e-01) (163, 2.38903045654296875000e-01) (164, 5.06718456745147705078e-01) (165, 1.61249622702598571777e-01) (166, 1.83949202299118041992e-01) (167, -1.82418506592512130737e-02) (168, -1.16291649639606475830e-01) (169, 1.51738515123724937439e-02) (170, -1.11036270856857299805e-01) (171, 2.99451231956481933594e-01) (172, 2.92165279388427734375e-01) (173, 5.45378327369689941406e-01) (174, 4.31697249412536621094e-01) (175, 4.42477107048034667969e-01) (176, 2.75833189487457275391e-01) (177, 2.29746550321578979492e-01) (178, -6.10379315912723541260e-03) (179, 4.44501817226409912109e-01) (180, 7.35099539160728454590e-02) (181, 6.76972642540931701660e-02) (182, 2.48200967907905578613e-01) (183, -1.19524069130420684814e-01) (184, 7.74459391832351684570e-02) (185, -4.15483504533767700195e-01) (186, 1.40079647302627563477e-01) (187, 3.32724303007125854492e-01) (188, 3.46499621868133544922e-01) (189, 3.45408529043197631836e-01) (190, 2.71669268608093261719e-01) (191, 1.08666300773620605469e+00) (192, -5.40387332439422607422e-01) (193, -3.84090185165405273438e-01) (194, 3.19457679986953735352e-01) (195, -2.43385195732116699219e-01) (196, -9.20270234346389770508e-02) (197, 2.29611814022064208984e-01) (198, -1.00600294768810272217e-01) (199, -1.02192178368568420410e-01) (200, -8.92241299152374267578e-02) (201, 7.46509432792663574219e-02) (202, 4.08038854598999023438e-01) (203, 4.16598975658416748047e-01) (204, -4.26685474812984466553e-02) (205, 3.29213529825210571289e-01) (206, 4.27534371614456176758e-01) (207, 9.28709745407104492188e-01) (208, 3.25250178575515747070e-01) (209, -1.37220352888107299805e-01) (210, 2.14935496449470520020e-01) (211, 8.48350882530212402344e-01) (212, 5.92324584722518920898e-02) (213, 7.51668959856033325195e-02) (214, -2.61045992374420166016e-01) (215, -1.00523456931114196777e-01) (216, 1.35633870959281921387e-01) (217, 1.32311010360717773438e+00) (218, 4.05654489994049072266e-01) (219, 3.31785470247268676758e-01) (220, 3.57554465532302856445e-01) (221, 4.22587156295776367188e-01) (222, 2.63484239578247070312e-01) (223, 3.28181803226470947266e-01) (224, -3.82495373487472534180e-01) (225, 1.71375125646591186523e-01) (226, -2.68322736024856567383e-01) (227, 1.68804836273193359375e+00) (228, -2.61306047439575195312e-01) (229, -6.15843951702117919922e-01) (230, -9.99250948429107666016e-01) (231, 4.01492603123188018799e-02) (232, 4.40773159265518188477e-01) (233, 7.19345331192016601562e-01) (234, 2.40763589739799499512e-01) (235, 1.70867651700973510742e-01) (236, 9.41565334796905517578e-02) (237, 1.48840248584747314453e-01) (238, 1.35780617594718933105e-01) (239, 4.99723315238952636719e-01) (240, -4.41102862358093261719e-01) (241, 1.81539356708526611328e-01) (242, 1.36157000064849853516e+00) (243, 6.52314126491546630859e-01) (244, -1.13933813571929931641e+00) (245, 1.17875611782073974609e+00) (246, -2.69295006990432739258e-01) (247, -1.33794927597045898438e+00) (248, 1.23847210407257080078e+00) (249, 8.60636681318283081055e-02) (250, 2.15046748518943786621e-01) (251, 8.55548143386840820312e-01) (252, 5.24637222290039062500e-01) (253, -8.80644559860229492188e-01) (254, -3.24929070472717285156e+00) (255, 4.48479747772216796875e+00) (256, 1.43790394067764282227e-01) (0, 2.40091796875000000000e+02) (1, 7.89342590332031250000e+02) (2, 1.17974525451660156250e+02) (3, 2.35148474574089050293e-01) (4, 1.40836402773857116699e-01) (5, 3.46106018066406250000e+02) (6, 3.76108348369598388672e-01) (7, 1.22007548809051513672e-01) (8, 5.35780608654022216797e-01) (9, 8.84511619806289672852e-02) (10, -1.57213270664215087891e+00) (11, 1.50000000000000000000e+03) (12, 1.50000000000000000000e+03) (13, 5.80374717712402343750e+01) (14, 6.14879369735717773438e+00) (15, -1.24644451141357421875e+01) (16, 4.37988340854644775391e-01) (17, 3.90768289566040039062e-01) (18, 4.49503868818283081055e-01) (19, 7.79830026626586914062e+00) (20, 2.39806205034255981445e-01) (21, 1.19430564343929290771e-01) (22, 1.25373756885528564453e+00) (23, -2.12723821401596069336e-01) (24, -2.61101156473159790039e-01) (25, 4.44371849298477172852e-01) (26, 5.14587640762329101562e-01) (27, -2.78599292039871215820e-01) (28, -3.53553962707519531250e+01) (29, 1.49999926757812500000e+03) (30, -1.71048328280448913574e-01) (31, 3.48532915115356445312e-01) (32, 2.40791827440261840820e-01) (33, 1.80095994472503662109e+00) (34, 3.20474767684936523438e+00) (35, 4.18958557128906250000e+02) (36, 9.45108354091644287109e-01) (37, 5.40553927421569824219e-01) (38, -9.88700240850448608398e-03) (39, 1.13070654869079589844e+00) (40, 2.06778192520141601562e+00) (41, 8.44650459289550781250e+00) (42, 2.45445221662521362305e-01) (43, -1.23690932989120483398e-01) (44, -1.40784239768981933594e+00) (45, 9.04096862792968750000e+02) (46, 6.16883575916290283203e-01) (47, 4.47401583194732666016e-01) (48, 6.40060305595397949219e-01) (49, 1.33949267578125000000e+03) (50, 5.76232671737670898438e-01) (51, 5.45779609680175781250e+01) (52, 1.30324184894561767578e+00) (53, 2.67907214164733886719e+00) (54, 8.58909964561462402344e-01) (55, 2.24080586433410644531e+00) (56, 2.02711176872253417969e+00) (57, 6.58895492553710937500e-01) (58, 6.95004642009735107422e-01) (59, 5.53566992282867431641e-01) (60, 3.89288514852523803711e-01) (61, -5.55199003219604492188e+00) (62, 3.05784553289413452148e-01) (63, 3.77805650234222412109e-01) (64, 9.93166148662567138672e-01) (65, 1.02150131225585937500e+02) (66, -9.82507467269897460938e-01) (67, 1.00307631492614746094e+00) (68, -1.18943609297275543213e-01) (69, 8.49482059478759765625e-01) (70, 5.66804528236389160156e-01) (71, 5.11049449443817138672e-01) (72, 7.63460040092468261719e-01) (73, 7.14780211448669433594e-01) (74, 8.54177355766296386719e-01) (75, 7.22703218460083007812e-01) (76, 7.95705139636993408203e-01) (77, 1.03083968162536621094e+00) (78, 2.82722353935241699219e-01) (79, 6.18349373340606689453e-01) (80, 4.32260185480117797852e-01) (81, 6.21966719627380371094e-01) (82, 8.76269042491912841797e-01) (83, 7.03962585449218750000e+02) (84, 4.70981985330581665039e-01) (85, 3.83326917886734008789e-01) (86, 5.16612052917480468750e-01) (87, 6.02182090282440185547e-01) (88, 5.86865723133087158203e-01) (89, 5.46281933784484863281e-01) (90, 7.41400122642517089844e-01) (91, 4.83506202697753906250e-01) (92, 1.35500597953796386719e+00) (93, 8.22676122188568115234e-01) (94, 7.87810385227203369141e-01) (95, 1.40068859863281250000e+03) (96, 6.63241744041442871094e-01) (97, 7.14153885841369628906e-01) (98, 6.45470142364501953125e-01) (99, 6.87552154064178466797e-01) (100, 6.61402463912963867188e-01) (101, 5.38684904575347900391e-01) (102, 6.20466709136962890625e-01) (103, 6.66905939579010009766e-01) (104, 9.71134454011917114258e-02) (105, 5.29356360435485839844e-01) (106, 6.30494773387908935547e-01) (107, 5.90563952922821044922e-01) (108, 3.14331340789794921875e+00) (109, 6.05877280235290527344e-01) (110, 6.10927522182464599609e-01) (111, 8.55346024036407470703e-01) (112, 6.57096982002258300781e-01) (113, 8.87609601020812988281e-01) (114, 8.72765004634857177734e-01) (115, 2.01357555389404296875e+00) (116, 4.63451176881790161133e-01) (117, 5.40820419788360595703e-01) (118, 7.00742542743682861328e-01) (119, 6.57364249229431152344e-01) (120, 6.81079089641571044922e-01) (121, 6.58421814441680908203e-01) (122, 5.64557850360870361328e-01) (123, 7.10627555847167968750e-01) (124, 5.97046434879302978516e-01) (125, 7.40090012550354003906e-01) (126, 7.20482289791107177734e-01) (127, 7.92471647262573242188e-01) (128, 6.27815186977386474609e-01) (129, 7.40533590316772460938e-01) (130, 9.05582904815673828125e-01) (131, 6.87842905521392822266e-01) (132, -7.44746804237365722656e-01) (133, 3.22154074907302856445e-01) (134, 6.70081079006195068359e-01) (135, 6.70358777046203613281e-01) (136, 4.91418975830078125000e+02) (137, 1.49999987792968750000e+03) (138, 8.08385133743286132812e-01) (139, 7.17707514762878417969e-01) (140, 9.42003548145294189453e-01) (141, 7.73922085762023925781e-01) (142, 7.67968416213989257812e-01) (143, 9.04217590332031250000e+02) (144, 6.66851937770843505859e-01) (145, 6.58128023147583007812e-01) (146, 5.44410705566406250000e-01) (147, 4.06234681606292724609e-01) (148, 6.88435971736907958984e-01) (149, 6.55302524566650390625e-01) (150, 1.20566046237945556641e+00) (151, 4.60617750883102416992e-01) (152, 3.77936959266662597656e-01) (153, 6.52294456958770751953e-01) (154, 5.73645234107971191406e-01) (155, 6.09256625175476074219e-01) (156, 7.41332411766052246094e-01) (157, 1.73261570930480957031e+00) (158, 1.57272112369537353516e+00) (159, 1.50000000000000000000e+03) (160, 7.13275432586669921875e-01) (161, -4.18599784374237060547e-01) (162, 6.60057067871093750000e-01) (163, -1.03969657421112060547e+00) (164, -1.29776895046234130859e+00) (165, 4.76395547389984130859e-01) (166, 1.19500625133514404297e+00) (167, 5.53034007549285888672e-01) (168, 5.62317967414855957031e-01) (169, 7.27659881114959716797e-01) (170, 3.89107108116149902344e-01) (171, 3.46282392740249633789e-01) (172, 2.79455989599227905273e-01) (173, 8.98769080638885498047e-01) (174, 1.62720322608947753906e+00) (175, 1.43678350448608398438e+01) (176, 7.65384435653686523438e-01) (177, 6.22715413570404052734e-01) (178, 1.07914097607135772705e-01) (179, 1.04975748062133789062e+00) (180, 7.49404847621917724609e-01) (181, 8.81971657276153564453e-01) (182, 4.77238368988037109375e+00) (183, 9.01036834716796875000e+00) (184, 6.62148475646972656250e-01) (185, 5.28764009475708007812e-01) (186, 5.06261408329010009766e-01) (187, 3.37421208620071411133e-01) (188, 6.66549324989318847656e-01) (189, 5.61712265014648437500e-01) (190, 7.79266476631164550781e-01) (191, 2.35687327384948730469e+00) (192, 7.90824294090270996094e-01) (193, -3.67125988006591796875e-01) (194, 8.43829214572906494141e-02) (195, 2.77324318885803222656e-01) (196, 3.19449990987777709961e-01) (197, 5.59449255466461181641e-01) (198, 7.22955346107482910156e-01) (199, 6.23704791069030761719e-01) (200, 7.56992042064666748047e-01) (201, 7.69853174686431884766e-01) (202, 6.24367237091064453125e-01) (203, 6.62252306938171386719e-01) (204, 6.65406346321105957031e-01) (205, 8.90326023101806640625e-01) (206, 8.54124486446380615234e-01) (207, 6.02290987968444824219e-01) (208, -4.25457906723022460938e+00) (209, -2.87838983535766601562e+00) (210, 5.15440124511718750000e+02) (211, -1.06806068420410156250e+01) (212, -9.35653820633888244629e-02) (213, -3.77985644340515136719e+00) (214, 2.18505516648292541504e-01) (215, 3.01895380020141601562e-01) (216, 5.31482994556427001953e-01) (217, 7.55268335342407226562e-01) (218, 1.01736891269683837891e+00) (219, 1.11955273151397705078e+00) (220, 1.05439507961273193359e+00) (221, 1.15889799594879150391e+00) (222, 1.10800874233245849609e+00) (223, 1.26069555664062500000e+03) (224, -5.55988073348999023438e+00) (225, -1.85331940650939941406e+00) (226, -2.90271053314208984375e+01) (227, -1.18073449707031250000e+03) (228, -6.24502563476562500000e+00) (229, 1.50000000000000000000e+03) (230, 6.38479248046875000000e+02) (231, 6.44061148166656494141e-01) (232, 5.54053544998168945312e-01) (233, 4.11420851945877075195e-01) (234, 4.44482594728469848633e-01) (235, 4.24562245607376098633e-01) (236, 6.24993383884429931641e-01) (237, 5.35041093826293945312e-01) (238, 2.66823506355285644531e+00) (239, 4.19992141723632812500e+01) (240, -1.85784474015235900879e-01) (241, 4.89215761423110961914e-01) (242, 5.13112115859985351562e+00) (243, 7.14505493640899658203e-01) (244, 1.50000000000000000000e+03) (245, 5.98213539123535156250e+01) (246, -1.47822113037109375000e+02) (247, 1.76472499966621398926e-01) (248, 1.50000000000000000000e+03) (249, 5.91132104396820068359e-01) (250, 4.16305273771286010742e-01) (251, 6.22484564781188964844e-01) (252, 1.86383008956909179688e+00) (253, 2.61439585685729980469e+00) (254, -1.39103336334228515625e+01) (255, -7.07005737304687500000e+02) (256, 6.17948412895202636719e-01) (0, 5.66733419895172119141e-01) (1, 3.43398422002792358398e-01) (2, 3.29900592565536499023e-01) (3, 1.43660053610801696777e-01) (4, 3.95965240895748138428e-02) (5, -1.46371130371093750000e+03) (6, -1.49999597167968750000e+03) (7, -4.43831592798233032227e-01) (8, -1.47071765136718750000e+03) (9, 3.59304994344711303711e-01) (10, 4.22766625881195068359e-01) (11, 8.18553507328033447266e-01) (12, 7.46709942817687988281e-01) (13, 3.24550962448120117188e+00) (14, -6.12256228923797607422e-01) (15, -9.09701406955718994141e-01) (16, 8.37864428758621215820e-02) (17, 8.31557586789131164551e-02) (18, 1.86428502202033996582e-01) (19, 5.69748766720294952393e-02) (20, 1.89133122563362121582e-01) (21, 3.72786939144134521484e-01) (22, 1.45437553524971008301e-01) (23, 7.30754375457763671875e-01) (24, 2.40469992160797119141e-01) (25, 2.99888961017131805420e-02) (26, -7.30478018522262573242e-02) (27, -1.61966919898986816406e+00) (28, -4.74626690149307250977e-01) (29, 1.45446014404296875000e+00) (30, -1.36090606451034545898e-01) (31, -1.35702240467071533203e+00) (32, 5.31680941581726074219e-01) (33, -1.48326367139816284180e-01) (34, -1.77175492048263549805e-01) (35, -4.33817774057388305664e-01) (36, -2.38548561930656433105e-01) (37, 3.27042825520038604736e-02) (38, 3.89858968555927276611e-02) (39, 1.57263621687889099121e-01) (40, -1.85458230972290039062e+00) (41, 1.37499797344207763672e+00) (42, -5.09100079536437988281e-01) (43, -6.25199317932128906250e-01) (44, 3.38993310928344726562e-01) (45, 2.72495698928833007812e+00) (46, 2.33144938945770263672e-01) (47, 4.52025055885314941406e-01) (48, 3.59817504882812500000e-01) (49, -1.92499980330467224121e-01) (50, 7.98458158969879150391e-02) (51, 7.45415627956390380859e-01) (52, -5.74259281158447265625e+00) (53, -2.71175414323806762695e-01) (54, 3.06654442101716995239e-03) (55, -6.12689461559057235718e-03) (56, -9.56512928009033203125e-01) (57, -1.41294449567794799805e-01) (58, -7.67168924212455749512e-02) (59, -1.01881556212902069092e-01) (60, -1.00757047533988952637e-01) (61, 2.01414912939071655273e-01) (62, 3.49592775106430053711e-01) (63, -5.82756936550140380859e-01) (64, -1.17823362350463867188e-01) (65, -9.85256358981132507324e-02) (66, -6.20169401168823242188e-01) (67, -3.42794395983219146729e-02) (68, 3.09351563453674316406e-01) (69, 3.82262140512466430664e-01) (70, 5.39900302886962890625e-01) (71, 4.17627356946468353271e-02) (72, 1.50301247835159301758e-01) (73, -2.47701704502105712891e-02) (74, 2.60048545897006988525e-03) (75, -4.15262803435325622559e-02) (76, 8.76509398221969604492e-02) (77, 1.69946983456611633301e-01) (78, 1.15194149315357208252e-01) (79, -2.66214191913604736328e-01) (80, 2.57551390677690505981e-02) (81, 9.79821458458900451660e-02) (82, 1.67668759822845458984e-01) (83, -1.49806350469589233398e-01) (84, -8.61255675554275512695e-02) (85, -3.22662331163883209229e-02) (86, -2.13722556829452514648e-01) (87, -2.57932126522064208984e-01) (88, -3.86875644326210021973e-02) (89, -7.78304696083068847656e-01) (90, -2.57899582386016845703e-01) (91, -5.13653337955474853516e-01) (92, 1.46782353520393371582e-01) (93, -4.15809778496623039246e-03) (94, -6.43820583820343017578e-01) (95, 3.49105626344680786133e-01) (96, 1.99813589453697204590e-01) (97, 2.46697608381509780884e-02) (98, 1.33860230445861816406e-01) (99, 1.69913724064826965332e-01) (100, 9.58252623677253723145e-02) (101, 9.96882691979408264160e-02) (102, 2.72762086242437362671e-02) (103, -2.21874445676803588867e-01) (104, 1.13292120397090911865e-01) (105, 4.26665008068084716797e-01) (106, -7.25769579410552978516e-01) (107, -5.18586814403533935547e-01) (108, -3.04476976394653320312e-01) (109, -5.11708259582519531250e+00) (110, -3.59494471549987792969e+00) (111, -1.12735891342163085938e+00) (112, -3.87178249657154083252e-02) (113, -2.77884483337402343750e-01) (114, -2.48358249664306640625e-01) (115, 7.40197449922561645508e-02) (116, 1.98364809155464172363e-01) (117, 8.94167274236679077148e-02) (118, 9.04625728726387023926e-02) (119, -8.03633127361536026001e-03) (120, 3.78310903906822204590e-02) (121, -4.07161921262741088867e-01) (122, 8.56631472706794738770e-02) (123, -1.13499946892261505127e-01) (124, -1.51178881525993347168e-01) (125, -1.58731579780578613281e+00) (126, -1.09631943702697753906e+00) (127, -1.63320720195770263672e+00) (128, -3.82282376289367675781e-01) (129, -6.13466739654541015625e-01) (130, -7.69179344177246093750e-01) (131, -3.58501017093658447266e-01) (132, 4.17973875999450683594e-01) (133, 1.24005302786827087402e-01) (134, -2.01674953103065490723e-01) (135, 3.17629836499691009521e-02) (136, 1.54954671859741210938e-01) (137, -8.18109363317489624023e-02) (138, -1.63491323590278625488e-01) (139, -1.21394856250844895840e-04) (140, -1.21233493089675903320e-01) (141, 6.95197060704231262207e-02) (142, 7.28249400854110717773e-02) (143, 3.17327082157135009766e-01) (144, 3.11960410326719284058e-02) (145, 1.59687608480453491211e-01) (146, -7.30133578181266784668e-02) (147, -5.85345149040222167969e-01) (148, 1.34655103087425231934e-01) (149, -3.79444330930709838867e-01) (150, -2.92541444301605224609e-01) (151, -3.63737314939498901367e-01) (152, -3.49099487066268920898e-01) (153, -8.36547195911407470703e-01) (154, 3.47883738577365875244e-02) (155, -4.62593942880630493164e-01) (156, -4.51671779155731201172e-01) (157, -6.20227716863155364990e-02) (158, 5.95469251275062561035e-02) (159, -7.35378488898277282715e-02) (160, 1.28455892205238342285e-01) (161, -1.20074395090341567993e-02) (162, -1.04795850813388824463e-01) (163, -3.67712557315826416016e-01) (164, -8.26934993267059326172e-01) (165, -6.88639678955078125000e+01) (166, -1.48315380859375000000e+03) (167, -4.00619924068450927734e-01) (168, -9.31918501853942871094e-01) (169, -1.27371418476104736328e+00) (170, -5.69302558898925781250e-01) (171, -4.36171352863311767578e-01) (172, 1.56753957271575927734e-01) (173, -1.31218170281499624252e-03) (174, 1.74665942788124084473e-01) (175, -1.41655787825584411621e-01) (176, -1.67211621999740600586e-01) (177, 1.11336320638656616211e-01) (178, 7.34273135662078857422e-01) (179, 1.09176225960254669189e-01) (180, 1.54455862939357757568e-02) (181, 1.31691724061965942383e-01) (182, -4.08567115664482116699e-02) (183, -8.23111653327941894531e-01) (184, -3.00750583410263061523e-01) (185, -6.82855725288391113281e-01) (186, -4.68546718358993530273e-01) (187, -1.90521433949470520020e-01) (188, -6.09296560287475585938e-01) (189, -5.82149028778076171875e-01) (190, -6.16128109395503997803e-02) (191, -3.37659195065498352051e-02) (192, -1.12832412123680114746e-01) (193, -9.82951223850250244141e-02) (194, 7.67708301544189453125e-01) (195, -5.16526214778423309326e-03) (196, 3.95711809396743774414e-01) (197, 1.96163535118103027344e-01) (198, -9.33330059051513671875e-02) (199, -2.89692496880888938904e-03) (200, 2.74793766438961029053e-02) (201, -3.80286931991577148438e-01) (202, -6.90079480409622192383e-02) (203, -6.12662196159362792969e-01) (204, -7.62280046939849853516e-01) (205, -5.30936479568481445312e-01) (206, 9.20425504446029663086e-02) (207, 7.93725475668907165527e-02) (208, 3.39692234992980957031e-02) (209, 1.54148757457733154297e-01) (210, -1.03614449501037597656e+00) (211, -2.41360291838645935059e-01) (212, 3.98895293474197387695e-01) (213, 3.05160991847515106201e-02) (214, -1.80925093591213226318e-02) (215, -6.49029901251196861267e-03) (216, 8.28357264399528503418e-02) (217, 5.24211674928665161133e-02) (218, 6.40743821859359741211e-02) (219, 3.80627028644084930420e-02) (220, 2.66065690666437149048e-02) (221, 3.28049398958683013916e-02) (222, 6.08013123273849487305e-02) (223, 8.67902934551239013672e-02) (224, -1.12640291452407836914e-01) (225, 1.23262986540794372559e-01) (226, 8.88673961162567138672e-01) (227, -9.75055471062660217285e-02) (228, 9.44050014019012451172e-01) (229, -1.90207943320274353027e-01) (230, 1.46814152598381042480e-01) (231, 2.53859966993331909180e-01) (232, 2.46834680438041687012e-01) (233, 1.48907214403152465820e-01) (234, 6.82918950915336608887e-02) (235, 4.98303472995758056641e-02) (236, 4.57844324409961700439e-02) (237, 1.56801313161849975586e-01) (238, 2.26935893297195434570e-01) (239, 4.64861141517758369446e-03) (240, 1.88457760959863662720e-02) (241, 1.84315860271453857422e-01) (242, -5.20024299621582031250e-01) (243, 1.21540486812591552734e+00) (244, -1.49999853515625000000e+03) (245, 5.09555530548095703125e+00) (246, -7.46120363473892211914e-02) (247, 2.08582639694213867188e+00) (248, 6.92749679088592529297e-01) (249, 5.54637551307678222656e-01) (250, 3.80209594964981079102e-01) (251, 4.54736858606338500977e-01) (252, 1.02582015097141265869e-01) (253, 1.32800304889678955078e+00) (254, -3.73466283082962036133e-01) (255, 3.48459911346435546875e+00) (256, -2.43129301816225051880e-02) (0, 1.46793884277343750000e+03) (1, 1.50000000000000000000e+03) (2, 1.50000000000000000000e+03) (3, -5.12226894497871398926e-02) (4, -1.65713101625442504883e-01) (5, -2.19972848892211914062e-01) (6, -4.96538609266281127930e-01) (7, 1.67241960763931274414e-01) (8, -1.76935613155364990234e-01) (9, 9.62992534041404724121e-02) (10, -4.10971082746982574463e-02) (11, 1.50000000000000000000e+03) (12, 1.50000000000000000000e+03) (13, -3.98321270942687988281e-01) (14, 6.97283124923706054688e+00) (15, -4.64971780776977539062e+00) (16, 7.17546045780181884766e-01) (17, 3.37559151649475097656e+00) (18, 2.51039528846740722656e+00) (19, 1.50000000000000000000e+03) (20, 6.94039821624755859375e+00) (21, 2.46776223182678222656e+00) (22, 4.26047682762145996094e-01) (23, 3.57958711683750152588e-02) (24, 1.26015106216073036194e-02) (25, 7.17171505093574523926e-02) (26, 9.63864549994468688965e-02) (27, -5.52948974072933197021e-02) (28, -1.58099718093872070312e+01) (29, 2.26351394653320312500e+01) (30, -2.53165006637573242188e-01) (31, 9.49042588472366333008e-02) (32, 1.49999975585937500000e+03) (33, 2.77898263931274414062e+00) (34, 5.34123992919921875000e+01) (35, 7.53640319824218750000e+02) (36, 9.95505332946777343750e+00) (37, 1.12312221527099609375e+00) (38, 3.88903707265853881836e-01) (39, 1.56046628952026367188e+00) (40, 7.41931915283203125000e-01) (41, 1.61801958084106445312e+00) (42, 1.14715605974197387695e-01) (43, -3.92487384378910064697e-02) (44, -8.38008213043212890625e+00) (45, -1.51180297136306762695e-01) (46, -1.40708908438682556152e-01) (47, 1.59089267253875732422e-01) (48, 2.80226535797119140625e+01) (49, 3.25404787063598632812e+00) (50, 9.76585924625396728516e-01) (51, 9.03045594692230224609e-01) (52, 2.08872988820075988770e-01) (53, 9.39120054244995117188e-02) (54, 9.25647497177124023438e-01) (55, 1.19296627044677734375e+01) (56, 2.57999324798583984375e+00) (57, 5.97885310649871826172e-01) (58, 3.35729390382766723633e-01) (59, 6.82482421398162841797e-01) (60, 5.12906253337860107422e-01) (61, 4.78515565395355224609e-01) (62, 1.20588564872741699219e+00) (63, 1.40049982070922851562e+00) (64, 2.84206819534301757812e+00) (65, 1.05477495193481445312e+01) (66, 9.29691791534423828125e-01) (67, 2.83891379833221435547e-01) (68, -4.08413959667086601257e-03) (69, 5.45529305934906005859e-01) (70, 1.06348443031311035156e+00) (71, 6.07736527919769287109e-01) (72, 2.16361713409423828125e+00) (73, 8.87412965297698974609e-01) (74, 1.09857833385467529297e+00) (75, 9.86024498939514160156e-01) (76, 8.17549288272857666016e-01) (77, 1.03295731544494628906e+00) (78, 6.35545134544372558594e-01) (79, 4.92268711328506469727e-01) (80, 4.64686155319213867188e-01) (81, 5.63981473445892333984e-01) (82, 9.08798635005950927734e-01) (83, 9.76251006126403808594e-01) (84, 6.14933192729949951172e-01) (85, 4.47771370410919189453e-01) (86, 3.82769584655761718750e-01) (87, 7.45760560035705566406e-01) (88, 6.78828656673431396484e-01) (89, 6.41302824020385742188e-01) (90, 2.69285291433334350586e-01) (91, 6.36972129344940185547e-01) (92, 5.77382504940032958984e-01) (93, 6.07452809810638427734e-01) (94, 2.19653415679931640625e+00) (95, 3.93194460868835449219e+00) (96, 5.02993166446685791016e-01) (97, 4.01642858982086181641e-01) (98, 8.26259195804595947266e-01) (99, 7.15894818305969238281e-01) (100, 9.07578825950622558594e-01) (101, 7.83639311790466308594e-01) (102, 6.49373292922973632812e-01) (103, 7.39974975585937500000e-01) (104, 8.48417520523071289062e-01) (105, 5.81845581531524658203e-01) (106, 1.66114643216133117676e-01) (107, 3.70165050029754638672e-01) (108, 1.15303218364715576172e+00) (109, 3.09501945972442626953e-01) (110, 4.22917991876602172852e-01) (111, 3.30695241689682006836e-01) (112, 1.44453510642051696777e-01) (113, 6.40538811683654785156e-01) (114, 3.83545428514480590820e-01) (115, 2.83310580253601074219e+00) (116, 7.58450269699096679688e-01) (117, 6.40642940998077392578e-01) (118, 7.55171000957489013672e-01) (119, 1.45892930030822753906e+00) (120, 8.94629299640655517578e-01) (121, 1.11608469486236572266e+00) (122, 5.66170811653137207031e-01) (123, 1.07282686233520507812e+00) (124, 2.87330180406570434570e-01) (125, 3.96890926361083984375e+00) (126, 1.29123806953430175781e-01) (127, 4.35884952545166015625e-01) (128, 2.17684999108314514160e-01) (129, 8.50844979286193847656e-01) (130, 8.57978284358978271484e-01) (131, 9.52850520610809326172e-01) (132, 1.00095253437757492065e-02) (133, 6.11062467098236083984e-01) (134, 7.81845092773437500000e-01) (135, 1.72942864894866943359e+00) (136, 1.35022619628906250000e+03) (137, 1.50000000000000000000e+03) (138, 1.12544965744018554688e+00) (139, 2.39980012178421020508e-01) (140, 5.83265185356140136719e-01) (141, 8.59669744968414306641e-01) (142, 2.51836323738098144531e+00) (143, 7.78143978118896484375e+00) (144, 3.26403594017028808594e+00) (145, 1.13203369081020355225e-01) (146, 1.54865041375160217285e-01) (147, 2.88424771279096603394e-02) (148, 1.99324026703834533691e-01) (149, 4.74789291620254516602e-01) (150, 8.15966665744781494141e-01) (151, 4.51947115361690521240e-02) (152, 6.68357968330383300781e-01) (153, 1.33623147010803222656e+00) (154, 5.79526484012603759766e-01) (155, 1.31246793270111083984e+00) (156, 4.34417396783828735352e-01) (157, 5.12138271331787109375e+00) (158, 2.58801603317260742188e+00) (159, 1.91911067962646484375e+01) (160, 2.67152357101440429688e+00) (161, 1.14306032657623291016e+00) (162, 3.30493420362472534180e-01) (163, -2.01147720217704772949e-01) (164, -1.85803830623626708984e-01) (165, -6.15785606205463409424e-02) (166, 6.82182133197784423828e-01) (167, 5.19627928733825683594e-01) (168, 1.26792401075363159180e-01) (169, 3.19482624530792236328e-01) (170, 5.10937571525573730469e-01) (171, 4.51029181480407714844e-01) (172, 6.17657542228698730469e-01) (173, 8.46169853210449218750e+00) (174, 2.78480243682861328125e+00) (175, 6.90328884124755859375e+00) (176, 3.10212326049804687500e+00) (177, 7.92137503623962402344e-01) (178, 8.30129384994506835938e-02) (179, 6.87292754650115966797e-01) 