FANN_FLO_2.1
num_layers=3
learning_rate=0.700000
connection_rate=1.000000
network_type=0
learning_momentum=0.000000
training_algorithm=2
train_error_function=1
train_stop_function=0
cascade_output_change_fraction=0.010000
quickprop_decay=-0.000100
quickprop_mu=1.750000
rprop_increase_factor=1.200000
rprop_decrease_factor=0.500000
rprop_delta_min=0.000000
rprop_delta_max=50.000000
rprop_delta_zero=0.100000
cascade_output_stagnation_epochs=12
cascade_candidate_change_fraction=0.010000
cascade_candidate_stagnation_epochs=12
cascade_max_out_epochs=150
cascade_min_out_epochs=50
cascade_max_cand_epochs=150
cascade_min_cand_epochs=50
cascade_num_candidate_groups=2
bit_fail_limit=3.49999994039535522461e-01
cascade_candidate_limit=1.00000000000000000000e+03
cascade_weight_multiplier=4.00000005960464477539e-01
cascade_activation_functions_count=10
cascade_activation_functions=3 5 7 8 10 11 14 15 16 17 
cascade_activation_steepnesses_count=4
cascade_activation_steepnesses=2.50000000000000000000e-01 5.00000000000000000000e-01 7.50000000000000000000e-01 1.00000000000000000000e+00 
layer_sizes=257 131 11 
scale_included=0
neurons (num_inputs, activation_function, activation_steepness)=(0, 0, 0.00000000000000000000e+00) (0, 0, 0.00000000000000000000e+00) (0, 0, 0.00000000000000000000e+00) (0, 0, 0.00000000000000000000e+00) (0, 0, 0.00000000000000000000e+00) (0, 0, 0.00000000000000000000e+00) (0, 0, 0.00000000000000000000e+00) (0, 0, 0.00000000000000000000e+00) (0, 0, 0.00000000000000000000e+00) (0, 0, 0.00000000000000000000e+00) (0, 0, 0.00000000000000000000e+00) (0, 0, 0.00000000000000000000e+00) (0, 0, 0.00000000000000000000e+00) (0, 0, 0.00000000000000000000e+00) (0, 0, 0.00000000000000000000e+00) (0, 0, 0.00000000000000000000e+00) (0, 0, 0.00000000000000000000e+00) (0, 0, 0.00000000000000000000e+00) (0, 0, 0.00000000000000000000e+00) (0, 0, 0.00000000000000000000e+00) (0, 0, 0.00000000000000000000e+00) (0, 0, 0.00000000000000000000e+00) (0, 0, 0.00000000000000000000e+00) (0, 0, 0.00000000000000000000e+00) (0, 0, 0.00000000000000000000e+00) (0, 0, 0.00000000000000000000e+00) (0, 0, 0.00000000000000000000e+00) (0, 0, 0.00000000000000000000e+00) (0, 0, 0.00000000000000000000e+00) (0, 0, 0.00000000000000000000e+00) (0, 0, 0.00000000000000000000e+00) (0, 0, 0.00000000000000000000e+00) (0, 0, 0.00000000000000000000e+00) (0, 0, 0.00000000000000000000e+00) (0, 0, 0.00000000000000000000e+00) (0, 0, 0.00000000000000000000e+00) (0, 0, 0.00000000000000000000e+00) (0, 0, 0.00000000000000000000e+00) (0, 0, 0.00000000000000000000e+00) (0, 0, 0.00000000000000000000e+00) (0, 0, 0.00000000000000000000e+00) (0, 0, 0.00000000000000000000e+00) (0, 0, 0.00000000000000000000e+00) (0, 0, 0.00000000000000000000e+00) (0, 0, 0.00000000000000000000e+00) (0, 0, 0.00000000000000000000e+00) (0, 0, 0.00000000000000000000e+00) (0, 0, 0.00000000000000000000e+00) (0, 0, 0.00000000000000000000e+00) (0, 0, 0.00000000000000000000e+00) (0, 0, 0.00000000000000000000e+00) (0, 0, 0.00000000000000000000e+00) (0, 0, 0.00000000000000000000e+00) (0, 0, 0.00000000000000000000e+00) (0, 0, 0.00000000000000000000e+00) (0, 0, 0.00000000000000000000e+00) (0, 0, 0.00000000000000000000e+00) (0, 0, 0.00000000000000000000e+00) (0, 0, 0.00000000000000000000e+00) (0, 0, 0.00000000000000000000e+00) (0, 0, 0.00000000000000000000e+00) (0, 0, 0.00000000000000000000e+00) (0, 0, 0.00000000000000000000e+00) (0, 0, 0.00000000000000000000e+00) (0, 0, 0.00000000000000000000e+00) (0, 0, 0.00000000000000000000e+00) (0, 0, 0.00000000000000000000e+00) (0, 0, 0.00000000000000000000e+00) (0, 0, 0.00000000000000000000e+00) (0, 0, 0.00000000000000000000e+00) (0, 0, 0.00000000000000000000e+00) (0, 0, 0.00000000000000000000e+00) (0, 0, 0.00000000000000000000e+00) (0, 0, 0.00000000000000000000e+00) (0, 0, 0.00000000000000000000e+00) (0, 0, 0.00000000000000000000e+00) (0, 0, 0.00000000000000000000e+00) (0, 0, 0.00000000000000000000e+00) (0, 0, 0.00000000000000000000e+00) (0, 0, 0.00000000000000000000e+00) (0, 0, 0.00000000000000000000e+00) (0, 0, 0.00000000000000000000e+00) (0, 0, 0.00000000000000000000e+00) (0, 0, 0.00000000000000000000e+00) (0, 0, 0.00000000000000000000e+00) (0, 0, 0.00000000000000000000e+00) (0, 0, 0.00000000000000000000e+00) (0, 0, 0.00000000000000000000e+00) (0, 0, 0.00000000000000000000e+00) (0, 0, 0.00000000000000000000e+00) (0, 0, 0.00000000000000000000e+00) (0, 0, 0.00000000000000000000e+00) (0, 0, 0.00000000000000000000e+00) (0, 0, 0.00000000000000000000e+00) (0, 0, 0.00000000000000000000e+00) (0, 0, 0.00000000000000000000e+00) (0, 0, 0.00000000000000000000e+00) (0, 0, 0.00000000000000000000e+00) (0, 0, 0.00000000000000000000e+00) (0, 0, 0.00000000000000000000e+00) (0, 0, 0.00000000000000000000e+00) (0, 0, 0.00000000000000000000e+00) (0, 0, 0.00000000000000000000e+00) (0, 0, 0.00000000000000000000e+00) (0, 0, 0.00000000000000000000e+00) (0, 0, 0.00000000000000000000e+00) (0, 0, 0.00000000000000000000e+00) (0, 0, 0.00000000000000000000e+00) (0, 0, 0.00000000000000000000e+00) (0, 0, 0.00000000000000000000e+00) (0, 0, 0.00000000000000000000e+00) (0, 0, 0.00000000000000000000e+00) (0, 0, 0.00000000000000000000e+00) (0, 0, 0.00000000000000000000e+00) (0, 0, 0.00000000000000000000e+00) (0, 0, 0.00000000000000000000e+00) (0, 0, 0.00000000000000000000e+00) (0, 0, 0.00000000000000000000e+00) (0, 0, 0.00000000000000000000e+00) (0, 0, 0.00000000000000000000e+00) (0, 0, 0.00000000000000000000e+00) (0, 0, 0.00000000000000000000e+00) (0, 0, 0.00000000000000000000e+00) (0, 0, 0.00000000000000000000e+00) (0, 0, 0.00000000000000000000e+00) (0, 0, 0.00000000000000000000e+00) (0, 0, 0.00000000000000000000e+00) (0, 0, 0.00000000000000000000e+00) (0, 0, 0.00000000000000000000e+00) (0, 0, 0.00000000000000000000e+00) (0, 0, 0.00000000000000000000e+00) (0, 0, 0.00000000000000000000e+00) (0, 0, 0.00000000000000000000e+00) (0, 0, 0.00000000000000000000e+00) (0, 0, 0.00000000000000000000e+00) (0, 0, 0.00000000000000000000e+00) (0, 0, 0.00000000000000000000e+00) (0, 0, 0.00000000000000000000e+00) (0, 0, 0.00000000000000000000e+00) (0, 0, 0.00000000000000000000e+00) (0, 0, 0.00000000000000000000e+00) (0, 0, 0.00000000000000000000e+00) (0, 0, 0.00000000000000000000e+00) (0, 0, 0.00000000000000000000e+00) (0, 0, 0.00000000000000000000e+00) (0, 0, 0.00000000000000000000e+00) (0, 0, 0.00000000000000000000e+00) (0, 0, 0.00000000000000000000e+00) (0, 0, 0.00000000000000000000e+00) (0, 0, 0.00000000000000000000e+00) (0, 0, 0.00000000000000000000e+00) (0, 0, 0.00000000000000000000e+00) (0, 0, 0.00000000000000000000e+00) (0, 0, 0.00000000000000000000e+00) (0, 0, 0.00000000000000000000e+00) (0, 0, 0.00000000000000000000e+00) (0, 0, 0.00000000000000000000e+00) (0, 0, 0.00000000000000000000e+00) (0, 0, 0.00000000000000000000e+00) (0, 0, 0.00000000000000000000e+00) (0, 0, 0.00000000000000000000e+00) (0, 0, 0.00000000000000000000e+00) (0, 0, 0.00000000000000000000e+00) (0, 0, 0.00000000000000000000e+00) (0, 0, 0.00000000000000000000e+00) (0, 0, 0.00000000000000000000e+00) (0, 0, 0.00000000000000000000e+00) (0, 0, 0.00000000000000000000e+00) (0, 0, 0.00000000000000000000e+00) (0, 0, 0.00000000000000000000e+00) (0, 0, 0.00000000000000000000e+00) (0, 0, 0.00000000000000000000e+00) (0, 0, 0.00000000000000000000e+00) (0, 0, 0.00000000000000000000e+00) (0, 0, 0.00000000000000000000e+00) (0, 0, 0.00000000000000000000e+00) (0, 0, 0.00000000000000000000e+00) (0, 0, 0.00000000000000000000e+00) (0, 0, 0.00000000000000000000e+00) (0, 0, 0.00000000000000000000e+00) (0, 0, 0.00000000000000000000e+00) (0, 0, 0.00000000000000000000e+00) (0, 0, 0.00000000000000000000e+00) (0, 0, 0.00000000000000000000e+00) (0, 0, 0.00000000000000000000e+00) (0, 0, 0.00000000000000000000e+00) (0, 0, 0.00000000000000000000e+00) (0, 0, 0.00000000000000000000e+00) (0, 0, 0.00000000000000000000e+00) (0, 0, 0.00000000000000000000e+00) (0, 0, 0.00000000000000000000e+00) (0, 0, 0.00000000000000000000e+00) (0, 0, 0.00000000000000000000e+00) (0, 0, 0.00000000000000000000e+00) (0, 0, 0.00000000000000000000e+00) (0, 0, 0.00000000000000000000e+00) (0, 0, 0.00000000000000000000e+00) (0, 0, 0.00000000000000000000e+00) (0, 0, 0.00000000000000000000e+00) (0, 0, 0.00000000000000000000e+00) (0, 0, 0.00000000000000000000e+00) (0, 0, 0.00000000000000000000e+00) (0, 0, 0.00000000000000000000e+00) (0, 0, 0.00000000000000000000e+00) (0, 0, 0.00000000000000000000e+00) (0, 0, 0.00000000000000000000e+00) (0, 0, 0.00000000000000000000e+00) (0, 0, 0.00000000000000000000e+00) (0, 0, 0.00000000000000000000e+00) (0, 0, 0.00000000000000000000e+00) (0, 0, 0.00000000000000000000e+00) (0, 0, 0.00000000000000000000e+00) (0, 0, 0.00000000000000000000e+00) (0, 0, 0.00000000000000000000e+00) (0, 0, 0.00000000000000000000e+00) (0, 0, 0.00000000000000000000e+00) (0, 0, 0.00000000000000000000e+00) (0, 0, 0.00000000000000000000e+00) (0, 0, 0.00000000000000000000e+00) (0, 0, 0.00000000000000000000e+00) (0, 0, 0.00000000000000000000e+00) (0, 0, 0.00000000000000000000e+00) (0, 0, 0.00000000000000000000e+00) (0, 0, 0.00000000000000000000e+00) (0, 0, 0.00000000000000000000e+00) (0, 0, 0.00000000000000000000e+00) (0, 0, 0.00000000000000000000e+00) (0, 0, 0.00000000000000000000e+00) (0, 0, 0.00000000000000000000e+00) (0, 0, 0.00000000000000000000e+00) (0, 0, 0.00000000000000000000e+00) (0, 0, 0.00000000000000000000e+00) (0, 0, 0.00000000000000000000e+00) (0, 0, 0.00000000000000000000e+00) (0, 0, 0.00000000000000000000e+00) (0, 0, 0.00000000000000000000e+00) (0, 0, 0.00000000000000000000e+00) (0, 0, 0.00000000000000000000e+00) (0, 0, 0.00000000000000000000e+00) (0, 0, 0.00000000000000000000e+00) (0, 0, 0.00000000000000000000e+00) (0, 0, 0.00000000000000000000e+00) (0, 0, 0.00000000000000000000e+00) (0, 0, 0.00000000000000000000e+00) (0, 0, 0.00000000000000000000e+00) (0, 0, 0.00000000000000000000e+00) (0, 0, 0.00000000000000000000e+00) (0, 0, 0.00000000000000000000e+00) (0, 0, 0.00000000000000000000e+00) (0, 0, 0.00000000000000000000e+00) (0, 0, 0.00000000000000000000e+00) (0, 0, 0.00000000000000000000e+00) (0, 0, 0.00000000000000000000e+00) (0, 0, 0.00000000000000000000e+00) (0, 0, 0.00000000000000000000e+00) (0, 0, 0.00000000000000000000e+00) (0, 0, 0.00000000000000000000e+00) (257, 5, 5.00000000000000000000e-01) (257, 5, 5.00000000000000000000e-01) (257, 5, 5.00000000000000000000e-01) (257, 5, 5.00000000000000000000e-01) (257, 5, 5.00000000000000000000e-01) (257, 5, 5.00000000000000000000e-01) (257, 5, 5.00000000000000000000e-01) (257, 5, 5.00000000000000000000e-01) (257, 5, 5.00000000000000000000e-01) (257, 5, 5.00000000000000000000e-01) (257, 5, 5.00000000000000000000e-01) (257, 5, 5.00000000000000000000e-01) (257, 5, 5.00000000000000000000e-01) (257, 5, 5.00000000000000000000e-01) (257, 5, 5.00000000000000000000e-01) (257, 5, 5.00000000000000000000e-01) (257, 5, 5.00000000000000000000e-01) (257, 5, 5.00000000000000000000e-01) (257, 5, 5.00000000000000000000e-01) (257, 5, 5.00000000000000000000e-01) (257, 5, 5.00000000000000000000e-01) (257, 5, 5.00000000000000000000e-01) (257, 5, 5.00000000000000000000e-01) (257, 5, 5.00000000000000000000e-01) (257, 5, 5.00000000000000000000e-01) (257, 5, 5.00000000000000000000e-01) (257, 5, 5.00000000000000000000e-01) (257, 5, 5.00000000000000000000e-01) (257, 5, 5.00000000000000000000e-01) (257, 5, 5.00000000000000000000e-01) (257, 5, 5.00000000000000000000e-01) (257, 5, 5.00000000000000000000e-01) (257, 5, 5.00000000000000000000e-01) (257, 5, 5.00000000000000000000e-01) (257, 5, 5.00000000000000000000e-01) (257, 5, 5.00000000000000000000e-01) (257, 5, 5.00000000000000000000e-01) (257, 5, 5.00000000000000000000e-01) (257, 5, 5.00000000000000000000e-01) (257, 5, 5.00000000000000000000e-01) (257, 5, 5.00000000000000000000e-01) (257, 5, 5.00000000000000000000e-01) (257, 5, 5.00000000000000000000e-01) (257, 5, 5.00000000000000000000e-01) (257, 5, 5.00000000000000000000e-01) (257, 5, 5.00000000000000000000e-01) (257, 5, 5.00000000000000000000e-01) (257, 5, 5.00000000000000000000e-01) (257, 5, 5.00000000000000000000e-01) (257, 5, 5.00000000000000000000e-01) (257, 5, 5.00000000000000000000e-01) (257, 5, 5.00000000000000000000e-01) (257, 5, 5.00000000000000000000e-01) (257, 5, 5.00000000000000000000e-01) (257, 5, 5.00000000000000000000e-01) (257, 5, 5.00000000000000000000e-01) (257, 5, 5.00000000000000000000e-01) (257, 5, 5.00000000000000000000e-01) (257, 5, 5.00000000000000000000e-01) (257, 5, 5.00000000000000000000e-01) (257, 5, 5.00000000000000000000e-01) (257, 5, 5.00000000000000000000e-01) (257, 5, 5.00000000000000000000e-01) (257, 5, 5.00000000000000000000e-01) (257, 5, 5.00000000000000000000e-01) (257, 5, 5.00000000000000000000e-01) (257, 5, 5.00000000000000000000e-01) (257, 5, 5.00000000000000000000e-01) (257, 5, 5.00000000000000000000e-01) (257, 5, 5.00000000000000000000e-01) (257, 5, 5.00000000000000000000e-01) (257, 5, 5.00000000000000000000e-01) (257, 5, 5.00000000000000000000e-01) (257, 5, 5.00000000000000000000e-01) (257, 5, 5.00000000000000000000e-01) (257, 5, 5.00000000000000000000e-01) (257, 5, 5.00000000000000000000e-01) (257, 5, 5.00000000000000000000e-01) (257, 5, 5.00000000000000000000e-01) (257, 5, 5.00000000000000000000e-01) (257, 5, 5.00000000000000000000e-01) (257, 5, 5.00000000000000000000e-01) (257, 5, 5.00000000000000000000e-01) (257, 5, 5.00000000000000000000e-01) (257, 5, 5.00000000000000000000e-01) (257, 5, 5.00000000000000000000e-01) (257, 5, 5.00000000000000000000e-01) (257, 5, 5.00000000000000000000e-01) (257, 5, 5.00000000000000000000e-01) (257, 5, 5.00000000000000000000e-01) (257, 5, 5.00000000000000000000e-01) (257, 5, 5.00000000000000000000e-01) (257, 5, 5.00000000000000000000e-01) (257, 5, 5.00000000000000000000e-01) (257, 5, 5.00000000000000000000e-01) (257, 5, 5.00000000000000000000e-01) (257, 5, 5.00000000000000000000e-01) (257, 5, 5.00000000000000000000e-01) (257, 5, 5.00000000000000000000e-01) (257, 5, 5.00000000000000000000e-01) (257, 5, 5.00000000000000000000e-01) (257, 5, 5.00000000000000000000e-01) (257, 5, 5.00000000000000000000e-01) (257, 5, 5.00000000000000000000e-01) (257, 5, 5.00000000000000000000e-01) (257, 5, 5.00000000000000000000e-01) (257, 5, 5.00000000000000000000e-01) (257, 5, 5.00000000000000000000e-01) (257, 5, 5.00000000000000000000e-01) (257, 5, 5.00000000000000000000e-01) (257, 5, 5.00000000000000000000e-01) (257, 5, 5.00000000000000000000e-01) (257, 5, 5.00000000000000000000e-01) (257, 5, 5.00000000000000000000e-01) (257, 5, 5.00000000000000000000e-01) (257, 5, 5.00000000000000000000e-01) (257, 5, 5.00000000000000000000e-01) (257, 5, 5.00000000000000000000e-01) (257, 5, 5.00000000000000000000e-01) (257, 5, 5.00000000000000000000e-01) (257, 5, 5.00000000000000000000e-01) (257, 5, 5.00000000000000000000e-01) (257, 5, 5.00000000000000000000e-01) (257, 5, 5.00000000000000000000e-01) (257, 5, 5.00000000000000000000e-01) (257, 5, 5.00000000000000000000e-01) (257, 5, 5.00000000000000000000e-01) (257, 5, 5.00000000000000000000e-01) (257, 5, 5.00000000000000000000e-01) (257, 5, 5.00000000000000000000e-01) (0, 5, 0.00000000000000000000e+00) (131, 5, 5.00000000000000000000e-01) (131, 5, 5.00000000000000000000e-01) (131, 5, 5.00000000000000000000e-01) (131, 5, 5.00000000000000000000e-01) (131, 5, 5.00000000000000000000e-01) (131, 5, 5.00000000000000000000e-01) (131, 5, 5.00000000000000000000e-01) (131, 5, 5.00000000000000000000e-01) (131, 5, 5.00000000000000000000e-01) (131, 5, 5.00000000000000000000e-01) (0, 5, 0.00000000000000000000e+00) 
connections (connected_to_neuron, weight)=(0, 9.16674255371093750000e+02) (1, 2.57593414306640625000e+02) (2, 7.74729675292968750000e+02) (3, 1.31300451660156250000e+03) (4, 1.42240881347656250000e+03) (5, -1.42957006835937500000e+03) (6, 1.24426135253906250000e+03) (7, 1.45836499023437500000e+03) (8, 8.02880065917968750000e+02) (9, 1.50000000000000000000e+03) (10, 1.50000000000000000000e+03) (11, 3.63922058105468750000e+02) (12, 3.63978515625000000000e+02) (13, 1.50000000000000000000e+03) (14, 1.13643200683593750000e+03) (15, 1.50000000000000000000e+03) (16, 1.32115332031250000000e+03) (17, -6.38799629211425781250e+01) (18, 1.50000000000000000000e+03) (19, 1.50000000000000000000e+03) (20, -3.81042251586914062500e+01) (21, 1.50000000000000000000e+03) (22, -1.50000000000000000000e+03) (23, 9.14668579101562500000e+02) (24, 1.36823254394531250000e+03) (25, -2.38602867126464843750e+01) (26, -5.12560081481933593750e+00) (27, 1.50000000000000000000e+03) (28, 1.50000000000000000000e+03) (29, -1.50000000000000000000e+03) (30, -1.50000000000000000000e+03) (31, -5.82588073730468750000e+02) (32, 1.50000000000000000000e+03) (33, -1.38074626922607421875e+01) (34, 1.76170806884765625000e+01) (35, 3.36981353759765625000e+01) (36, 1.51550486683845520020e-01) (37, -4.04289779663085937500e+01) (38, 4.46739379882812500000e+02) (39, 9.54288578033447265625e+00) (40, -1.50000000000000000000e+03) (41, -1.50000000000000000000e+03) (42, 3.88238487243652343750e+01) (43, 1.50000000000000000000e+03) (44, 1.48799194335937500000e+03) (45, -1.34178173828125000000e+03) (46, -1.50000000000000000000e+03) (47, 1.29762231445312500000e+03) (48, 2.48299527168273925781e+00) (49, 1.11630697250366210938e+01) (50, 1.49787805175781250000e+03) (51, -6.30426086425781250000e+02) (52, 4.68536804199218750000e+02) (53, -8.71470153808593750000e+02) (54, 5.64100456237792968750e+00) (55, 1.66271419525146484375e+01) (56, -1.48490917968750000000e+03) (57, 1.50000000000000000000e+03) (58, 4.53711509704589843750e+01) (59, 2.50706768035888671875e+00) (60, 1.01099996566772460938e+01) (61, -1.48398022460937500000e+03) (62, -1.44540002441406250000e+03) (63, -2.73196678161621093750e+01) (64, -6.01839485168457031250e+01) (65, -1.22536592483520507812e+01) (66, 1.50000000000000000000e+03) (67, -1.32541369628906250000e+03) (68, 1.43690710449218750000e+03) (69, 1.31236279296875000000e+03) (70, 3.02032613754272460938e+00) (71, 3.69158660888671875000e+02) (72, 1.28403649902343750000e+03) (73, 1.19610290527343750000e+02) (74, -4.30676269531250000000e+00) (75, 1.84299430847167968750e+01) (76, 1.91550655364990234375e+01) (77, 1.50000000000000000000e+03) (78, 1.09498730468750000000e+03) (79, -4.73970306396484375000e+02) (80, -9.00582275390625000000e+01) (81, 2.73689866065979003906e+00) (82, 1.31083715820312500000e+03) (83, -7.54794494628906250000e+02) (84, -8.07037109375000000000e+02) (85, 6.79334869384765625000e+01) (86, -7.61716064453125000000e+02) (87, 7.70858612060546875000e+01) (88, -3.64272384643554687500e+01) (89, -2.78437080383300781250e+01) (90, -6.83321762084960937500e+00) (91, -1.49956091308593750000e+03) (92, 3.37128997802734375000e+02) (93, 9.75096523761749267578e-01) (94, 2.75640392303466796875e+01) (95, 5.76236820220947265625e+00) (96, 3.28241729736328125000e+02) (97, 4.90533752441406250000e+01) (98, -4.89587158203125000000e+02) (99, 1.27127517700195312500e+02) (100, 1.08954528808593750000e+03) (101, 2.88576412200927734375e+01) (102, -9.98145961761474609375e+00) (103, 9.25426452636718750000e+02) (104, -1.45635299682617187500e+02) (105, 1.65501520037651062012e-01) (106, -4.85440483093261718750e+01) (107, -1.43246972560882568359e+00) (108, 1.16664183139801025391e+00) (109, 8.01694393157958984375e+00) (110, 1.50000000000000000000e+03) (111, 1.54656858444213867188e+01) (112, -3.45284690856933593750e+01) (113, 3.99899871826171875000e+02) (114, -1.34087353515625000000e+03) (115, -1.01896751403808593750e+02) (116, 2.89617347717285156250e+01) (117, 9.86679809570312500000e+02) (118, 2.86420559883117675781e+00) (119, 1.50000000000000000000e+03) (120, 2.51753836870193481445e-01) (121, -5.33972501754760742188e-01) (122, -1.63387756347656250000e+02) (123, -2.82084159851074218750e+01) (124, 1.21573543548583984375e+00) (125, 2.35686645507812500000e+01) (126, 1.50000000000000000000e+03) (127, 5.11403869628906250000e+02) (128, -4.59720703125000000000e+02) (129, 3.74139892578125000000e+02) (130, -1.45554272460937500000e+03) (131, 2.99019195556640625000e+02) (132, 9.56949710845947265625e+00) (133, 6.61569442749023437500e+01) (134, 1.46484420776367187500e+02) (135, 2.17400360107421875000e+00) (136, -9.04294128417968750000e+02) (137, -2.33146076202392578125e+01) (138, 1.40142869949340820312e+00) (139, 8.77220034599304199219e-01) (140, -3.54779219627380371094e+00) (141, -2.52673715353012084961e-01) (142, 1.50000000000000000000e+03) (143, 1.49384082031250000000e+03) (144, 8.09876785278320312500e+01) (145, 3.63290435791015625000e+02) (146, 1.49070764160156250000e+03) (147, 1.03338575363159179688e+01) (148, -1.17548103332519531250e+01) (149, 1.49990795898437500000e+03) (150, 1.51850280761718750000e+02) (151, 1.49945080566406250000e+03) (152, -4.48555419921875000000e+02) (153, 3.46983428955078125000e+02) (154, -1.84337196350097656250e+01) (155, 2.30065261840820312500e+02) (156, 1.50000000000000000000e+03) (157, 9.76969833374023437500e+01) (158, -1.44329128265380859375e+01) (159, -9.16616668701171875000e+01) (160, 2.46637363433837890625e+01) (161, 1.63202743530273437500e+02) (162, 3.02937054634094238281e+00) (163, -1.10411645507812500000e+03) (164, -9.95540161132812500000e+02) (165, 7.22792959213256835938e+00) (166, -1.36087609863281250000e+03) (167, -2.32386749267578125000e+02) (168, 1.50000000000000000000e+03) (169, -1.13027465343475341797e+00) (170, -2.53441381454467773438e+00) (171, 9.32221829891204833984e-01) (172, -1.82749671936035156250e+01) (173, 9.34316825866699218750e+00) (174, -5.84636163711547851562e+00) (175, 8.27547848224639892578e-01) (176, 2.35783353447914123535e-01) (177, 1.79430541992187500000e+01) (178, 8.55683059692382812500e+01) (179, 2.11158609390258789062e+00) (180, -4.17408599853515625000e+02) (181, -6.51080560684204101562e+00) (182, -1.44108343124389648438e+00) (183, 1.38052648925781250000e+03) (184, 1.50340080261230468750e+01) (185, -1.49761682128906250000e+03) (186, -5.06503417968750000000e+02) (187, 3.83925127983093261719e+00) (188, -7.81277036666870117188e+00) (189, -2.35123195648193359375e+01) (190, -4.10480918884277343750e+01) (191, -5.36375083923339843750e+01) (192, 1.57624559402465820312e+01) (193, -2.61728637695312500000e+02) (194, 8.91088989257812500000e+02) (195, 1.06147384643554687500e+01) (196, 2.25255538940429687500e+02) (197, -2.34489727020263671875e+00) (198, 2.96596229076385498047e-01) (199, 2.02670842409133911133e-02) (200, -2.12423607707023620605e-01) (201, -4.39407253265380859375e+00) (202, -7.64289557933807373047e-01) (203, -2.92388061523437500000e+02) (204, -8.03083801269531250000e+01) (205, -1.33208694458007812500e+01) (206, -2.07427287101745605469e+00) (207, -1.35143270492553710938e+01) (208, 1.55634689331054687500e+01) (209, 9.82144958496093750000e+02) (210, 9.19735183715820312500e+01) (211, 1.50000000000000000000e+03) (212, 5.37769927978515625000e+01) (213, 1.88455932617187500000e+02) (214, 2.87913465499877929688e+00) (215, 5.29293596744537353516e-01) (216, 1.98979985713958740234e+00) (217, 7.59052610397338867188e+00) (218, -1.49982666015625000000e+03) (219, -3.70286315679550170898e-01) (220, -4.29962539672851562500e+00) (221, 1.52655512094497680664e-01) (222, -3.84267959594726562500e+01) (223, -1.32555723190307617188e+01) (224, 3.51397895812988281250e+00) (225, 1.25449658203125000000e+03) (226, -1.38895117187500000000e+03) (227, 1.25147021484375000000e+03) (228, 1.49133081054687500000e+03) (229, -1.47867041015625000000e+03) (230, -3.04618255615234375000e+02) (231, 7.71071228027343750000e+02) (232, 4.44251012802124023438e+00) (233, 2.58048939704895019531e+00) (234, -1.23394012451171875000e+01) (235, 1.87580699920654296875e+01) (236, 4.48590844869613647461e-01) (237, 4.43488240242004394531e-01) (238, -7.54197895526885986328e-01) (239, 6.67520751953125000000e+02) (240, 1.49513183593750000000e+03) (241, 1.50000000000000000000e+03) (242, -2.65613403320312500000e+02) (243, 1.43692199707031250000e+03) (244, 1.50000000000000000000e+03) (245, 4.52860931396484375000e+02) (246, 1.50000000000000000000e+03) (247, -7.92455261230468750000e+02) (248, 6.61657348632812500000e+02) (249, 2.27694534301757812500e+02) (250, 3.59698181152343750000e+01) (251, 1.01838305664062500000e+03) (252, 7.86183715820312500000e+02) (253, 1.37432507324218750000e+03) (254, -5.30863464355468750000e+02) (255, 1.45398388671875000000e+03) (256, -3.91520857810974121094e-01) (0, -1.48675899505615234375e+01) (1, 1.77006161212921142578e+00) (2, 1.14039385318756103516e+00) (3, -2.09937548637390136719e+00) (4, -2.68070709228515625000e+02) (5, 5.19344186782836914062e+00) (6, -7.69925598144531250000e+02) (7, 2.52746543884277343750e+01) (8, -6.42872070312500000000e+02) (9, -2.80688476562500000000e+02) (10, -2.42411670684814453125e+01) (11, 1.50000000000000000000e+03) (12, 1.50000000000000000000e+03) (13, -1.50000000000000000000e+03) (14, -2.09330348968505859375e+01) (15, -1.50000000000000000000e+03) (16, -2.86858773231506347656e+00) (17, 1.20114831542968750000e+03) (18, -4.85440683364868164062e+00) (19, -2.57722473144531250000e+02) (20, 5.22337794303894042969e-01) (21, -6.00794887542724609375e+00) (22, 1.50000000000000000000e+03) (23, 5.19075691699981689453e-02) (24, -1.29953706264495849609e+00) (25, -1.20355702936649322510e-01) (26, 3.77541407942771911621e-02) (27, -1.50000000000000000000e+03) (28, -1.50000000000000000000e+03) (29, 1.50000000000000000000e+03) (30, 1.28751074218750000000e+03) (31, -5.08123445510864257812e+00) (32, -4.48801565170288085938e+00) (33, 4.32051062583923339844e-01) (34, -6.41521155834197998047e-01) (35, -5.66091203689575195312e+00) (36, 8.02304565906524658203e-01) (37, 1.10253120422363281250e+02) (38, 2.74325430393218994141e-01) (39, -2.07124978303909301758e-01) (40, 1.83231723308563232422e+00) (41, 4.09291038513183593750e+01) (42, -1.19009077548980712891e+00) (43, -7.82248497009277343750e-01) (44, -1.50000000000000000000e+03) (45, -2.14836359024047851562e-01) (46, 2.75650835037231445312e+00) (47, -3.93295288085937500000e+02) (48, 1.04419159889221191406e+00) (49, -4.64884567260742187500e+00) (50, 3.07331061363220214844e+00) (51, 1.60883350372314453125e+01) (52, 2.65202140808105468750e+00) (53, 6.20574951171875000000e+00) (54, 2.16337770223617553711e-01) (55, 1.16146230697631835938e+00) (56, 4.15351200103759765625e+00) (57, -3.21085479736328125000e+02) (58, 3.09173047542572021484e-01) (59, -4.05803740024566650391e-01) (60, -2.47242164611816406250e+00) (61, 3.13936492919921875000e+02) (62, 1.13230743408203125000e+01) (63, 1.15985364913940429688e+01) (64, -1.55004568099975585938e+01) (65, 2.01163697242736816406e+00) (66, -4.21442222595214843750e+00) (67, -2.11137473583221435547e-01) (68, -1.84385147094726562500e+01) (69, -1.13127505779266357422e+00) (70, 9.16549742221832275391e-01) (71, -2.19662442803382873535e-01) (72, 1.51010498404502868652e-01) (73, 5.34446358680725097656e-01) (74, 5.32533526420593261719e-01) (75, 4.45059210062026977539e-01) (76, -2.57071781158447265625e+00) (77, -7.03796005249023437500e+01) (78, -5.83377027511596679688e+00) (79, 1.51002292633056640625e+01) (80, 3.42358894348144531250e+01) (81, 7.65756070613861083984e-01) (82, -1.59284853935241699219e+00) (83, 1.83540642261505126953e+00) (84, 4.73006172180175781250e+01) (85, 4.96526271104812622070e-01) (86, 6.45755589008331298828e-01) (87, 2.94517036527395248413e-02) (88, 3.30142676830291748047e-01) (89, -1.97457373142242431641e-01) (90, -4.38611030578613281250e+00) (91, 4.29185181856155395508e-01) (92, 2.66714763641357421875e+00) (93, 2.70322203636169433594e-01) (94, -3.07010293006896972656e+00) (95, -1.18348133563995361328e+00) (96, 2.46211814880371093750e+00) (97, 8.44892406463623046875e+00) (98, 3.47564637660980224609e-01) (99, 3.29482465982437133789e-01) (100, 1.20744943618774414062e+00) (101, -5.95219345092773437500e+01) (102, 1.13176810741424560547e+00) (103, 3.43189120292663574219e-01) (104, 9.60107803344726562500e-01) (105, -7.97291547060012817383e-02) (106, 3.20672780275344848633e-01) (107, 8.95488798618316650391e-01) (108, 1.40531349182128906250e+00) (109, -4.41475123167037963867e-01) (110, -7.87762451171875000000e+02) (111, -7.48406052589416503906e-01) (112, 7.47402071952819824219e-01) (113, -2.43986415863037109375e+01) (114, 4.42345237731933593750e+00) (115, 1.32573187351226806641e+00) (116, -2.35301512293517589569e-03) (117, -2.93487014770507812500e+01) (118, 5.94959735870361328125e-01) (119, -1.84036693572998046875e+01) (120, 2.06494331359863281250e+00) (121, 1.69514739513397216797e+00) (122, 1.05061050415039062500e+02) (123, 2.87836494445800781250e+01) (124, 4.79314297437667846680e-01) (125, 1.30819737911224365234e+00) (126, -5.49681892395019531250e+01) (127, -7.53384351730346679688e+00) (128, -6.39429807662963867188e+00) (129, -1.91983371973037719727e-01) (130, 2.76910245418548583984e-01) (131, -8.45624599605798721313e-03) (132, -5.27973079681396484375e+00) (133, 3.46739745140075683594e+00) (134, -1.18470311164855957031e+00) (135, 2.78142869472503662109e-01) (136, 5.15116989612579345703e-01) (137, 1.28503060340881347656e+00) (138, 4.73325371742248535156e-01) (139, 6.26746082305908203125e+00) (140, 5.90509712696075439453e-01) (141, 4.89128470420837402344e-01) (142, -2.77151837944984436035e-02) (143, 7.13999748229980468750e+00) (144, -2.30454883575439453125e+01) (145, 6.46016895771026611328e-01) (146, 4.90325570106506347656e-01) (147, 2.43454384803771972656e+00) (148, -2.51977157592773437500e+01) (149, -8.67757263183593750000e+01) (150, -5.73384141921997070312e+00) (151, -4.98890037536621093750e+01) (152, 1.62911281585693359375e+01) (153, -3.02360129356384277344e+00) (154, 5.96637070178985595703e-01) (155, 4.50729459524154663086e-01) (156, -2.47168707847595214844e+00) (157, 4.51334595680236816406e-01) (158, 8.19009971618652343750e+00) (159, 4.41246398925781250000e+02) (160, 1.58887970447540283203e+00) (161, -4.58253651857376098633e-01) (162, -3.94557029008865356445e-01) (163, 1.29356861114501953125e+00) (164, -1.43460988998413085938e+00) (165, -1.31202149391174316406e+00) (166, 1.38355231285095214844e+00) (167, -6.71150013804435729980e-02) (168, -1.50000000000000000000e+03) (169, -4.12783145904541015625e+00) (170, 2.01533675193786621094e-01) (171, -5.97766399383544921875e+00) (172, -1.02775871753692626953e+00) (173, 1.03652462363243103027e-01) (174, 8.32145750522613525391e-01) (175, -8.73060405254364013672e-01) (176, 4.61652100086212158203e-01) (177, -9.68938636779785156250e+00) (178, -2.83173359930515289307e-02) (179, 2.11671575903892517090e-01) (180, 1.35033071041107177734e-01) (181, 7.08004176616668701172e-01) (182, 6.38900041580200195312e-01) (183, 4.06193256378173828125e-01) (184, 1.05244863033294677734e+00) (185, 2.61903057098388671875e+01) (186, 8.79973411560058593750e-01) (187, 5.08426465094089508057e-02) (188, 2.16448802947998046875e+01) (189, 1.67602062225341796875e+00) (190, 1.31743848323822021484e+00) (191, 9.85350131988525390625e-01) (192, 1.52150022983551025391e+00) (193, -7.06864118576049804688e+00) (194, -1.52375698089599609375e+00) (195, -8.97708952426910400391e-01) (196, -8.36830825805664062500e+01) (197, 1.49180641174316406250e+01) (198, 2.35755220055580139160e-01) (199, 4.89956617355346679688e-01) (200, 1.02941572666168212891e+00) (201, 2.96292275190353393555e-01) (202, 1.48912370204925537109e+00) (203, 8.74374866485595703125e+00) (204, -1.63674369454383850098e-01) (205, 1.00494198501110076904e-01) (206, 5.97961485385894775391e-01) (207, 3.26629787683486938477e-01) (208, -7.87572765350341796875e+00) (209, -5.15364875793457031250e+01) (210, 2.16866159439086914062e+00) (211, -3.74964981079101562500e+01) (212, 2.26547503471374511719e+00) (213, 3.99879783391952514648e-01) (214, -1.87092316150665283203e+00) (215, 1.66749358177185058594e-01) (216, -2.52601742744445800781e-01) (217, 2.69305253028869628906e+00) (218, 6.94548666477203369141e-01) (219, 7.10448801517486572266e-01) (220, 8.34575474262237548828e-01) (221, 8.50113451480865478516e-01) (222, 2.39691233634948730469e+00) (223, 1.62674350738525390625e+01) (224, 2.84659252166748046875e+01) (225, -4.90864181518554687500e+01) (226, 1.46551284790039062500e+01) (227, -3.63355660438537597656e+00) (228, -6.46405944824218750000e+02) (229, -4.46017265319824218750e+00) (230, 3.45404148101806640625e+00) (231, -1.68383657932281494141e+00) (232, 5.86861491203308105469e-01) (233, 4.14243340492248535156e-01) (234, 5.97613453865051269531e-01) (235, 4.27273482084274291992e-01) (236, 7.54359245300292968750e-01) (237, 1.19492948055267333984e+00) (238, 4.79796499013900756836e-01) (239, 4.46622991561889648438e+00) (240, -8.82701814174652099609e-01) (241, -1.69321640014648437500e+02) (242, -1.76890742778778076172e+00) (243, 1.09331890940666198730e-01) (244, -4.94923204183578491211e-01) (245, 1.42577102661132812500e+02) (246, -3.60990095138549804688e+00) (247, 7.43901312351226806641e-01) (248, -1.17721557617187500000e+00) (249, 4.33335393667221069336e-01) (250, -5.38271605968475341797e-01) (251, -7.81950414180755615234e-01) (252, 8.14156293869018554688e-01) (253, -1.36131322383880615234e+00) (254, -7.38978052139282226562e+00) (255, -2.31181945800781250000e+02) (256, 4.25903528928756713867e-01) (0, -1.50000000000000000000e+03) (1, -3.56702636718750000000e+02) (2, -5.08596649169921875000e+02) (3, 1.14698095703125000000e+03) (4, 1.25971997070312500000e+03) (5, 1.33097338867187500000e+03) (6, 1.25788928222656250000e+03) (7, 1.49761425781250000000e+03) (8, -1.32518347167968750000e+03) (9, 1.50000000000000000000e+03) (10, 1.50000000000000000000e+03) (11, 1.37703149414062500000e+03) (12, 1.37703149414062500000e+03) (13, -1.34393432617187500000e+02) (14, 6.59519958496093750000e+02) (15, 1.50000000000000000000e+03) (16, 1.50000000000000000000e+03) (17, -7.31037673950195312500e+01) (18, 1.50000000000000000000e+03) (19, -1.49755285644531250000e+03) (20, -1.43829797363281250000e+03) (21, 2.99723796844482421875e+01) (22, -1.32433642578125000000e+03) (23, -1.45039416503906250000e+03) (24, -1.06972789764404296875e+01) (25, -3.07989090681076049805e-01) (26, 8.80355238914489746094e-01) (27, 3.99836853027343750000e+02) (28, 1.50000000000000000000e+03) (29, 7.81682556152343750000e+02) (30, -4.84740692138671875000e+02) (31, -1.26911816406250000000e+03) (32, 1.12260644531250000000e+03) (33, -2.38488063812255859375e+01) (34, 1.08858703613281250000e+03) (35, 1.41026489257812500000e+03) (36, -6.54150533676147460938e+00) (37, -1.64061985015869140625e+01) (38, -4.28591079711914062500e+01) (39, 4.17710185050964355469e-01) (40, 1.49978881835937500000e+03) (41, -1.49849536132812500000e+03) (42, -1.48857568359375000000e+03) (43, -1.30341760253906250000e+03) (44, 1.27433227539062500000e+03) (45, -1.37840002441406250000e+03) (46, 1.50000000000000000000e+03) (47, -4.24188385009765625000e+02) (48, -2.46275939941406250000e+02) (49, -1.45445471191406250000e+03) (50, 1.49960693359375000000e+03) (51, 1.42793005371093750000e+03) (52, -1.35858239746093750000e+03) (53, 1.49849816894531250000e+03) (54, -1.62201194763183593750e+01) (55, -9.20589447021484375000e+01) (56, -1.50000000000000000000e+03) (57, 7.41322338581085205078e-01) (58, 2.84931361675262451172e-01) (59, -7.22414062500000000000e+02) (60, -4.66615997314453125000e+02) (61, 1.31251477050781250000e+03) (62, 1.48857727050781250000e+03) (63, 1.49989489746093750000e+03) (64, -7.77169555664062500000e+02) (65, 1.13889624023437500000e+03) (66, 6.76763732910156250000e+02) (67, 6.17660217285156250000e+02) (68, -3.20520830154418945312e+00) (69, 1.47078039550781250000e+03) (70, 1.18738952636718750000e+03) (71, -7.21437805175781250000e+02) (72, -8.08308243751525878906e-01) (73, 8.83633792400360107422e-01) (74, 4.64064478874206542969e-01) (75, -1.42831298828125000000e+03) (76, -1.41615734863281250000e+03) (77, 1.93484745025634765625e+01) (78, 1.79432189941406250000e+02) (79, -8.71902648925781250000e+02) (80, -1.32776953125000000000e+03) (81, 1.50000000000000000000e+03) (82, 8.28379150390625000000e+02) (83, 2.27241531372070312500e+02) (84, -1.96542434692382812500e+02) (85, 1.49989611816406250000e+03) (86, -9.87521484375000000000e+02) (87, -6.85697937011718750000e+02) (88, 7.90132999420166015625e-01) (89, 6.02872014045715332031e-01) (90, 2.19883422851562500000e+02) (91, -1.42135906219482421875e+00) (92, 1.49949536132812500000e+03) (93, -1.37658312988281250000e+03) (94, -1.14820361328125000000e+03) (95, 1.48865930175781250000e+03) (96, 1.48618420410156250000e+03) (97, 1.46207250976562500000e+03) (98, 4.66056900024414062500e+01) (99, -1.98753285408020019531e+00) (100, 5.90446186065673828125e+00) (101, 8.68406486511230468750e+00) (102, -4.29378089904785156250e+01) (103, -6.64049863815307617188e+00) (104, -2.85595226287841796875e+01) (105, 7.63233337402343750000e+01) (106, -3.96130442619323730469e-01) (107, -1.12047901153564453125e+01) (108, -6.89034912109375000000e+02) (109, -9.17615539550781250000e+02) (110, -9.10832275390625000000e+02) (111, -8.14692077636718750000e+02) (112, 1.48027087402343750000e+03) (113, 1.46634130859375000000e+03) (114, 1.49039770507812500000e+03) (115, -4.49488699436187744141e-01) (116, -4.74998855590820312500e+01) (117, 8.24842224121093750000e+02) (118, 4.77917253971099853516e-01) (119, 1.49959619140625000000e+03) (120, 7.93154430389404296875e+00) (121, -4.99188003540039062500e+01) (122, -6.84556030273437500000e+02) (123, 3.82258911132812500000e+02) (124, -6.94484100341796875000e+01) (125, 2.93624114990234375000e+00) (126, 9.34873867034912109375e+00) (127, -1.00002098083496093750e+02) (128, -5.32975807189941406250e+01) (129, 1.50000000000000000000e+03) (130, 7.13177490234375000000e+01) (131, -5.92222900390625000000e+02) (132, 1.13957092285156250000e+03) (133, -7.98243591308593750000e+02) (134, 8.03310928344726562500e+01) (135, -2.62888164520263671875e+01) (136, -2.02084255218505859375e+01) (137, 1.97847229003906250000e+02) (138, 1.62789607048034667969e+00) (139, 1.49999279785156250000e+03) (140, 2.34207733154296875000e+02) (141, -2.29415760040283203125e+01) (142, 6.40993041992187500000e+02) (143, -1.49152001953125000000e+03) (144, 1.49963525390625000000e+03) (145, -6.07291259765625000000e+02) (146, 4.64043609619140625000e+02) (147, 1.50000000000000000000e+03) (148, 1.50000000000000000000e+03) (149, 1.49801660156250000000e+03) (150, -3.40317138671875000000e+02) (151, 2.97646331787109375000e+02) (152, -1.50000000000000000000e+03) (153, 5.73463478088378906250e+01) (154, 1.49934570312500000000e+03) (155, 1.09149426269531250000e+03) (156, 2.43060653686523437500e+02) (157, -3.36680412292480468750e+01) (158, -1.87677032470703125000e+02) (159, -5.89593566894531250000e+02) (160, -1.65752746582031250000e+02) (161, 8.10833644866943359375e+00) (162, -2.35655260086059570312e+00) (163, 1.49922045898437500000e+03) (164, 1.49962084960937500000e+03) (165, 1.50000000000000000000e+03) (166, 1.46545153808593750000e+03) (167, 2.78899669647216796875e+01) (168, 1.13046588897705078125e+01) (169, -5.01941871643066406250e+01) (170, -4.08605133056640625000e+02) (171, -1.47885269165039062500e+02) (172, -1.35334582519531250000e+03) (173, 1.46067504882812500000e+03) (174, -8.90120727539062500000e+02) (175, -2.69221591949462890625e+01) (176, 1.31188678741455078125e+00) (177, 1.49900732421875000000e+03) (178, 1.25904296875000000000e+03) (179, 1.49758166503906250000e+03) (180, 4.59413814544677734375e+00) (181, 9.24608001708984375000e+01) (182, 7.86646783351898193359e-01) (183, 1.48870886230468750000e+03) (184, 4.35347328186035156250e+01) (185, -2.91584521532058715820e-01) (186, 5.84288418292999267578e-01) (187, -4.26022863388061523438e+00) (188, -1.26726051330566406250e+02) (189, -2.73219032287597656250e+01) (190, -1.59706893920898437500e+02) (191, 4.76279724121093750000e+02) (192, 1.07466381835937500000e+03) (193, -1.28270764160156250000e+03) (194, -2.94824859619140625000e+02) (195, -1.47778845214843750000e+03) (196, 8.35721862792968750000e+02) (197, 1.49994750976562500000e+03) (198, -1.04520166015625000000e+03) (199, -1.49990234375000000000e+03) (200, 1.47470521926879882812e+00) (201, 1.27935729980468750000e+03) (202, 1.16903734207153320312e+01) (203, -2.00656166076660156250e+01) (204, 2.77343988418579101562e-02) (205, -3.85836672782897949219e+00) (206, 6.47606754302978515625e+00) (207, 4.74457969665527343750e+01) (208, 1.50000000000000000000e+03) (209, 3.10350952148437500000e+02) (210, -1.27708520507812500000e+03) (211, -6.95648071289062500000e+02) (212, -1.50000000000000000000e+03) (213, 4.95810165405273437500e+01) (214, 4.84654960632324218750e+01) (215, -6.57042922973632812500e+01) (216, -3.26826744079589843750e+01) (217, 1.50000000000000000000e+03) (218, 5.41497528553009033203e-01) (219, 9.42248046398162841797e-01) (220, 6.56518518924713134766e-01) (221, 8.51473450660705566406e-01) (222, -3.73434829711914062500e+00) (223, 8.11667633056640625000e+00) (224, 1.36607360839843750000e+03) (225, 6.31030944824218750000e+02) (226, 8.93366821289062500000e+02) (227, 9.57089965820312500000e+02) (228, 1.39779345703125000000e+03) (229, -1.50000000000000000000e+03) (230, -1.47500000000000000000e+03) (231, -1.25294445800781250000e+03) (232, 1.23247290039062500000e+03) (233, 1.40136337280273437500e+01) (234, -1.36343798828125000000e+03) (235, -1.23353042602539062500e+01) (236, 2.55211663246154785156e+00) (237, 9.43404083251953125000e+01) (238, 1.60332345962524414062e+00) (239, 1.47648889160156250000e+03) (240, -7.77908508300781250000e+02) (241, 8.08282089233398437500e+00) (242, -1.07174121093750000000e+03) (243, 1.46976916503906250000e+03) (244, 1.50000000000000000000e+03) (245, -4.42999237060546875000e+02) (246, 7.00335632324218750000e+02) (247, -8.49000061035156250000e+02) (248, 1.01576123046875000000e+03) (249, 1.19342016601562500000e+03) (250, 1.47945947265625000000e+03) (251, 1.49763574218750000000e+03) (252, 1.49980114746093750000e+03) (253, 2.51879241943359375000e+02) (254, 1.67189758300781250000e+02) (255, 1.40447998046875000000e+03) (256, 6.94735124707221984863e-02) (0, 5.21847534179687500000e+01) (1, 9.50220346450805664062e-01) (2, 6.08886528015136718750e+00) (3, 3.53011679649353027344e+00) (4, -1.42752868652343750000e+02) (5, 4.14130859375000000000e+02) (6, 7.16926208496093750000e+02) (7, 3.64956016540527343750e+01) (8, 5.78211547851562500000e+02) (9, 1.48116491699218750000e+03) (10, 1.47893933105468750000e+03) (11, 1.50000000000000000000e+03) (12, 1.50000000000000000000e+03) (13, 8.73562072753906250000e+02) (14, -6.91119140625000000000e+02) (15, 2.77865356445312500000e+02) (16, 9.66715526580810546875e+00) (17, 1.14572215080261230469e+00) (18, 9.32568664550781250000e+01) (19, 1.01289581298828125000e+02) (20, 1.66710603237152099609e+00) (21, 3.55129361152648925781e+00) (22, -1.05580004882812500000e+03) (23, -4.40690368652343750000e+02) (24, 1.67280888557434082031e+00) (25, -1.31387755274772644043e-01) (26, 2.74297595024108886719e-01) (27, 1.31100976562500000000e+03) (28, 1.29080004882812500000e+03) (29, 1.44023889160156250000e+03) (30, 1.42850122070312500000e+03) (31, 3.41613891601562500000e+02) (32, 1.04263769531250000000e+03) (33, 6.53650104999542236328e-01) (34, 2.94829006195068359375e+01) (35, -1.63786423206329345703e+00) (36, -1.32161825895309448242e-01) (37, 5.47130048274993896484e-01) (38, 4.33117568492889404297e-01) (39, 7.19053447246551513672e-01) (40, 1.40128481388092041016e+00) (41, -1.40652001953125000000e+03) (42, -2.27464427947998046875e+01) (43, 5.30376220703125000000e+02) (44, 1.47120007324218750000e+03) (45, 8.40201568603515625000e+00) (46, 1.69526168823242187500e+02) (47, -2.79719665527343750000e+02) (48, 8.05397093296051025391e-01) (49, 8.59583497047424316406e-01) (50, 2.65296115875244140625e+01) (51, 3.21579885482788085938e+00) (52, -2.16696273803710937500e+02) (53, -1.38717293739318847656e+00) (54, 9.19425659179687500000e+02) (55, 3.97325401306152343750e+01) (56, 6.74001932144165039062e-01) (57, -9.48338745117187500000e+02) (58, -2.92667329311370849609e-01) (59, 4.10842776298522949219e-01) (60, 9.56149475097656250000e+02) (61, 1.06608337402343750000e+03) (62, 4.79826660156250000000e+02) (63, -5.91391563415527343750e+01) (64, -1.95855636596679687500e+02) (65, 6.89428091049194335938e-01) (66, 8.31938400268554687500e+01) (67, -1.29694604492187500000e+03) (68, -1.31866394042968750000e+03) (69, -2.73787796497344970703e-01) (70, 2.72100019454956054688e+00) (71, 3.59490483999252319336e-01) (72, 1.96239367127418518066e-01) (73, 3.92647922039031982422e-01) (74, 5.46397864818572998047e-01) (75, 9.82451248168945312500e+00) (76, 1.03565295410156250000e+03) (77, -6.13304382324218750000e+02) (78, 2.66945641487836837769e-02) (79, 8.56271076202392578125e+00) (80, -2.03812866210937500000e+02) (81, -2.56375575065612792969e+00) (82, -2.30149239301681518555e-01) (83, -1.03608286380767822266e+00) (84, 1.35943889617919921875e+00) (85, -1.30599117279052734375e+01) (86, 1.03231859207153320312e+00) (87, 1.88662600517272949219e+00) (88, 6.48299694061279296875e-01) (89, -2.71674394607543945312e-01) (90, 1.57300472259521484375e+00) (91, 7.73675799369812011719e-01) (92, -2.25026718139648437500e+02) (93, 8.85943949222564697266e-01) (94, 6.31634950637817382812e+00) (95, 2.11238231658935546875e+01) (96, -2.71405364990234375000e+02) (97, 3.09824943542480468750e-01) (98, 1.42034542560577392578e+00) (99, -1.26113256835937500000e+03) (100, -1.43241786956787109375e+00) (101, 1.35086447000503540039e-01) (102, 1.98007094860076904297e+00) (103, -1.21794402599334716797e+00) (104, 1.64995403289794921875e+01) (105, 1.14751681685447692871e-01) (106, -4.30130094289779663086e-01) (107, 3.39163923263549804688e+00) (108, 7.61814057826995849609e-01) (109, 1.27374434471130371094e+00) (110, -1.17192517089843750000e+03) (111, 7.16078400611877441406e-01) (112, 7.96002721786499023438e+00) (113, -1.54574677348136901855e-01) (114, 1.59800148010253906250e+00) (115, 2.47594356536865234375e+00) (116, -3.95591857910156250000e+02) (117, 1.90450501441955566406e+00) (118, 1.08569746017456054688e+01) (119, 6.57445573806762695312e+00) (120, -8.26055603027343750000e+01) (121, -9.12008523941040039062e-01) (122, -3.07725787162780761719e+00) (123, 1.19688005447387695312e+01) (124, 4.09299659729003906250e+00) (125, 3.12798166275024414062e+00) (126, -2.53876724243164062500e+02) (127, -2.79915161132812500000e+02) (128, 1.52620458602905273438e+00) (129, 7.82463073730468750000e+01) (130, -1.68558120727539062500e+00) (131, -3.56710418701171875000e+02) (132, -4.66249122619628906250e+01) (133, 2.53692269325256347656e-01) (134, 2.14773578643798828125e+01) (135, 1.35628151893615722656e+00) (136, 3.33737182617187500000e+00) (137, 1.80622681975364685059e-01) (138, -8.75268876552581787109e-01) (139, -4.79746913909912109375e+00) (140, 4.17551606893539428711e-01) (141, 7.00856924057006835938e-01) (142, -1.15716800689697265625e+01) (143, -2.48119735717773437500e+02) (144, 2.71248996257781982422e-01) (145, -3.60009729862213134766e-01) (146, -1.81301994323730468750e+01) (147, -2.43339080810546875000e+01) (148, 1.08623485565185546875e+01) (149, 1.08813034057617187500e+02) (150, 5.49376220703125000000e+02) (151, -9.93330230712890625000e+01) (152, 2.01294636726379394531e+00) (153, 2.01162780761718750000e+02) (154, 2.83375948667526245117e-01) (155, 5.20079016685485839844e-01) (156, -1.61251878738403320312e+00) (157, 1.44453287124633789062e+00) (158, 1.57966268062591552734e+00) (159, -3.43202292919158935547e-01) (160, 2.99286007881164550781e+00) (161, 6.24791979789733886719e-01) (162, 4.59303259849548339844e-01) (163, -1.28840959072113037109e+00) (164, 7.89735496044158935547e-01) (165, 1.09709887695312500000e+03) (166, 1.73770725727081298828e+00) (167, -1.00244775414466857910e-01) (168, -1.80646469116210937500e+02) (169, 1.31361827254295349121e-01) (170, 8.08893561363220214844e-01) (171, -4.84300765991210937500e+01) (172, 1.10186910629272460938e+00) (173, 1.67245984077453613281e+00) (174, 3.57091979980468750000e+01) (175, 1.21899139881134033203e+00) (176, 9.64880809187889099121e-02) (177, 8.12990784645080566406e-01) (178, -2.03219894409179687500e+02) (179, -1.74631965160369873047e+00) (180, 5.95494806766510009766e-01) (181, -4.59304183721542358398e-01) (182, 4.12000834941864013672e-01) (183, -1.05473721027374267578e+00) (184, -2.38365411758422851562e+00) (185, 4.19239014387130737305e-01) (186, -2.12675070762634277344e+00) (187, -2.52008891105651855469e+00) (188, -2.49780540466308593750e+01) (189, -1.43901318311691284180e-01) (190, -4.18776845932006835938e+00) (191, 1.12227392196655273438e+00) (192, 1.99636101722717285156e-01) (193, 3.01053667068481445312e+00) (194, 8.04255771636962890625e+00) (195, -1.07242183685302734375e+01) (196, -1.91258335113525390625e+01) (197, 1.05306625366210937500e+00) (198, 5.89021825790405273438e+00) (199, 4.28014904260635375977e-01) (200, -5.30315265059471130371e-02) (201, -4.38577592372894287109e-01) (202, 5.55906593799591064453e-02) (203, 1.29979843139648437500e+02) (204, 1.67973607778549194336e-01) (205, 1.53032255172729492188e+01) (206, 9.40704107284545898438e-01) (207, 5.45969605445861816406e-01) (208, -7.19198684692382812500e+01) (209, 1.94343154907226562500e+02) (210, 2.08052291870117187500e+01) (211, 1.26053886413574218750e+01) (212, 8.99326205253601074219e-01) (213, 9.92933845520019531250e+00) (214, 5.76181125640869140625e+00) (215, 9.81449663639068603516e-01) (216, 1.77419149875640869141e+00) (217, -2.81771421432495117188e+00) (218, 1.32976025390625000000e+03) (219, 5.18795430660247802734e-01) (220, 7.14137434959411621094e-01) (221, 6.75377905368804931641e-01) (222, 1.05810952186584472656e+00) (223, -1.41645848751068115234e+00) (224, 8.93728673458099365234e-01) (225, 4.21370010375976562500e+01) (226, 5.92171813964843750000e+02) (227, 2.26563525199890136719e+00) (228, -1.00021112060546875000e+03) (229, 1.11425262451171875000e+02) (230, 1.24554199218750000000e+02) (231, 7.91209578514099121094e-01) (232, 1.19192220270633697510e-01) (233, -1.79182410240173339844e-01) (234, 1.12500298023223876953e+00) (235, -4.78823089599609375000e+01) (236, 2.28963792324066162109e-01) (237, 6.16368710994720458984e-01) (238, 4.74106729030609130859e-01) (239, -3.85961145162582397461e-01) (240, 8.91248607635498046875e+00) (241, 7.28189527988433837891e-01) (242, 1.38792934417724609375e+01) (243, -2.44838356971740722656e+00) (244, 1.49060876464843750000e+03) (245, 1.41817077636718750000e+03) (246, -1.04080004882812500000e+03) (247, -1.50000000000000000000e+03) (248, -3.17778854370117187500e+01) (249, -2.33500435948371887207e-01) (250, 1.33961367607116699219e+00) (251, 9.35021281242370605469e-01) (252, 2.06478767395019531250e+01) (253, 6.56504440307617187500e+01) (254, -1.11328210449218750000e+03) (255, 1.37678662109375000000e+03) (256, 8.04597377777099609375e-01) (0, -5.86141128540039062500e+01) (1, 3.58528686523437500000e+02) (2, -4.66049194335937500000e+02) (3, -1.14079992675781250000e+03) (4, -1.27984985351562500000e+03) (5, -2.57346099853515625000e+02) (6, -1.39168432617187500000e+03) (7, 1.06679296875000000000e+03) (8, -1.23519421386718750000e+03) (9, -1.49031762695312500000e+03) (10, -1.39451159667968750000e+03) (11, 1.28292028808593750000e+03) (12, 1.28292028808593750000e+03) (13, -1.66961822509765625000e+02) (14, 3.39066047668457031250e+01) (15, -8.97948181152343750000e+02) (16, -1.34929309082031250000e+03) (17, 3.07496500015258789062e+00) (18, 1.79542350769042968750e+00) (19, 1.50000000000000000000e+03) (20, 1.49433203125000000000e+03) (21, 1.21993291378021240234e+00) (22, 9.03616821289062500000e+02) (23, 1.04152990722656250000e+03) (24, 1.39473083496093750000e+03) (25, -4.85255956649780273438e+00) (26, -2.24758529663085937500e+01) (27, 1.40144677734375000000e+03) (28, 1.50000000000000000000e+03) (29, 8.65318359375000000000e+02) (30, -6.81897033691406250000e+02) (31, 8.31141845703125000000e+02) (32, 8.87400512695312500000e+02) (33, -5.54134845733642578125e-01) (34, -2.19011449813842773438e+00) (35, 3.03199829101562500000e+02) (36, -6.34879827499389648438e-01) (37, 1.49170153808593750000e+03) (38, 1.00412910461425781250e+02) (39, -2.16541996002197265625e+01) (40, 3.91354370117187500000e+02) (41, -1.50000000000000000000e+03) (42, -1.45398132324218750000e+03) (43, 1.49561975097656250000e+03) (44, 1.50000000000000000000e+03) (45, 1.36274890136718750000e+03) (46, 8.68549823760986328125e-01) (47, -1.43899414062500000000e+03) (48, -1.31511383056640625000e+02) (49, 9.77577438354492187500e+01) (50, -8.28213806152343750000e+02) (51, -2.51090942382812500000e+02) (52, 4.97516815185546875000e+02) (53, 1.83013946533203125000e+02) (54, -3.97461509704589843750e+01) (55, -5.16007232666015625000e+00) (56, -1.12207629394531250000e+03) (57, 1.46138000488281250000e+02) (58, 3.45153355598449707031e+00) (59, -2.44124622344970703125e+01) (60, 2.64593566894531250000e+02) (61, 5.82138328552246093750e+01) (62, -1.32102124023437500000e+03) (63, -5.38767639160156250000e+02) (64, -2.33349680900573730469e+00) (65, 3.49452704191207885742e-01) (66, -1.36965112304687500000e+03) (67, 1.74124237060546875000e+02) (68, 7.20930419921875000000e+02) (69, -1.04071006774902343750e+01) (70, -2.45249691009521484375e+01) (71, -2.58777847290039062500e+01) (72, 1.49498242187500000000e+03) (73, 6.27204418182373046875e-01) (74, 6.10528802871704101562e+00) (75, 3.89781165122985839844e+00) (76, 9.65803638100624084473e-02) (77, -1.43014404296875000000e+03) (78, -8.17531066894531250000e+02) (79, 2.25028061866760253906e+00) (80, 1.14963525390625000000e+03) (81, -1.72377548217773437500e+02) (82, -7.85111328125000000000e+02) (83, 1.21965833008289337158e-01) (84, 9.33555847167968750000e+02) (85, -1.01196051025390625000e+03) (86, -2.44014191627502441406e+00) (87, 6.04367375373840332031e-01) (88, -3.88091545104980468750e+01) (89, 2.76079952716827392578e-01) (90, -1.03558823466300964355e-01) (91, 4.94521570205688476562e+00) (92, -1.49101477050781250000e+03) (93, 7.63092994689941406250e+00) (94, 6.21139526367187500000e+02) (95, -1.20911633968353271484e+00) (96, -2.13908447265625000000e+02) (97, -6.98098388671875000000e+02) (98, -9.85966415405273437500e+01) (99, -7.45125915527343750000e+02) (100, 7.47240018844604492188e+00) (101, -1.47314672851562500000e+03) (102, 1.49986853027343750000e+03) (103, -2.88300514221191406250e+01) (104, -9.89410400390625000000e+00) (105, -1.06155598163604736328e+00) (106, -2.45395332574844360352e-01) (107, 1.49986987304687500000e+03) (108, 2.15258941650390625000e+01) (109, -2.02678375244140625000e+02) (110, -1.71798477172851562500e+01) (111, -7.04205322265625000000e+01) (112, -2.70464115142822265625e+01) (113, -1.45855346679687500000e+03) (114, -1.96230328083038330078e+00) (115, -3.38462305068969726562e+00) (116, -1.82958999633789062500e+02) (117, -1.31326656341552734375e+01) (118, -1.92427054047584533691e-01) (119, -1.14194402694702148438e+01) (120, 5.12135565280914306641e-01) (121, -4.98043853759765625000e+02) (122, 7.12413549423217773438e+00) (123, -8.84629338979721069336e-02) (124, 1.32106338500976562500e+02) (125, -1.00995612144470214844e+00) (126, -4.96102094650268554688e+00) (127, -1.29136049747467041016e+00) (128, -1.44796411132812500000e+03) (129, -9.00927429199218750000e+02) (130, -1.25025781250000000000e+03) (131, -7.58275680541992187500e+01) (132, -1.47830029296875000000e+03) (133, -9.28143554687500000000e+02) (134, -1.35228454589843750000e+03) (135, -1.49402844238281250000e+03) (136, 1.69072418212890625000e+01) (137, 3.56509774923324584961e-01) (138, 2.80929535627365112305e-01) (139, 2.38452560424804687500e+02) (140, 8.35059127807617187500e+01) (141, -5.21390795707702636719e-01) (142, -4.10706806182861328125e+00) (143, -1.50000000000000000000e+03) (144, -7.88862548828125000000e+02) (145, -9.96508178710937500000e+02) (146, -6.23801208496093750000e+02) (147, -1.46460327148437500000e+03) (148, -4.95100860595703125000e+02) (149, -1.49457397460937500000e+03) (150, -1.13861425781250000000e+03) (151, -1.18209960937500000000e+03) (152, -1.17471866607666015625e+01) (153, -1.49766394042968750000e+03) (154, -4.67742156982421875000e+00) (155, 4.22487688064575195312e+00) (156, 5.86634979248046875000e+01) (157, 3.40238481760025024414e-01) (158, -7.39809722900390625000e+01) (159, -1.39587097167968750000e+02) (160, 1.49676660156250000000e+03) (161, -9.75389175415039062500e+01) (162, -1.22778511047363281250e+00) (163, -1.43682336425781250000e+03) (164, -1.49565649414062500000e+03) (165, -1.48985534667968750000e+03) (166, -1.39165710449218750000e+03) (167, -7.44681644439697265625e+00) (168, -1.48473266601562500000e+03) (169, -1.34278649902343750000e+03) (170, -5.46131515502929687500e+01) (171, 1.46817255020141601562e+01) (172, -6.34008750915527343750e+01) (173, -1.77740005493164062500e+02) (174, 4.34155035018920898438e+00) (175, -1.46603125000000000000e+03) (176, 6.77379429340362548828e-01) (177, -1.33686877441406250000e+03) (178, 2.60175247192382812500e+01) (179, 1.90895378589630126953e-01) (180, -1.43164477539062500000e+03) (181, -5.60451686382293701172e-01) (182, 8.86190986633300781250e+00) (183, -1.18957250976562500000e+03) (184, -1.53138322830200195312e+01) (185, 7.96684324741363525391e-01) (186, -4.31080245971679687500e+00) (187, 3.20721715688705444336e-01) (188, -2.93217620849609375000e+02) (189, 5.02160608768463134766e-01) (190, 9.08110320568084716797e-01) (191, 2.03361302614212036133e-01) (192, 3.82363408803939819336e-01) (193, 4.22628641128540039062e+00) (194, -3.49715637207031250000e+02) (195, -3.09032878875732421875e+01) (196, -2.21764507293701171875e+01) (197, 8.03456878662109375000e+00) (198, -2.95975089073181152344e-01) (199, 7.47442364692687988281e-01) (200, 1.35487008094787597656e+00) (201, 4.36550617218017578125e+00) (202, -1.35997653007507324219e+00) (203, -1.83491754531860351562e+00) (204, -1.79953706264495849609e+00) (205, -1.14223632812500000000e+03) (206, 1.88205748796463012695e-01) (207, -1.77856636047363281250e+01) (208, -8.08720874786376953125e+00) (209, -1.49452673339843750000e+03) (210, -9.68286682128906250000e+02) (211, -5.36498107910156250000e+02) (212, 1.08208215332031250000e+03) (213, 4.55925781250000000000e+02) (214, 2.18984752893447875977e-01) (215, -2.53172278404235839844e-01) (216, 1.12069256603717803955e-01) (217, -5.58955574035644531250e+00) (218, -4.02759838104248046875e+00) (219, 5.99440002441406250000e+00) (220, 2.23802104592323303223e-01) (221, -2.80503146350383758545e-02) (222, 5.62276411056518554688e+00) (223, 8.57923090457916259766e-01) (224, -5.13484313964843750000e+02) (225, 1.70181808471679687500e+02) (226, 1.41157580566406250000e+03) (227, -1.35401977539062500000e+03) (228, -1.50000000000000000000e+03) (229, 1.42110021972656250000e+03) (230, 5.52869934082031250000e+02) (231, -1.65505540370941162109e+00) (232, 3.08158189058303833008e-01) (233, 1.27835214138031005859e-01) (234, -8.03561401367187500000e+00) (235, -4.44649457931518554688e-01) (236, 2.19975739717483520508e-01) (237, 1.19917020201683044434e-01) (238, 1.20575022697448730469e+00) (239, 4.50141382217407226562e+00) (240, -2.77791229248046875000e+02) (241, -9.39432678222656250000e+02) (242, 1.46096313476562500000e+03) (243, -2.50430191040039062500e+02) (244, -1.42671984863281250000e+03) (245, 1.50000000000000000000e+03) (246, -1.17042663574218750000e+03) (247, 4.44081909179687500000e+02) (248, -6.22312683105468750000e+02) (249, -7.85113871097564697266e-01) (250, -3.35309743881225585938e-01) (251, -5.73249340057373046875e-01) (252, -1.39714843750000000000e+03) (253, -6.47288757324218750000e+02) (254, -1.09778125000000000000e+03) (255, -3.44596038818359375000e+02) (256, 1.61389827728271484375e-01) (0, -1.47304858398437500000e+03) (1, -3.93875732421875000000e+02) (2, -1.50000000000000000000e+03) (3, 1.03807983398437500000e+02) (4, -3.45935297012329101562e+00) (5, 1.49816149902343750000e+03) (6, -1.29086914062500000000e+03) (7, -1.32034875488281250000e+03) (8, 8.58157409667968750000e+02) (9, -7.07349914550781250000e+02) (10, 4.00921203613281250000e+02) (11, 3.68635955810546875000e+02) (12, 3.68635955810546875000e+02) (13, 1.49950219726562500000e+03) (14, 3.31635864257812500000e+02) (15, -1.50000000000000000000e+03) (16, -1.45157836914062500000e+03) (17, 9.45707885742187500000e+02) (18, -1.46759350585937500000e+03) (19, 1.36207934570312500000e+03) (20, 1.32695205688476562500e+02) (21, -1.49249926757812500000e+03) (22, 1.50000000000000000000e+03) (23, -4.44651794433593750000e+01) (24, -6.47180652618408203125e+00) (25, 1.10322780609130859375e+01) (26, 6.64238786697387695312e+00) (27, 9.01204772949218750000e+02) (28, -1.50000000000000000000e+03) (29, 1.50000000000000000000e+03) (30, 1.50000000000000000000e+03) (31, 9.69577026367187500000e+02) (32, -7.99883422851562500000e+02) (33, 7.46952941894531250000e+02) (34, 3.86046147346496582031e+00) (35, 2.46301544189453125000e+02) (36, 1.76609619140625000000e+02) (37, 7.58952941894531250000e+02) (38, 6.90725147724151611328e-01) (39, 8.22448492050170898438e-01) (40, 1.47673583984375000000e+03) (41, 1.30614685058593750000e+03) (42, 5.77207946777343750000e+01) (43, -6.27318908691406250000e+02) (44, -1.07602722167968750000e+03) (45, 6.35520820617675781250e+01) (46, -9.04041198730468750000e+02) (47, 1.37836267089843750000e+03) (48, -1.25617504882812500000e+03) (49, 1.49999841308593750000e+03) (50, -3.74449920654296875000e+02) (51, 2.13559818267822265625e+00) (52, 1.50000000000000000000e+03) (53, -4.23335685729980468750e+01) (54, 2.17430377006530761719e+00) (55, -2.80217132568359375000e+02) (56, 1.49626855468750000000e+03) (57, -1.40021997070312500000e+03) (58, 7.43280363082885742188e+00) (59, 3.82857060432434082031e+00) (60, 3.14696838378906250000e+02) (61, 1.50000000000000000000e+03) (62, 4.91714904785156250000e+02) (63, 3.27652473449707031250e+01) (64, 1.15105128288269042969e+00) (65, 1.52679920196533203125e+00) (66, -3.70115776062011718750e+01) (67, 6.04519891738891601562e+00) (68, -2.04276523590087890625e+01) (69, -1.49312707519531250000e+03) (70, -1.49664270019531250000e+03) (71, -1.49139746093750000000e+03) (72, 9.89965248107910156250e+00) (73, 5.11101603507995605469e-01) (74, 4.40602416992187500000e+01) (75, 1.47968103027343750000e+03) (76, 1.49897070312500000000e+03) (77, -1.50000000000000000000e+03) (78, -1.29624670410156250000e+03) (79, 1.49944482421875000000e+03) (80, 1.47083227539062500000e+03) (81, 3.51331710815429687500e+00) (82, 9.21301193237304687500e+01) (83, -1.13844018554687500000e+03) (84, 9.80487289428710937500e+01) (85, -2.28278231620788574219e+00) (86, 1.24308215332031250000e+03) (87, -6.73468685150146484375e+00) (88, 3.87549847364425659180e-01) (89, 4.05904865264892578125e+00) (90, 3.10613775253295898438e+00) (91, 8.26165588378906250000e+02) (92, 3.22840660810470581055e-01) (93, 1.49858093261718750000e+03) (94, 1.49989123535156250000e+03) (95, 1.40128158569335937500e+02) (96, 4.13127098083496093750e+01) (97, 4.88625335693359375000e+01) (98, -4.65436058044433593750e+01) (99, 1.73457396030426025391e+00) (100, -2.60636830329895019531e+00) (101, 1.33059233427047729492e-01) (102, 1.50000000000000000000e+03) (103, 3.40699005126953125000e+01) (104, 1.50000000000000000000e+03) (105, -3.34049081802368164062e+00) (106, -1.02249467372894287109e+00) (107, 4.27886867523193359375e+00) (108, -6.81259994506835937500e+01) (109, 1.27974300384521484375e+01) (110, 5.06699157714843750000e+02) (111, 2.99735603332519531250e+01) (112, 1.42845153808593750000e+03) (113, 2.12059234619140625000e+02) (114, -7.37377595901489257812e+00) (115, 9.19120883941650390625e+00) (116, -4.96627140045166015625e+00) (117, 2.84142047166824340820e-01) (118, 3.93750452995300292969e+00) (119, -4.41132720947265625000e+02) (120, 5.34444999694824218750e+01) (121, 4.41222869873046875000e+02) (122, 1.46578564453125000000e+03) (123, 1.50374801635742187500e+02) (124, 1.05870532226562500000e+03) (125, 1.85035247802734375000e+02) (126, 5.42385803222656250000e+02) (127, 1.83080883026123046875e+01) (128, 1.81376892089843750000e+02) (129, 1.36165786743164062500e+02) (130, -1.67352920532226562500e+02) (131, 4.85558776855468750000e+02) (132, -2.97881484031677246094e+00) (133, 6.67963838577270507812e+00) (134, 3.58043975830078125000e+01) (135, -1.59760541915893554688e+01) (136, 3.23327270507812500000e+02) (137, -1.45433618164062500000e+03) (138, 3.60642852783203125000e+02) (139, 6.07783257961273193359e-01) (140, 8.97404015064239501953e-01) (141, -5.18116760253906250000e+00) (142, -3.49680969238281250000e+02) (143, 1.92174601554870605469e+00) (144, -7.65775604248046875000e+01) (145, -1.04456907138228416443e-02) (146, -1.56601516723632812500e+02) (147, -1.50000000000000000000e+03) (148, 1.23875073242187500000e+03) (149, 5.53878669738769531250e+01) (150, -3.34489807128906250000e+02) (151, -1.49195935058593750000e+03) (152, -1.75114765167236328125e+01) (153, -1.49446337890625000000e+03) (154, 1.49217333984375000000e+03) (155, 6.25355625152587890625e+00) (156, 1.52411193847656250000e+02) (157, -7.72500686645507812500e+01) (158, 1.47636877441406250000e+03) (159, 1.43449267578125000000e+03) (160, 6.59196949005126953125e+00) (161, 2.30225585937500000000e+02) (162, -1.56359844207763671875e+01) (163, 8.28551864624023437500e+00) (164, 1.27723010253906250000e+03) (165, 3.80043144226074218750e+01) (166, 1.76391077041625976562e+00) (167, 6.50451362133026123047e-01) (168, 8.39820957183837890625e+00) (169, 5.82231044769287109375e+00) (170, -1.29880084991455078125e+01) (171, 1.48985522460937500000e+03) (172, 6.63890762329101562500e+01) (173, -5.75565814971923828125e-01) (174, 1.50000000000000000000e+03) (175, 1.57595562934875488281e+00) (176, 8.87164115905761718750e-01) (177, 1.10056715011596679688e+01) (178, 1.42381433105468750000e+03) (179, 6.68596496582031250000e+01) (180, -3.52123558521270751953e-01) (181, 1.54028475284576416016e+00) (182, 1.13853943347930908203e+00) (183, 4.13815677165985107422e-01) (184, 7.44535624980926513672e-01) (185, 3.32838803529739379883e-01) (186, 7.21363496780395507812e+00) (187, -8.17377150058746337891e-01) (188, -6.64930820465087890625e+00) (189, 5.17942142486572265625e+00) (190, 1.07504418945312500000e+03) (191, 5.71797790527343750000e+02) (192, -1.42778430175781250000e+03) (193, 1.41094104003906250000e+03) (194, -1.38180737304687500000e+03) (195, 1.01264904785156250000e+03) (196, 4.87523508071899414062e+00) (197, 1.03015649414062500000e+03) (198, 1.00752198696136474609e+00) (199, 6.54893219470977783203e-01) (200, 1.25213038921356201172e+00) (201, 1.45936267089843750000e+03) (202, 1.16492645263671875000e+02) (203, -2.92910289764404296875e+01) (204, 4.84560441970825195312e+00) (205, 1.42231130599975585938e+01) (206, 6.58082056045532226562e+00) (207, -3.15600848197937011719e+00) (208, -9.05025634765625000000e+01) (209, -5.71963012695312500000e+02) (210, 1.48113903808593750000e+03) (211, 1.19804785156250000000e+03) (212, -7.74380922317504882812e+00) (213, 8.86558294296264648438e-01) (214, 1.74810523986816406250e+01) (215, -1.21944181621074676514e-01) (216, 8.18782567977905273438e-01) (217, 1.17383964359760284424e-01) (218, -5.58724641799926757812e-01) (219, 5.21554613113403320312e+00) (220, 7.05506713867187500000e+02) (221, 3.43069863319396972656e+00) (222, 1.36631524562835693359e+00) (223, -4.80058878660202026367e-01) (224, 1.81965885162353515625e+01) (225, -8.39664672851562500000e+02) (226, 1.33880456542968750000e+03) (227, -2.05288589477539062500e+02) (228, 6.62864562988281250000e+02) (229, 1.46190490722656250000e+03) (230, 1.49284179687500000000e+03) (231, 1.21814892578125000000e+03) (232, 1.71006526947021484375e+01) (233, 6.72379064559936523438e+00) (234, 1.10319023132324218750e+01) (235, 1.57315576076507568359e+00) (236, 1.08448195457458496094e+00) (237, -7.20292925834655761719e-01) (238, -8.61876678466796875000e+01) (239, 2.18693115234375000000e+02) (240, 1.27509045410156250000e+03) (241, 1.12583435058593750000e+03) (242, 1.44982531738281250000e+03) (243, -1.41923144531250000000e+03) (244, -1.47924938964843750000e+03) (245, 1.49740014648437500000e+03) (246, -1.14909509277343750000e+03) (247, 1.44225549316406250000e+03) (248, 1.48214709472656250000e+03) (249, -2.39320278167724609375e+00) (250, 2.69170641899108886719e-01) (251, 4.60840798914432525635e-02) (252, -3.78061126708984375000e+02) (253, -5.73825866699218750000e+02) (254, -1.47851562500000000000e+03) (255, 1.37838574218750000000e+03) (256, 5.42235910892486572266e-01) (0, 1.14722998046875000000e+03) (1, 2.02660995483398437500e+02) (2, 3.43330780029296875000e+02) (3, -2.20664138793945312500e+01) (4, -1.84480392456054687500e+02) (5, 3.48024047851562500000e+02) (6, -7.06333255767822265625e+00) (7, 1.90406219482421875000e+02) (8, -7.42920043945312500000e+02) (9, -9.40857238769531250000e+01) (10, -5.83325538635253906250e+01) (11, 1.50000000000000000000e+03) (12, 1.50000000000000000000e+03) (13, -1.50000000000000000000e+03) (14, -1.43065075683593750000e+03) (15, -1.50000000000000000000e+03) (16, -1.31655236816406250000e+03) (17, 9.58187316894531250000e+02) (18, -1.34779281616210937500e+02) (19, 1.60867538452148437500e+02) (20, -2.16446685791015625000e+01) (21, -1.50000000000000000000e+03) (22, 1.50000000000000000000e+03) (23, 2.75954514741897583008e-01) (24, 1.52392536401748657227e-01) (25, 6.01205229759216308594e-01) (26, 2.73647379875183105469e+00) (27, -1.16136718750000000000e+03) (28, -1.50000000000000000000e+03) (29, 1.50000000000000000000e+03) (30, 1.50000000000000000000e+03) (31, -3.83407068252563476562e+00) (32, -1.16753100585937500000e+03) (33, -3.23393297195434570312e+00) (34, -2.89673748016357421875e+01) (35, -2.50756835937500000000e+00) (36, 1.99494004249572753906e-01) (37, 2.71421551704406738281e+00) (38, -5.46254813671112060547e-02) (39, -2.03562450408935546875e+00) (40, -1.15301135253906250000e+03) (41, -5.25145568847656250000e+02) (42, -1.57225921630859375000e+02) (43, -1.02585232257843017578e+00) (44, -1.47402160644531250000e+03) (45, 2.58802093505859375000e+02) (46, 1.31601794433593750000e+03) (47, -1.50000000000000000000e+03) (48, -1.11861886978149414062e+01) (49, -7.52319622039794921875e+00) (50, 2.17582809448242187500e+02) (51, 1.14291755676269531250e+02) (52, 1.61777019500732421875e+00) (53, 3.30606055259704589844e+00) (54, 2.07717018127441406250e+01) (55, 3.07589459419250488281e+00) (56, 2.31609845161437988281e+00) (57, -2.42481842041015625000e+01) (58, -7.01049208641052246094e-01) (59, -2.31003308296203613281e+00) (60, -6.44682049751281738281e-01) (61, 4.08664184570312500000e+02) (62, 1.50000000000000000000e+03) (63, 1.38274793624877929688e+01) (64, -4.50313598632812500000e+02) (65, -3.20269107818603515625e-01) (66, -3.27142944335937500000e+02) (67, 6.01353988647460937500e+01) (68, -1.03613119125366210938e+01) (69, 2.36483459472656250000e+02) (70, 1.05310592651367187500e+01) (71, 3.07331146240234375000e+02) (72, -2.45678734779357910156e+00) (73, 1.04923412203788757324e-01) (74, -1.45320743322372436523e-01) (75, 8.92626717686653137207e-02) (76, -5.11359214782714843750e+00) (77, -5.63464538574218750000e+02) (78, -6.71574096679687500000e+02) (79, 4.04494619369506835938e+00) (80, 1.39132747650146484375e+01) (81, -4.75799590349197387695e-01) (82, 1.22046756744384765625e+00) (83, 1.07907752990722656250e+01) (84, 1.75018707275390625000e+02) (85, 2.11190372705459594727e-01) (86, 3.29498767852783203125e-01) (87, -3.56480509042739868164e-01) (88, -1.63095474243164062500e+00) (89, 1.39728754758834838867e-01) (90, 2.93133115768432617188e+00) (91, 1.37577995657920837402e-01) (92, 2.17816424369812011719e+00) (93, -2.89976286888122558594e+00) (94, -2.42658948898315429688e+00) (95, -1.14229333496093750000e+03) (96, 5.68633460998535156250e+00) (97, 5.30632686614990234375e+00) (98, -2.67509412765502929688e+00) (99, -8.58946895599365234375e+00) (100, -3.11580598354339599609e-01) (101, -2.18060474395751953125e+01) (102, 8.78805053710937500000e+02) (103, -9.87993776798248291016e-01) (104, 2.78952713012695312500e+01) (105, 1.25652328133583068848e-01) (106, -2.67383980751037597656e+00) (107, -6.00319774821400642395e-03) (108, 1.61419353485107421875e+01) (109, -3.14689874649047851562e-01) (110, -1.50000000000000000000e+03) (111, 1.05508990585803985596e-01) (112, -2.11152625083923339844e+00) (113, -1.50000000000000000000e+03) (114, 9.69378757476806640625e+00) (115, 4.75842437744140625000e+01) (116, -3.57436925172805786133e-01) (117, -2.93779487609863281250e+01) (118, 7.03565895557403564453e-01) (119, -1.11024116516113281250e+02) (120, 3.40711444616317749023e-01) (121, 7.65806138515472412109e-01) (122, 6.60454630851745605469e-01) (123, 2.03774738311767578125e+00) (124, -4.54201281070709228516e-01) (125, -1.49070239257812500000e+03) (126, -1.50000000000000000000e+03) (127, -5.81266975402832031250e+00) (128, 1.64127099514007568359e+00) (129, -5.89856052398681640625e+00) (130, 4.14781600236892700195e-01) (131, 1.52326524257659912109e+00) (132, -1.24180831909179687500e+01) (133, 2.24017286300659179688e+00) (134, -9.53022338867187500000e+02) (135, 1.11783605957031250000e+03) (136, 2.28341579437255859375e+00) (137, 3.38820606470108032227e-01) (138, -8.78046005964279174805e-02) (139, -1.77076858520507812500e+02) (140, -8.47919434309005737305e-02) (141, -5.15109872817993164062e+00) (142, 1.03279266357421875000e+02) (143, 1.96819877624511718750e+01) (144, -6.80197143554687500000e+02) (145, -5.23419603705406188965e-02) (146, 5.57574605941772460938e+00) (147, -1.45091390609741210938e+00) (148, -1.32575016021728515625e+01) (149, -4.19093971252441406250e+01) (150, -6.93709850311279296875e-01) (151, 5.05450378417968750000e+02) (152, 3.78174400329589843750e+01) (153, 5.53238964080810546875e+00) (154, 2.62068200111389160156e+00) (155, 9.28477197885513305664e-02) (156, -1.13165618896484375000e+02) (157, 2.75583714246749877930e-01) (158, 2.57725505828857421875e+01) (159, 5.47186340332031250000e+02) (160, 1.02250137329101562500e+01) (161, -9.61640298366546630859e-01) (162, -6.70983254909515380859e-01) (163, 7.44879543781280517578e-01) (164, -1.49913048744201660156e+00) (165, -5.71261262893676757812e+00) (166, -1.59427320957183837891e+00) (167, 3.86511564254760742188e-01) (168, -1.50000000000000000000e+03) (169, -5.43788642883300781250e+01) (170, -2.00006961822509765625e+01) (171, 1.70920867919921875000e+01) (172, 7.35834658145904541016e-01) (173, -3.31659257411956787109e-01) (174, 4.99383306503295898438e+00) (175, -2.79558639526367187500e+01) (176, 1.14899359643459320068e-01) (177, -6.22622436523437500000e+02) (178, 1.80387222766876220703e+00) (179, -5.69921970367431640625e-01) (180, -1.86563789844512939453e-01) (181, 1.10690921545028686523e-01) (182, 3.84588301181793212891e-01) (183, 2.11276817321777343750e+00) (184, 1.20316064357757568359e+00) (185, 2.41150451660156250000e+02) (186, 1.05927538871765136719e+00) (187, 5.96285223960876464844e-01) (188, 5.48793579101562500000e+02) (189, 2.80358338356018066406e+00) (190, 2.58951634168624877930e-01) (191, 2.66037862747907638550e-02) (192, -1.36148696899414062500e+02) (193, 5.23929119110107421875e+00) (194, 9.86411071777343750000e+02) (195, -3.45855623483657836914e-01) (196, -2.39794397354125976562e+00) (197, 1.09851783752441406250e+02) (198, -6.59833312034606933594e-01) (199, 3.02129328250885009766e-01) (200, 4.80199038982391357422e-01) (201, 4.21768575906753540039e-01) (202, 8.74155616760253906250e+00) (203, -4.26886978149414062500e+01) (204, -5.14291644096374511719e-01) (205, -2.10808172821998596191e-01) (206, -2.76826133728027343750e+01) (207, -4.49711029052734375000e+02) (208, -7.08025665283203125000e+01) (209, 9.15380859375000000000e+02) (210, 2.53394363403320312500e+02) (211, -1.01549890136718750000e+03) (212, 3.28857803344726562500e+00) (213, 7.19123077392578125000e+00) (214, -9.79530215263366699219e-01) (215, 2.80344150960445404053e-02) (216, -9.58111211657524108887e-02) (217, 1.20289064943790435791e-01) (218, 1.23704266548156738281e+00) (219, -1.78805279731750488281e+00) (220, 1.06498384475708007812e+00) (221, 4.20143067836761474609e-01) (222, 4.58629089355468750000e+02) (223, -3.75954193115234375000e+02) (224, 5.24037414550781250000e+02) (225, -6.91704177856445312500e+01) (226, 1.49509069824218750000e+03) (227, 7.92648376464843750000e+02) (228, -1.50000000000000000000e+03) (229, -5.49252563476562500000e+02) (230, -3.31390075683593750000e+02) (231, -1.76659524440765380859e-01) (232, -4.44175563752651214600e-02) (233, -5.43569982051849365234e-01) (234, 8.58919982910156250000e+01) (235, -1.31439418792724609375e+01) (236, 6.30167245864868164062e-01) (237, 4.20274406671524047852e-01) (238, 1.89000082015991210938e+00) (239, 5.35172939300537109375e-01) (240, 1.83455215454101562500e+02) (241, -1.50000000000000000000e+03) (242, 1.40593969726562500000e+03) (243, 9.16698074340820312500e+01) (244, 3.79958831787109375000e+02) (245, 1.66028671264648437500e+02) (246, -1.18656665039062500000e+03) (247, 1.19344787597656250000e+03) (248, 8.13543677330017089844e-01) (249, 5.71929382324218750000e+02) (250, 2.53226108551025390625e+01) (251, 2.34520740509033203125e+01) (252, -2.99837470054626464844e+00) (253, -8.55830841064453125000e+01) (254, -1.48788964843750000000e+03) (255, -7.07311828613281250000e+02) (256, 3.75514060258865356445e-01) (0, -3.46792175292968750000e+02) (1, 1.20462573242187500000e+03) (2, 4.95652465820312500000e+02) (3, -1.11237048339843750000e+03) (4, -1.44249072265625000000e+03) (5, 1.48577465820312500000e+03) (6, -1.34192944335937500000e+03) (7, -9.92024047851562500000e+02) (8, -1.05546142578125000000e+03) (9, -1.50000000000000000000e+03) (10, -1.50000000000000000000e+03) (11, 1.50000000000000000000e+03) (12, 1.50000000000000000000e+03) (13, -1.50000000000000000000e+03) (14, -9.59205139160156250000e+02) (15, -1.50000000000000000000e+03) (16, -1.40091748046875000000e+03) (17, 8.93974487304687500000e+02) (18, -1.44342651367187500000e+03) (19, -1.07083671569824218750e+02) (20, 3.09596443176269531250e+01) (21, -1.50000000000000000000e+03) (22, 1.50000000000000000000e+03) (23, -6.80220581054687500000e+02) (24, -3.70237922668457031250e+00) (25, 1.91061925888061523438e+00) (26, 4.75284290313720703125e+00) (27, -1.50000000000000000000e+03) (28, -1.50000000000000000000e+03) (29, 1.50000000000000000000e+03) (30, 1.50000000000000000000e+03) (31, -9.83537292480468750000e+02) (32, -1.50000000000000000000e+03) (33, 4.72345858812332153320e-01) (34, 1.34048986434936523438e+00) (35, -7.47982604980468750000e+02) (36, -6.54523658752441406250e+00) (37, 6.15217468261718750000e+02) (38, -1.75009894371032714844e+00) (39, 1.11811654642224311829e-02) (40, 3.19076366424560546875e+01) (41, 1.50000000000000000000e+03) (42, -4.94504394531250000000e+02) (43, -1.50000000000000000000e+03) (44, -1.49056640625000000000e+03) (45, -1.85559692382812500000e+02) (46, 1.50000000000000000000e+03) (47, -1.50000000000000000000e+03) (48, 3.50808166503906250000e+02) (49, 3.02849853515625000000e+02) (50, 9.39045227050781250000e+02) (51, 8.24920715332031250000e+02) (52, 1.50000000000000000000e+03) (53, -1.38884155273437500000e+03) (54, -1.48673449707031250000e+03) (55, 1.81844878196716308594e+00) (56, 1.49392639160156250000e+03) (57, -1.50000000000000000000e+03) (58, -1.56103324890136718750e+00) (59, -4.15646457672119140625e+00) (60, -1.50000000000000000000e+03) (61, 1.48665014648437500000e+03) (62, 1.46040002441406250000e+03) (63, 1.39059680175781250000e+03) (64, 1.49927246093750000000e+03) (65, -2.47808547973632812500e+02) (66, -1.50000000000000000000e+03) (67, 1.22108055114746093750e+02) (68, -1.49510681152343750000e+03) (69, -1.49999548339843750000e+03) (70, -1.08303881835937500000e+03) (71, -7.48065551757812500000e+02) (72, -7.78778305053710937500e+01) (73, -8.14617729187011718750e+00) (74, -5.93705356121063232422e-01) (75, -1.49934582519531250000e+03) (76, -1.50000000000000000000e+03) (77, -1.50000000000000000000e+03) (78, 2.49348281860351562500e+02) (79, 2.26777286529541015625e+01) (80, 3.07107666015625000000e+02) (81, -1.39913488769531250000e+03) (82, 3.20589324951171875000e+02) (83, 1.51607254028320312500e+02) (84, 1.39962936401367187500e+02) (85, -1.47343725585937500000e+03) (86, 6.93417053222656250000e+01) (87, -6.04431533813476562500e+00) (88, -3.43122631311416625977e-02) (89, -9.06689071655273437500e+00) (90, 1.16331267356872558594e+00) (91, 4.22558665275573730469e-01) (92, -6.35485168457031250000e+02) (93, 5.45393800735473632812e+00) (94, 8.40164124965667724609e-02) (95, -1.66506637573242187500e+02) (96, 1.49963232421875000000e+03) (97, 1.36060522460937500000e+03) (98, 3.16843986511230468750e+01) (99, -8.43123840332031250000e+02) (100, -1.49621691894531250000e+03) (101, -2.85681610107421875000e+01) (102, 1.15399665832519531250e+02) (103, -9.95026493072509765625e+00) (104, 1.50000000000000000000e+03) (105, 3.01468670368194580078e-01) (106, -2.40521148681640625000e+02) (107, 8.31600666046142578125e+00) (108, 1.31232226562500000000e+03) (109, -4.17205108642578125000e+02) (110, -1.50000000000000000000e+03) (111, -1.33700451660156250000e+03) (112, 3.46297353506088256836e-01) (113, 6.66326843261718750000e+02) (114, -1.00068432617187500000e+03) (115, 1.49677832031250000000e+03) (116, -1.49719250488281250000e+03) (117, -3.33757904052734375000e+02) (118, 1.90950286865234375000e+02) (119, -8.19793090820312500000e+02) (120, -1.38266162109375000000e+03) (121, -7.49175598144531250000e+02) (122, 1.49972924804687500000e+03) (123, 1.69565773010253906250e+01) (124, 9.80166168212890625000e+01) (125, -1.37060131835937500000e+03) (126, -1.50000000000000000000e+03) (127, -1.20822375488281250000e+03) (128, -5.91122055053710937500e+00) (129, -1.50000000000000000000e+03) (130, -7.45513610839843750000e+02) (131, 2.60585205078125000000e+02) (132, -1.48642614746093750000e+03) (133, 7.40972106933593750000e+02) (134, -5.44780540466308593750e+00) (135, 5.17046020507812500000e+02) (136, 1.10655175781250000000e+03) (137, -1.24210105895996093750e+02) (138, 4.60380613803863525391e-01) (139, -1.21025779724121093750e+02) (140, 1.26879715919494628906e+00) (141, -2.00946521759033203125e+00) (142, -1.05590515136718750000e+03) (143, 3.82851486206054687500e+01) (144, -1.31931958007812500000e+03) (145, 1.03190295410156250000e+03) (146, -1.12014941406250000000e+03) (147, -4.20057439804077148438e+00) (148, 1.32607727050781250000e+03) (149, -1.49881054687500000000e+03) (150, -9.20945434570312500000e+01) (151, -1.48458459472656250000e+03) (152, 3.81695342063903808594e+00) (153, -1.50000000000000000000e+03) (154, -3.86387228965759277344e+00) (155, -1.36315954589843750000e+03) (156, -1.50000000000000000000e+03) (157, -1.72726285457611083984e+00) (158, 2.25674939155578613281e+00) (159, 1.49479211425781250000e+03) (160, 5.42393398284912109375e+00) (161, -1.31680664062500000000e+03) (162, -1.13739194869995117188e+01) (163, 3.30427551269531250000e+01) (164, 3.01949501037597656250e+00) (165, -5.65196228027343750000e+02) (166, 1.44382080078125000000e+02) (167, 1.50000000000000000000e+03) (168, -1.50000000000000000000e+03) (169, -1.35418408203125000000e+03) (170, -1.27973146438598632812e+01) (171, -1.38419567871093750000e+03) (172, -3.07414817810058593750e+01) (173, -5.76135681152343750000e+02) (174, 1.27097448730468750000e+03) (175, -1.98906257748603820801e-01) (176, 1.03989744186401367188e+01) (177, -1.40961975097656250000e+03) (178, -1.11460192871093750000e+03) (179, -9.79350738525390625000e+01) (180, -2.91022090911865234375e+01) (181, 3.30573916435241699219e-01) (182, 5.77066302299499511719e-01) (183, -7.88274780273437500000e+02) (184, 1.51072680950164794922e-01) (185, 8.20314331054687500000e+01) (186, 3.62916612625122070312e+00) (187, -4.15838336944580078125e+00) (188, -1.21577234268188476562e+01) (189, 7.68102722167968750000e+01) (190, 5.04178131103515625000e+02) (191, 1.32481956481933593750e+01) (192, -5.06609832763671875000e+02) (193, 1.35003820800781250000e+03) (194, -1.15316076660156250000e+03) (195, -1.48444116210937500000e+03) (196, -4.85757720947265625000e+02) (197, 4.52801132202148437500e+00) (198, 7.14843034744262695312e-01) (199, 1.20506338775157928467e-01) (200, -1.65251940488815307617e-01) (201, -1.64522707462310791016e-01) (202, 8.20221960544586181641e-01) (203, 2.37229251861572265625e+00) (204, -7.60378360748291015625e+00) (205, 2.96640758514404296875e+01) (206, 3.78273397684097290039e-01) (207, 7.87109985351562500000e+01) (208, -1.85287392139434814453e+00) (209, -7.15049682617187500000e+02) (210, 1.43264599609375000000e+03) (211, -1.47902075195312500000e+03) (212, 1.50000000000000000000e+03) (213, 1.02806739807128906250e+01) (214, -2.31844463348388671875e+01) (215, -8.01010417938232421875e+00) (216, -8.34059178829193115234e-01) (217, -1.42270040512084960938e+00) (218, 2.66900596618652343750e+01) (219, 4.72658252716064453125e+00) (220, 1.48177001953125000000e+03) (221, 2.78443374633789062500e+01) (222, 1.04757739257812500000e+03) (223, 1.49754418945312500000e+03) (224, -6.48102493286132812500e+01) (225, -1.42581054687500000000e+03) (226, 1.46062182617187500000e+03) (227, -2.84656066894531250000e+02) (228, -1.50000000000000000000e+03) (229, -1.26314685058593750000e+03) (230, -4.28720306396484375000e+02) (231, -5.85633422851562500000e+02) (232, -8.60592246055603027344e-01) (233, -1.62584984302520751953e+00) (234, -7.82800415039062500000e+02) (235, -1.32356188964843750000e+03) (236, -7.23401382565498352051e-02) (237, -1.07638907432556152344e+00) (238, -7.39272654056549072266e-01) (239, 1.48447851562500000000e+03) (240, -1.49022863769531250000e+03) (241, -1.47967126464843750000e+03) (242, 1.42403161621093750000e+03) (243, 3.75155334472656250000e+02) (244, 3.31944885253906250000e+02) (245, 1.09388745117187500000e+03) (246, -1.50000000000000000000e+03) (247, 1.20796704101562500000e+03) (248, -8.99118347167968750000e+02) (249, -6.56811857223510742188e+00) (250, -4.77117657661437988281e-01) (251, -6.23605102539062500000e+02) (252, -1.27139904785156250000e+03) (253, -1.22036181640625000000e+03) (254, -1.34333129882812500000e+03) (255, 1.12740356445312500000e+03) (256, 4.27849404513835906982e-02) (0, 1.49793676757812500000e+03) (1, -5.71225952148437500000e+02) (2, 4.96211486816406250000e+02) (3, 1.27398095703125000000e+03) (4, 1.50000000000000000000e+03) (5, -1.44771447753906250000e+03) (6, 1.48861877441406250000e+03) (7, 7.98478393554687500000e+02) (8, 1.48084313964843750000e+03) (9, 1.50000000000000000000e+03) (10, 4.70215759277343750000e+01) (11, -1.50000000000000000000e+03) (12, -1.50000000000000000000e+03) (13, 1.50000000000000000000e+03) (14, 7.92304565429687500000e+02) (15, 1.50000000000000000000e+03) (16, 1.75365020751953125000e+02) (17, -3.76628646850585937500e+01) (18, 1.50000000000000000000e+03) (19, 1.50000000000000000000e+03) (20, -1.49464477539062500000e+03) (21, 1.50000000000000000000e+03) (22, -1.50000000000000000000e+03) (23, -9.47948634624481201172e-01) (24, 8.04538440704345703125e+00) (25, -3.49481701850891113281e-01) (26, -8.27346515655517578125e+00) (27, 1.50000000000000000000e+03) (28, 1.50000000000000000000e+03) (29, -1.50000000000000000000e+03) (30, -1.50000000000000000000e+03) (31, -4.77153167724609375000e+02) (32, 1.50000000000000000000e+03) (33, 1.07358239746093750000e+03) (34, 1.00196099853515625000e+03) (35, 6.27266784667968750000e+02) (36, 4.14504259824752807617e-01) (37, -1.50000000000000000000e+03) (38, 6.14874780178070068359e-01) (39, 5.47750234603881835938e-01) (40, -2.30845355987548828125e+00) (41, -1.50000000000000000000e+03) (42, 9.67742264270782470703e-01) (43, 1.18509910583496093750e+02) (44, 1.50000000000000000000e+03) (45, -8.15133300781250000000e+02) (46, -1.19046630859375000000e+03) (47, 8.12208374023437500000e+02) (48, -5.39440345764160156250e+01) (49, 4.37641296386718750000e+02) (50, -7.41685032844543457031e-02) (51, -1.18691699218750000000e+03) (52, -3.84422058105468750000e+02) (53, 1.00794172286987304688e+00) (54, 1.46926611328125000000e+03) (55, 1.44277539062500000000e+03) (56, 1.49896960449218750000e+03) (57, 1.50000000000000000000e+03) (58, 1.50000000000000000000e+03) (59, 7.99073059082031250000e+02) (60, 1.50000000000000000000e+03) (61, -1.47500000000000000000e+03) (62, -1.34701062011718750000e+03) (63, -1.31237597656250000000e+03) (64, 3.31685566902160644531e+00) (65, 1.58778018951416015625e+01) (66, 1.50000000000000000000e+03) (67, -9.82140563964843750000e+02) (68, 1.45847705078125000000e+03) (69, 1.65996200561523437500e+02) (70, 5.02955198287963867188e+00) (71, 2.85093712806701660156e+00) (72, 2.08891845703125000000e+02) (73, 1.16622219085693359375e+01) (74, 6.00269556045532226562e-01) (75, 1.50000000000000000000e+03) (76, 1.45953356933593750000e+03) (77, 1.50000000000000000000e+03) (78, 5.92858154296875000000e+02) (79, -1.83318038940429687500e+02) (80, -1.13720397949218750000e+03) (81, -1.29558456420898437500e+02) (82, 2.11086959838867187500e+01) (83, -9.43697692871093750000e+02) (84, -3.19326553344726562500e+01) (85, -8.42808776855468750000e+02) (86, -7.75977149605751037598e-02) (87, 3.68777722120285034180e-01) (88, -3.11611056327819824219e-01) (89, -7.05393135547637939453e-01) (90, -1.46766076660156250000e+03) (91, -1.04324054718017578125e+00) (92, 4.82094764709472656250e+00) (93, 6.83456301689147949219e-01) (94, -6.63669677734375000000e+02) (95, 6.27965026855468750000e+02) (96, -1.04502282714843750000e+03) (97, 2.15027856826782226562e+00) (98, -3.51056957244873046875e+00) (99, 1.44235925292968750000e+03) (100, 7.85113632678985595703e-01) (101, 2.17797073364257812500e+02) (102, -3.70852172374725341797e-01) (103, 4.53800725936889648438e+00) (104, -5.87293624877929687500e-01) (105, -3.04732024669647216797e-01) (106, 1.18637744140625000000e+03) (107, -6.44933032989501953125e+00) (108, -3.46783733367919921875e+00) (109, 1.09787878417968750000e+03) (110, 1.50000000000000000000e+03) (111, 1.36006909179687500000e+03) (112, 8.27927875518798828125e+00) (113, 6.55183593750000000000e+02) (114, 7.62278442382812500000e+02) (115, -1.84023132324218750000e+02) (116, 1.50000000000000000000e+03) (117, 4.62668273925781250000e+02) (118, -1.56055510044097900391e-01) (119, 1.50000000000000000000e+03) (120, 1.49722155761718750000e+03) (121, 5.87175292968750000000e+01) (122, 4.91755180358886718750e+01) (123, 1.21170272827148437500e+02) (124, -2.16200447082519531250e+00) (125, 1.13920335769653320312e+01) (126, 1.50000000000000000000e+03) (127, 1.49020874023437500000e+03) (128, -2.61099578857421875000e+02) (129, 3.33941955566406250000e+01) (130, -5.07814636230468750000e+01) (131, 1.42895935058593750000e+03) (132, 5.17096214294433593750e+01) (133, -1.08391036987304687500e+01) (134, 1.50000000000000000000e+03) (135, 2.68054046630859375000e+02) (136, -3.19591909646987915039e-02) (137, 2.35528811812400817871e-01) (138, 8.73930931091308593750e-01) (139, -2.96355557441711425781e+00) (140, 3.60745102167129516602e-01) (141, 5.20093381404876708984e-01) (142, 1.34727331542968750000e+03) (143, -3.01277732849121093750e+00) (144, 3.37649780273437500000e+02) (145, 4.21216636896133422852e-01) (146, 5.78929382324218750000e+02) (147, 1.14677886962890625000e+01) (148, 9.14926605224609375000e+01) (149, 1.50000000000000000000e+03) (150, 8.23446838378906250000e+02) (151, 2.33858352661132812500e+02) (152, -1.52308540344238281250e+01) (153, 1.50000000000000000000e+03) (154, 8.01338119506835937500e+01) (155, 4.08595830202102661133e-01) (156, 1.50000000000000000000e+03) (157, -3.66104049682617187500e+01) (158, -1.53884780883789062500e+02) (159, -1.49100000000000000000e+03) (160, -1.03738975524902343750e+01) (161, -9.89020233154296875000e+01) (162, -3.64158868789672851562e-01) (163, 3.06660556793212890625e+01) (164, 6.17327766418457031250e+01) (165, 2.86833801269531250000e+02) (166, -9.70604038238525390625e+00) (167, -1.59186983108520507812e+00) (168, 1.50000000000000000000e+03) (169, 1.67137699127197265625e+01) (170, 2.53272533416748046875e+00) (171, 2.87762999534606933594e-01) (172, -1.37926284790039062500e+02) (173, 6.15034198760986328125e+00) (174, -3.50386108398437500000e+02) (175, 7.37824773788452148438e+00) (176, 2.54653003066778182983e-02) (177, 6.07431449890136718750e+01) (178, 3.10515975952148437500e+01) (179, 8.61669421195983886719e-01) (180, -1.71154946088790893555e-01) (181, 1.72419920563697814941e-01) (182, 1.94675311446189880371e-01) (183, 4.19727611541748046875e+00) (184, 1.18803733825683593750e+02) (185, -3.63291702270507812500e+01) (186, 2.84878015518188476562e+00) (187, 3.78312438726425170898e-01) (188, -9.96126708984375000000e+01) (189, -3.36342651367187500000e+02) (190, -2.00566558837890625000e+02) (191, 3.16201343536376953125e+01) (192, 2.71452379226684570312e+00) (193, 1.83230865478515625000e+02) (194, -3.08725285530090332031e+00) (195, 5.98424072265625000000e+02) (196, 1.60820178985595703125e+01) (197, -1.42430981445312500000e+03) (198, 7.05955505371093750000e-01) (199, 2.84077581018209457397e-02) (200, 3.74090647697448730469e+00) (201, 8.99100189208984375000e+01) (202, 1.96526184678077697754e-01) (203, -3.41405677795410156250e+01) (204, 2.94077920913696289062e+00) (205, -3.00602550506591796875e+01) (206, -1.83605432510375976562e+00) (207, 8.37281644344329833984e-01) (208, 1.93314075469970703125e+01) (209, 1.48341162109375000000e+03) (210, 1.31253039550781250000e+03) (211, 1.50000000000000000000e+03) (212, -1.47500000000000000000e+03) (213, -1.09039587402343750000e+03) (214, -4.76230764389038085938e+00) (215, 3.91388803720474243164e-01) (216, -9.03990864753723144531e-01) (217, 5.40430183410644531250e+01) (218, 2.53067165613174438477e-01) (219, 1.12264261245727539062e+01) (220, -6.60086631774902343750e+00) (221, -3.02452888488769531250e+01) (222, -1.49366174316406250000e+03) (223, -9.37212036132812500000e+02) (224, 6.15182828903198242188e+00) (225, 1.26348876953125000000e+03) (226, -1.46723999023437500000e+03) (227, -5.55447326660156250000e+02) (228, 1.28811425781250000000e+03) (229, 1.49747656250000000000e+03) (230, 7.30266967773437500000e+02) (231, 1.41973974609375000000e+03) (232, 1.21704608201980590820e-01) (233, -2.38952904939651489258e-01) (234, -4.69765663146972656250e+00) (235, 2.30389952659606933594e+00) (236, 3.91377151012420654297e-01) (237, 9.10416916012763977051e-02) (238, 2.85990059375762939453e-01) (239, -7.50468017578125000000e+02) (240, -1.13058214187622070312e+01) (241, 1.50000000000000000000e+03) (242, -1.31022546386718750000e+03) (243, 1.41569421386718750000e+03) (244, -1.75783863067626953125e+01) (245, 1.07275109863281250000e+03) (246, 1.50000000000000000000e+03) (247, -3.67492156982421875000e+02) (248, 5.98187927246093750000e+02) (249, -3.22017555236816406250e+01) (250, -9.54147815704345703125e+00) (251, -7.61284790039062500000e+02) (252, -9.39259521484375000000e+02) (253, 1.50000000000000000000e+03) (254, 1.47900329589843750000e+03) (255, -9.54793212890625000000e+02) (256, -1.38121649622917175293e-01) (0, 1.48910021972656250000e+03) (1, 9.52614013671875000000e+02) (2, -4.50452690124511718750e+01) (3, -8.20107650756835937500e+01) (4, -1.46688745117187500000e+03) (5, -1.45203149414062500000e+03) (6, 1.16310815429687500000e+03) (7, 1.49878259277343750000e+03) (8, -1.32126135253906250000e+03) (9, -1.57017364501953125000e+02) (10, -1.16710412597656250000e+03) (11, -7.61612304687500000000e+02) (12, -7.61612304687500000000e+02) (13, -1.46460546875000000000e+03) (14, 1.28353466796875000000e+03) (15, -4.02987854003906250000e+02) (16, 1.41469641113281250000e+03) (17, -7.61991210937500000000e+02) (18, 1.31180529785156250000e+03) (19, 1.02951513671875000000e+03) (20, -6.51529296875000000000e+02) (21, 1.94498809814453125000e+02) (22, 1.42727636718750000000e+03) (23, 1.49974133300781250000e+03) (24, -6.22059440612792968750e+00) (25, -1.40438094735145568848e-01) (26, 6.41366720199584960938e-01) (27, 5.99395751953125000000e+01) (28, -1.36580004882812500000e+03) (29, -1.50000000000000000000e+03) (30, 3.70747100830078125000e+02) (31, -2.80368682861328125000e+02) (32, 1.47799768066406250000e+03) (33, -3.71049346923828125000e+01) (34, 5.21261692047119140625e+00) (35, 1.05452756881713867188e+01) (36, -2.19679355621337890625e+01) (37, 2.39084839820861816406e-01) (38, 1.08016937971115112305e-01) (39, 4.00266379117965698242e-01) (40, 1.04662582397460937500e+02) (41, 1.48793627929687500000e+03) (42, 5.20925254821777343750e+01) (43, -5.19098758697509765625e-01) (44, -3.46565765380859375000e+02) (45, 1.40344555664062500000e+03) (46, -1.37459631347656250000e+03) (47, -4.66164245605468750000e+02) (48, -2.71201992034912109375e+01) (49, -3.00925384521484375000e+02) (50, -3.61642425537109375000e+02) (51, -5.70655761718750000000e+02) (52, 1.48709802246093750000e+03) (53, 5.79760313034057617188e+00) (54, 3.85829315185546875000e+02) (55, 1.35262835025787353516e+00) (56, 1.61134490966796875000e+01) (57, 1.50000000000000000000e+03) (58, 5.06172704696655273438e+00) (59, 1.12001764774322509766e+00) (60, 8.51444152832031250000e+02) (61, -7.46860534667968750000e+02) (62, -1.50000000000000000000e+03) (63, -3.16492805480957031250e+01) (64, 7.36925277709960937500e+01) (65, -2.01161727905273437500e+01) (66, 1.12792854309082031250e+02) (67, 2.10245552062988281250e+01) (68, 1.50000000000000000000e+03) (69, 1.84041351318359375000e+02) (70, 1.48939001464843750000e+03) (71, 1.50000000000000000000e+03) (72, 1.49764575195312500000e+03) (73, 1.82930236816406250000e+02) (74, 2.05217695236206054688e+00) (75, 1.49988854980468750000e+03) (76, 1.49984887695312500000e+03) (77, 1.46402526855468750000e+03) (78, -1.41972924804687500000e+03) (79, -6.52171508789062500000e+02) (80, -1.08818774414062500000e+03) (81, 6.35422134399414062500e+00) (82, -2.06372976303100585938e-01) (83, -1.92836822509765625000e+02) (84, -1.48012280273437500000e+03) (85, 1.46982324218750000000e+03) (86, -1.55470565795898437500e+02) (87, 3.22028076171875000000e+02) (88, 1.05740976333618164062e+00) (89, -2.81926784515380859375e+01) (90, -1.16743307113647460938e+01) (91, 6.66007161140441894531e-01) (92, 8.21194410324096679688e-01) (93, -2.48288040161132812500e+01) (94, -1.41877918243408203125e+01) (95, -1.25941491127014160156e+00) (96, -1.45118713378906250000e+03) (97, 1.64429199218750000000e+02) (98, -3.74500640869140625000e+02) (99, -5.99113037109375000000e+02) (100, 4.62779521942138671875e+00) (101, 1.00035113525390625000e+03) (102, -3.11644668579101562500e+01) (103, 4.74402130126953125000e+02) (104, -1.48385095214843750000e+03) (105, 2.47686004638671875000e+01) (106, 8.39499378204345703125e+00) (107, 1.55016536712646484375e+01) (108, 4.58949707031250000000e+02) (109, 1.46881738281250000000e+03) (110, 1.49697766113281250000e+03) (111, 1.50000000000000000000e+03) (112, -6.55213806152343750000e+02) (113, 9.78354415893554687500e+01) (114, -1.50000000000000000000e+03) (115, -8.33493530273437500000e+02) (116, 1.14330421447753906250e+02) (117, 6.99214339256286621094e-01) (118, -3.34515289306640625000e+02) (119, 6.46802711486816406250e+00) (120, 6.40141174316406250000e+02) (121, 1.49958422851562500000e+03) (122, 1.03079643249511718750e+02) (123, -8.09041870117187500000e+02) (124, -5.07161483764648437500e+01) (125, 1.43078149414062500000e+03) (126, 1.49946325683593750000e+03) (127, 2.97779293060302734375e+01) (128, -1.33926464843750000000e+03) (129, -3.37218818664550781250e+01) (130, -1.28867175292968750000e+03) (131, 5.32338928222656250000e+02) (132, 8.15687465667724609375e+00) (133, -1.74891494750976562500e+02) (134, -4.35601681470870971680e-01) (135, 1.75302169799804687500e+02) (136, -1.04701681137084960938e+01) (137, -1.78048110008239746094e+00) (138, 1.40751159191131591797e+00) (139, 1.83594570159912109375e+01) (140, 1.14410676956176757812e+01) (141, -5.24459075927734375000e+01) (142, 1.49973205566406250000e+03) (143, -1.27597692871093750000e+03) (144, 1.49865148925781250000e+03) (145, 5.48672729492187500000e+02) (146, 1.31703564453125000000e+03) (147, 1.61375370025634765625e+01) (148, -1.39598266601562500000e+03) (149, -1.47760269165039062500e+02) (150, 1.45260485839843750000e+03) (151, 9.26637268066406250000e+01) (152, -9.84633541107177734375e+00) (153, 2.38228454589843750000e+02) (154, 1.99971389770507812500e+01) (155, 8.48563385009765625000e+01) (156, 1.50000000000000000000e+03) (157, 7.87207007408142089844e-01) (158, -1.36213083267211914062e+01) (159, -5.28965820312500000000e+02) (160, 1.71070938110351562500e+01) (161, 8.33301544189453125000e+01) (162, 3.03874481201171875000e+02) (163, -1.59023651123046875000e+02) (164, -1.30778771972656250000e+03) (165, 4.30917449951171875000e+02) (166, -1.50000000000000000000e+03) (167, -1.43017431640625000000e+03) (168, 1.40880859375000000000e+03) (169, 1.49995166015625000000e+03) (170, 3.95629463195800781250e+01) (171, 1.23901939392089843750e+02) (172, 1.30466137695312500000e+03) (173, 