FANN_FLO_2.1
num_layers=3
learning_rate=0.700000
connection_rate=1.000000
network_type=0
learning_momentum=0.000000
training_algorithm=2
train_error_function=1
train_stop_function=0
cascade_output_change_fraction=0.010000
quickprop_decay=-0.000100
quickprop_mu=1.750000
rprop_increase_factor=1.200000
rprop_decrease_factor=0.500000
rprop_delta_min=0.000000
rprop_delta_max=50.000000
rprop_delta_zero=0.100000
cascade_output_stagnation_epochs=12
cascade_candidate_change_fraction=0.010000
cascade_candidate_stagnation_epochs=12
cascade_max_out_epochs=150
cascade_min_out_epochs=50
cascade_max_cand_epochs=150
cascade_min_cand_epochs=50
cascade_num_candidate_groups=2
bit_fail_limit=3.49999994039535522461e-01
cascade_candidate_limit=1.00000000000000000000e+03
cascade_weight_multiplier=4.00000005960464477539e-01
cascade_activation_functions_count=10
cascade_activation_functions=3 5 7 8 10 11 14 15 16 17 
cascade_activation_steepnesses_count=4
cascade_activation_steepnesses=2.50000000000000000000e-01 5.00000000000000000000e-01 7.50000000000000000000e-01 1.00000000000000000000e+00 
layer_sizes=257 131 11 
scale_included=0
neurons (num_inputs, activation_function, activation_steepness)=(0, 0, 0.00000000000000000000e+00) (0, 0, 0.00000000000000000000e+00) (0, 0, 0.00000000000000000000e+00) (0, 0, 0.00000000000000000000e+00) (0, 0, 0.00000000000000000000e+00) (0, 0, 0.00000000000000000000e+00) (0, 0, 0.00000000000000000000e+00) (0, 0, 0.00000000000000000000e+00) (0, 0, 0.00000000000000000000e+00) (0, 0, 0.00000000000000000000e+00) (0, 0, 0.00000000000000000000e+00) (0, 0, 0.00000000000000000000e+00) (0, 0, 0.00000000000000000000e+00) (0, 0, 0.00000000000000000000e+00) (0, 0, 0.00000000000000000000e+00) (0, 0, 0.00000000000000000000e+00) (0, 0, 0.00000000000000000000e+00) (0, 0, 0.00000000000000000000e+00) (0, 0, 0.00000000000000000000e+00) (0, 0, 0.00000000000000000000e+00) (0, 0, 0.00000000000000000000e+00) (0, 0, 0.00000000000000000000e+00) (0, 0, 0.00000000000000000000e+00) (0, 0, 0.00000000000000000000e+00) (0, 0, 0.00000000000000000000e+00) (0, 0, 0.00000000000000000000e+00) (0, 0, 0.00000000000000000000e+00) (0, 0, 0.00000000000000000000e+00) (0, 0, 0.00000000000000000000e+00) (0, 0, 0.00000000000000000000e+00) (0, 0, 0.00000000000000000000e+00) (0, 0, 0.00000000000000000000e+00) (0, 0, 0.00000000000000000000e+00) (0, 0, 0.00000000000000000000e+00) (0, 0, 0.00000000000000000000e+00) (0, 0, 0.00000000000000000000e+00) (0, 0, 0.00000000000000000000e+00) (0, 0, 0.00000000000000000000e+00) (0, 0, 0.00000000000000000000e+00) (0, 0, 0.00000000000000000000e+00) (0, 0, 0.00000000000000000000e+00) (0, 0, 0.00000000000000000000e+00) (0, 0, 0.00000000000000000000e+00) (0, 0, 0.00000000000000000000e+00) (0, 0, 0.00000000000000000000e+00) (0, 0, 0.00000000000000000000e+00) (0, 0, 0.00000000000000000000e+00) (0, 0, 0.00000000000000000000e+00) (0, 0, 0.00000000000000000000e+00) (0, 0, 0.00000000000000000000e+00) (0, 0, 0.00000000000000000000e+00) (0, 0, 0.00000000000000000000e+00) (0, 0, 0.00000000000000000000e+00) (0, 0, 0.00000000000000000000e+00) (0, 0, 0.00000000000000000000e+00) (0, 0, 0.00000000000000000000e+00) (0, 0, 0.00000000000000000000e+00) (0, 0, 0.00000000000000000000e+00) (0, 0, 0.00000000000000000000e+00) (0, 0, 0.00000000000000000000e+00) (0, 0, 0.00000000000000000000e+00) (0, 0, 0.00000000000000000000e+00) (0, 0, 0.00000000000000000000e+00) (0, 0, 0.00000000000000000000e+00) (0, 0, 0.00000000000000000000e+00) (0, 0, 0.00000000000000000000e+00) (0, 0, 0.00000000000000000000e+00) (0, 0, 0.00000000000000000000e+00) (0, 0, 0.00000000000000000000e+00) (0, 0, 0.00000000000000000000e+00) (0, 0, 0.00000000000000000000e+00) (0, 0, 0.00000000000000000000e+00) (0, 0, 0.00000000000000000000e+00) (0, 0, 0.00000000000000000000e+00) (0, 0, 0.00000000000000000000e+00) (0, 0, 0.00000000000000000000e+00) (0, 0, 0.00000000000000000000e+00) (0, 0, 0.00000000000000000000e+00) (0, 0, 0.00000000000000000000e+00) (0, 0, 0.00000000000000000000e+00) (0, 0, 0.00000000000000000000e+00) (0, 0, 0.00000000000000000000e+00) (0, 0, 0.00000000000000000000e+00) (0, 0, 0.00000000000000000000e+00) (0, 0, 0.00000000000000000000e+00) (0, 0, 0.00000000000000000000e+00) (0, 0, 0.00000000000000000000e+00) (0, 0, 0.00000000000000000000e+00) (0, 0, 0.00000000000000000000e+00) (0, 0, 0.00000000000000000000e+00) (0, 0, 0.00000000000000000000e+00) (0, 0, 0.00000000000000000000e+00) (0, 0, 0.00000000000000000000e+00) (0, 0, 0.00000000000000000000e+00) (0, 0, 0.00000000000000000000e+00) (0, 0, 0.00000000000000000000e+00) (0, 0, 0.00000000000000000000e+00) (0, 0, 0.00000000000000000000e+00) (0, 0, 0.00000000000000000000e+00) (0, 0, 0.00000000000000000000e+00) (0, 0, 0.00000000000000000000e+00) (0, 0, 0.00000000000000000000e+00) (0, 0, 0.00000000000000000000e+00) (0, 0, 0.00000000000000000000e+00) (0, 0, 0.00000000000000000000e+00) (0, 0, 0.00000000000000000000e+00) (0, 0, 0.00000000000000000000e+00) (0, 0, 0.00000000000000000000e+00) (0, 0, 0.00000000000000000000e+00) (0, 0, 0.00000000000000000000e+00) (0, 0, 0.00000000000000000000e+00) (0, 0, 0.00000000000000000000e+00) (0, 0, 0.00000000000000000000e+00) (0, 0, 0.00000000000000000000e+00) (0, 0, 0.00000000000000000000e+00) (0, 0, 0.00000000000000000000e+00) (0, 0, 0.00000000000000000000e+00) (0, 0, 0.00000000000000000000e+00) (0, 0, 0.00000000000000000000e+00) (0, 0, 0.00000000000000000000e+00) (0, 0, 0.00000000000000000000e+00) (0, 0, 0.00000000000000000000e+00) (0, 0, 0.00000000000000000000e+00) (0, 0, 0.00000000000000000000e+00) (0, 0, 0.00000000000000000000e+00) (0, 0, 0.00000000000000000000e+00) (0, 0, 0.00000000000000000000e+00) (0, 0, 0.00000000000000000000e+00) (0, 0, 0.00000000000000000000e+00) (0, 0, 0.00000000000000000000e+00) (0, 0, 0.00000000000000000000e+00) (0, 0, 0.00000000000000000000e+00) (0, 0, 0.00000000000000000000e+00) (0, 0, 0.00000000000000000000e+00) (0, 0, 0.00000000000000000000e+00) (0, 0, 0.00000000000000000000e+00) (0, 0, 0.00000000000000000000e+00) (0, 0, 0.00000000000000000000e+00) (0, 0, 0.00000000000000000000e+00) (0, 0, 0.00000000000000000000e+00) (0, 0, 0.00000000000000000000e+00) (0, 0, 0.00000000000000000000e+00) (0, 0, 0.00000000000000000000e+00) (0, 0, 0.00000000000000000000e+00) (0, 0, 0.00000000000000000000e+00) (0, 0, 0.00000000000000000000e+00) (0, 0, 0.00000000000000000000e+00) (0, 0, 0.00000000000000000000e+00) (0, 0, 0.00000000000000000000e+00) (0, 0, 0.00000000000000000000e+00) (0, 0, 0.00000000000000000000e+00) (0, 0, 0.00000000000000000000e+00) (0, 0, 0.00000000000000000000e+00) (0, 0, 0.00000000000000000000e+00) (0, 0, 0.00000000000000000000e+00) (0, 0, 0.00000000000000000000e+00) (0, 0, 0.00000000000000000000e+00) (0, 0, 0.00000000000000000000e+00) (0, 0, 0.00000000000000000000e+00) (0, 0, 0.00000000000000000000e+00) (0, 0, 0.00000000000000000000e+00) (0, 0, 0.00000000000000000000e+00) (0, 0, 0.00000000000000000000e+00) (0, 0, 0.00000000000000000000e+00) (0, 0, 0.00000000000000000000e+00) (0, 0, 0.00000000000000000000e+00) (0, 0, 0.00000000000000000000e+00) (0, 0, 0.00000000000000000000e+00) (0, 0, 0.00000000000000000000e+00) (0, 0, 0.00000000000000000000e+00) (0, 0, 0.00000000000000000000e+00) (0, 0, 0.00000000000000000000e+00) (0, 0, 0.00000000000000000000e+00) (0, 0, 0.00000000000000000000e+00) (0, 0, 0.00000000000000000000e+00) (0, 0, 0.00000000000000000000e+00) (0, 0, 0.00000000000000000000e+00) (0, 0, 0.00000000000000000000e+00) (0, 0, 0.00000000000000000000e+00) (0, 0, 0.00000000000000000000e+00) (0, 0, 0.00000000000000000000e+00) (0, 0, 0.00000000000000000000e+00) (0, 0, 0.00000000000000000000e+00) (0, 0, 0.00000000000000000000e+00) (0, 0, 0.00000000000000000000e+00) (0, 0, 0.00000000000000000000e+00) (0, 0, 0.00000000000000000000e+00) (0, 0, 0.00000000000000000000e+00) (0, 0, 0.00000000000000000000e+00) (0, 0, 0.00000000000000000000e+00) (0, 0, 0.00000000000000000000e+00) (0, 0, 0.00000000000000000000e+00) (0, 0, 0.00000000000000000000e+00) (0, 0, 0.00000000000000000000e+00) (0, 0, 0.00000000000000000000e+00) (0, 0, 0.00000000000000000000e+00) (0, 0, 0.00000000000000000000e+00) (0, 0, 0.00000000000000000000e+00) (0, 0, 0.00000000000000000000e+00) (0, 0, 0.00000000000000000000e+00) (0, 0, 0.00000000000000000000e+00) (0, 0, 0.00000000000000000000e+00) (0, 0, 0.00000000000000000000e+00) (0, 0, 0.00000000000000000000e+00) (0, 0, 0.00000000000000000000e+00) (0, 0, 0.00000000000000000000e+00) (0, 0, 0.00000000000000000000e+00) (0, 0, 0.00000000000000000000e+00) (0, 0, 0.00000000000000000000e+00) (0, 0, 0.00000000000000000000e+00) (0, 0, 0.00000000000000000000e+00) (0, 0, 0.00000000000000000000e+00) (0, 0, 0.00000000000000000000e+00) (0, 0, 0.00000000000000000000e+00) (0, 0, 0.00000000000000000000e+00) (0, 0, 0.00000000000000000000e+00) (0, 0, 0.00000000000000000000e+00) (0, 0, 0.00000000000000000000e+00) (0, 0, 0.00000000000000000000e+00) (0, 0, 0.00000000000000000000e+00) (0, 0, 0.00000000000000000000e+00) (0, 0, 0.00000000000000000000e+00) (0, 0, 0.00000000000000000000e+00) (0, 0, 0.00000000000000000000e+00) (0, 0, 0.00000000000000000000e+00) (0, 0, 0.00000000000000000000e+00) (0, 0, 0.00000000000000000000e+00) (0, 0, 0.00000000000000000000e+00) (0, 0, 0.00000000000000000000e+00) (0, 0, 0.00000000000000000000e+00) (0, 0, 0.00000000000000000000e+00) (0, 0, 0.00000000000000000000e+00) (0, 0, 0.00000000000000000000e+00) (0, 0, 0.00000000000000000000e+00) (0, 0, 0.00000000000000000000e+00) (0, 0, 0.00000000000000000000e+00) (0, 0, 0.00000000000000000000e+00) (0, 0, 0.00000000000000000000e+00) (0, 0, 0.00000000000000000000e+00) (0, 0, 0.00000000000000000000e+00) (0, 0, 0.00000000000000000000e+00) (0, 0, 0.00000000000000000000e+00) (0, 0, 0.00000000000000000000e+00) (0, 0, 0.00000000000000000000e+00) (0, 0, 0.00000000000000000000e+00) (0, 0, 0.00000000000000000000e+00) (0, 0, 0.00000000000000000000e+00) (0, 0, 0.00000000000000000000e+00) (0, 0, 0.00000000000000000000e+00) (0, 0, 0.00000000000000000000e+00) (0, 0, 0.00000000000000000000e+00) (0, 0, 0.00000000000000000000e+00) (0, 0, 0.00000000000000000000e+00) (0, 0, 0.00000000000000000000e+00) (0, 0, 0.00000000000000000000e+00) (0, 0, 0.00000000000000000000e+00) (0, 0, 0.00000000000000000000e+00) (257, 5, 5.00000000000000000000e-01) (257, 5, 5.00000000000000000000e-01) (257, 5, 5.00000000000000000000e-01) (257, 5, 5.00000000000000000000e-01) (257, 5, 5.00000000000000000000e-01) (257, 5, 5.00000000000000000000e-01) (257, 5, 5.00000000000000000000e-01) (257, 5, 5.00000000000000000000e-01) (257, 5, 5.00000000000000000000e-01) (257, 5, 5.00000000000000000000e-01) (257, 5, 5.00000000000000000000e-01) (257, 5, 5.00000000000000000000e-01) (257, 5, 5.00000000000000000000e-01) (257, 5, 5.00000000000000000000e-01) (257, 5, 5.00000000000000000000e-01) (257, 5, 5.00000000000000000000e-01) (257, 5, 5.00000000000000000000e-01) (257, 5, 5.00000000000000000000e-01) (257, 5, 5.00000000000000000000e-01) (257, 5, 5.00000000000000000000e-01) (257, 5, 5.00000000000000000000e-01) (257, 5, 5.00000000000000000000e-01) (257, 5, 5.00000000000000000000e-01) (257, 5, 5.00000000000000000000e-01) (257, 5, 5.00000000000000000000e-01) (257, 5, 5.00000000000000000000e-01) (257, 5, 5.00000000000000000000e-01) (257, 5, 5.00000000000000000000e-01) (257, 5, 5.00000000000000000000e-01) (257, 5, 5.00000000000000000000e-01) (257, 5, 5.00000000000000000000e-01) (257, 5, 5.00000000000000000000e-01) (257, 5, 5.00000000000000000000e-01) (257, 5, 5.00000000000000000000e-01) (257, 5, 5.00000000000000000000e-01) (257, 5, 5.00000000000000000000e-01) (257, 5, 5.00000000000000000000e-01) (257, 5, 5.00000000000000000000e-01) (257, 5, 5.00000000000000000000e-01) (257, 5, 5.00000000000000000000e-01) (257, 5, 5.00000000000000000000e-01) (257, 5, 5.00000000000000000000e-01) (257, 5, 5.00000000000000000000e-01) (257, 5, 5.00000000000000000000e-01) (257, 5, 5.00000000000000000000e-01) (257, 5, 5.00000000000000000000e-01) (257, 5, 5.00000000000000000000e-01) (257, 5, 5.00000000000000000000e-01) (257, 5, 5.00000000000000000000e-01) (257, 5, 5.00000000000000000000e-01) (257, 5, 5.00000000000000000000e-01) (257, 5, 5.00000000000000000000e-01) (257, 5, 5.00000000000000000000e-01) (257, 5, 5.00000000000000000000e-01) (257, 5, 5.00000000000000000000e-01) (257, 5, 5.00000000000000000000e-01) (257, 5, 5.00000000000000000000e-01) (257, 5, 5.00000000000000000000e-01) (257, 5, 5.00000000000000000000e-01) (257, 5, 5.00000000000000000000e-01) (257, 5, 5.00000000000000000000e-01) (257, 5, 5.00000000000000000000e-01) (257, 5, 5.00000000000000000000e-01) (257, 5, 5.00000000000000000000e-01) (257, 5, 5.00000000000000000000e-01) (257, 5, 5.00000000000000000000e-01) (257, 5, 5.00000000000000000000e-01) (257, 5, 5.00000000000000000000e-01) (257, 5, 5.00000000000000000000e-01) (257, 5, 5.00000000000000000000e-01) (257, 5, 5.00000000000000000000e-01) (257, 5, 5.00000000000000000000e-01) (257, 5, 5.00000000000000000000e-01) (257, 5, 5.00000000000000000000e-01) (257, 5, 5.00000000000000000000e-01) (257, 5, 5.00000000000000000000e-01) (257, 5, 5.00000000000000000000e-01) (257, 5, 5.00000000000000000000e-01) (257, 5, 5.00000000000000000000e-01) (257, 5, 5.00000000000000000000e-01) (257, 5, 5.00000000000000000000e-01) (257, 5, 5.00000000000000000000e-01) (257, 5, 5.00000000000000000000e-01) (257, 5, 5.00000000000000000000e-01) (257, 5, 5.00000000000000000000e-01) (257, 5, 5.00000000000000000000e-01) (257, 5, 5.00000000000000000000e-01) (257, 5, 5.00000000000000000000e-01) (257, 5, 5.00000000000000000000e-01) (257, 5, 5.00000000000000000000e-01) (257, 5, 5.00000000000000000000e-01) (257, 5, 5.00000000000000000000e-01) (257, 5, 5.00000000000000000000e-01) (257, 5, 5.00000000000000000000e-01) (257, 5, 5.00000000000000000000e-01) (257, 5, 5.00000000000000000000e-01) (257, 5, 5.00000000000000000000e-01) (257, 5, 5.00000000000000000000e-01) (257, 5, 5.00000000000000000000e-01) (257, 5, 5.00000000000000000000e-01) (257, 5, 5.00000000000000000000e-01) (257, 5, 5.00000000000000000000e-01) (257, 5, 5.00000000000000000000e-01) (257, 5, 5.00000000000000000000e-01) (257, 5, 5.00000000000000000000e-01) (257, 5, 5.00000000000000000000e-01) (257, 5, 5.00000000000000000000e-01) (257, 5, 5.00000000000000000000e-01) (257, 5, 5.00000000000000000000e-01) (257, 5, 5.00000000000000000000e-01) (257, 5, 5.00000000000000000000e-01) (257, 5, 5.00000000000000000000e-01) (257, 5, 5.00000000000000000000e-01) (257, 5, 5.00000000000000000000e-01) (257, 5, 5.00000000000000000000e-01) (257, 5, 5.00000000000000000000e-01) (257, 5, 5.00000000000000000000e-01) (257, 5, 5.00000000000000000000e-01) (257, 5, 5.00000000000000000000e-01) (257, 5, 5.00000000000000000000e-01) (257, 5, 5.00000000000000000000e-01) (257, 5, 5.00000000000000000000e-01) (257, 5, 5.00000000000000000000e-01) (257, 5, 5.00000000000000000000e-01) (257, 5, 5.00000000000000000000e-01) (257, 5, 5.00000000000000000000e-01) (257, 5, 5.00000000000000000000e-01) (257, 5, 5.00000000000000000000e-01) (257, 5, 5.00000000000000000000e-01) (257, 5, 5.00000000000000000000e-01) (0, 5, 0.00000000000000000000e+00) (131, 5, 5.00000000000000000000e-01) (131, 5, 5.00000000000000000000e-01) (131, 5, 5.00000000000000000000e-01) (131, 5, 5.00000000000000000000e-01) (131, 5, 5.00000000000000000000e-01) (131, 5, 5.00000000000000000000e-01) (131, 5, 5.00000000000000000000e-01) (131, 5, 5.00000000000000000000e-01) (131, 5, 5.00000000000000000000e-01) (131, 5, 5.00000000000000000000e-01) (0, 5, 0.00000000000000000000e+00) 
connections (connected_to_neuron, weight)=(0, 1.09365209937095642090e-01) (1, 5.44506274163722991943e-02) (2, 2.24264264106750488281e-01) (3, -1.28475642204284667969e+00) (4, 4.11850772798061370850e-02) (5, -3.41565996408462524414e-01) (6, -2.22117137163877487183e-02) (7, -1.16799449920654296875e+00) (8, 4.50688064098358154297e-01) (9, -1.53109207749366760254e-01) (10, -2.26386889815330505371e-01) (11, -2.17782467603683471680e-01) (12, -2.90653020143508911133e-01) (13, -5.60868345201015472412e-02) (14, -1.00777529180049896240e-01) (15, 1.51021316647529602051e-01) (16, -1.78969711065292358398e-01) (17, 8.94919410347938537598e-02) (18, 3.48307453095912933350e-02) (19, 3.31996940076351165771e-02) (20, 2.75206007063388824463e-02) (21, -9.97639223933219909668e-02) (22, -7.07774683833122253418e-02) (23, 5.95233477652072906494e-02) (24, -2.18912437558174133301e-01) (25, -1.58132195472717285156e-01) (26, -5.87011687457561492920e-02) (27, 6.31832480430603027344e-01) (28, 9.96234640479087829590e-02) (29, -1.51360416412353515625e+00) (30, -2.79207408428192138672e-01) (31, 2.74591624736785888672e-01) (32, -4.48234826326370239258e-02) (33, 4.39302101731300354004e-02) (34, -1.06198929250240325928e-01) (35, -3.53488713502883911133e-01) (36, -4.76066097617149353027e-02) (37, -2.19585653394460678101e-02) (38, -9.16570723056793212891e-02) (39, 2.49654408544301986694e-02) (40, -7.57009983062744140625e-02) (41, 1.18925225734710693359e+00) (42, 2.49535784125328063965e-01) (43, 3.76902103424072265625e-01) (44, 5.93062527477741241455e-02) (45, -2.79043823480606079102e-01) (46, 4.77581501007080078125e-01) (47, -5.71235306560993194580e-02) (48, -2.36835807561874389648e-01) (49, -7.91174769401550292969e-02) (50, -6.02285340428352355957e-02) (51, -2.65763700008392333984e-01) (52, 2.69981086254119873047e-01) (53, -1.95589274168014526367e-01) (54, -7.28628933429718017578e-02) (55, -9.31503996253013610840e-03) (56, -1.44316986203193664551e-01) (57, 4.01698112487792968750e-01) (58, 5.81885129213333129883e-02) (59, 1.24535663053393363953e-02) (60, -7.47048035264015197754e-02) (61, -1.97558403015136718750e-01) (62, -1.09101228415966033936e-01) (63, -1.41807243227958679199e-01) (64, 3.42300385236740112305e-02) (65, -5.04352850839495658875e-04) (66, -1.66251659393310546875e-01) (67, -5.74112534523010253906e-02) (68, -1.15291267633438110352e-01) (69, -2.98306435346603393555e-01) (70, -1.83446779847145080566e-01) (71, 3.18536579608917236328e-01) (72, 9.07799452543258666992e-02) (73, 7.63775855302810668945e-02) (74, 3.90073023736476898193e-02) (75, 4.33319993317127227783e-02) (76, 4.31643910706043243408e-02) (77, -3.06095350533723831177e-02) (78, -1.51505827903747558594e-01) (79, 3.28718759119510650635e-02) (80, -1.52657434344291687012e-01) (81, -4.08939877524971961975e-03) (82, 5.33870887011289596558e-03) (83, 5.04535175859928131104e-02) (84, -1.04671016335487365723e-01) (85, 9.51171368360519409180e-02) (86, -7.21893236041069030762e-02) (87, 3.45844589173793792725e-02) (88, -1.59458369016647338867e-01) (89, -1.34357035160064697266e-01) (90, 1.85606241226196289062e-01) (91, 1.66038557887077331543e-01) (92, -1.10080264508724212646e-01) (93, 4.53004121780395507812e-01) (94, 2.30274021625518798828e-01) (95, 8.47203005105257034302e-03) (96, -5.78158088028430938721e-02) (97, -7.76803269982337951660e-02) (98, -9.94639694690704345703e-02) (99, -1.62445735186338424683e-02) (100, -1.06791362166404724121e-01) (101, -8.10648798942565917969e-02) (102, -6.79242312908172607422e-02) (103, 1.31765976548194885254e-01) (104, 5.49771497026085853577e-03) (105, 4.15331751108169555664e-01) (106, 2.29626089334487915039e-01) (107, 2.87664651870727539062e-01) (108, 2.50991940498352050781e-01) (109, 4.99293565750122070312e-01) (110, 6.66508018970489501953e-01) (111, 4.39168006181716918945e-01) (112, 7.83445611596107482910e-02) (113, -1.05797335505485534668e-01) (114, 9.49299111962318420410e-02) (115, 5.17283678054809570312e-02) (116, 1.46255627274513244629e-01) (117, 1.49669036269187927246e-01) (118, 1.02631397545337677002e-01) (119, -2.35130935907363891602e-02) (120, 6.97807818651199340820e-02) (121, 4.19586837291717529297e-01) (122, -1.90652199089527130127e-02) (123, -1.82542447000741958618e-02) (124, -3.16822640597820281982e-02) (125, 5.68925499916076660156e-01) (126, 4.14445996284484863281e-01) (127, 3.32036435604095458984e-01) (128, -5.13275600969791412354e-02) (129, -1.14828117191791534424e-01) (130, -4.21812459826469421387e-02) (131, -8.35246741771697998047e-02) (132, -8.78457874059677124023e-02) (133, 9.52502191066741943359e-02) (134, 9.71163362264633178711e-02) (135, 8.63533094525337219238e-02) (136, 1.47110223770141601562e-01) (137, -5.92491254210472106934e-02) (138, -1.74092513043433427811e-03) (139, -4.37712967395782470703e-02) (140, 1.33964279666543006897e-02) (141, -9.18684825301170349121e-02) (142, 5.72534017264842987061e-02) (143, -7.51382112503051757812e-02) (144, -3.09645999222993850708e-02) (145, -1.11028335988521575928e-01) (146, -1.23757362365722656250e-01) (147, -1.33520483970642089844e-01) (148, -5.32011017203330993652e-02) (149, 2.39824488759040832520e-01) (150, 1.03263221681118011475e-01) (151, 2.05047167837619781494e-02) (152, 3.10587376356124877930e-01) (153, 3.25955182313919067383e-01) (154, -9.60382446646690368652e-02) (155, 4.46681290864944458008e-01) (156, -1.78168863058090209961e-02) (157, -6.02596551179885864258e-02) (158, -1.16819992661476135254e-01) (159, 4.50160633772611618042e-03) (160, 2.42445722222328186035e-01) (161, 7.22933979704976081848e-03) (162, -3.48604544997215270996e-02) (163, -2.43113145232200622559e-01) (164, -1.49490788578987121582e-01) (165, 2.46579185128211975098e-01) (166, -1.09396791458129882812e+00) (167, -2.28869114071130752563e-02) (168, 2.20082104206085205078e-01) (169, 2.52468407154083251953e-01) (170, 2.10085049271583557129e-01) (171, 5.17161965370178222656e-01) (172, 2.86210626363754272461e-02) (173, -2.37274505198001861572e-02) (174, -2.14541517198085784912e-02) (175, 6.66041001677513122559e-02) (176, 1.64138510823249816895e-01) (177, 1.04851365089416503906e-01) (178, -8.61883014440536499023e-02) (179, -1.33366258814930915833e-02) (180, -5.95821179449558258057e-02) (181, -4.25215512514114379883e-02) (182, -6.34975731372833251953e-02) (183, -1.42644643783569335938e-01) (184, 1.98492974042892456055e-01) (185, 1.34369343519210815430e-01) (186, 2.02063351869583129883e-01) (187, -1.92695111036300659180e-01) (188, 3.84437471628189086914e-01) (189, 1.04825362563133239746e-01) (190, -3.53846400976181030273e-02) (191, -2.59967073798179626465e-02) (192, -1.23711481690406799316e-01) (193, 8.26441571116447448730e-02) (194, 3.69110882282257080078e-01) (195, -1.03093162178993225098e-01) (196, -2.30273082852363586426e-02) (197, 9.59141701459884643555e-02) (198, 1.04711525142192840576e-01) (199, 4.44423705339431762695e-02) (200, -6.43335506319999694824e-02) (201, -4.30930927395820617676e-02) (202, -6.47979741916060447693e-03) (203, 7.35126212239265441895e-02) (204, 2.50507116317749023438e-01) (205, 2.82090783119201660156e-01) (206, -2.86997016519308090210e-03) (207, -5.14853447675704956055e-02) (208, 5.50712551921606063843e-03) (209, 3.13467592000961303711e-01) (210, 2.92444974184036254883e-01) (211, 1.30879521369934082031e-01) (212, -2.01031312346458435059e-01) (213, 1.08980592340230941772e-02) (214, -1.37240076437592506409e-02) (215, -1.22671844437718391418e-02) (216, 1.96343213319778442383e-02) (217, 6.29606246948242187500e-02) (218, -1.92797593772411346436e-02) (219, 9.25529599189758300781e-02) (220, 2.09776102565228939056e-03) (221, 8.59357416629791259766e-02) (222, 1.55535534024238586426e-01) (223, -4.69856485724449157715e-02) (224, 4.16085198521614074707e-02) (225, -3.18221142515540122986e-03) (226, 5.21264225244522094727e-02) (227, -1.91602692008018493652e-01) (228, -5.66892504692077636719e-01) (229, -1.20258487761020660400e-01) (230, -2.17120543122291564941e-01) (231, -1.21621852740645408630e-02) (232, 5.83655945956707000732e-02) (233, -8.17194059491157531738e-02) (234, 4.70993041992187500000e-01) (235, 5.37815392017364501953e-02) (236, -1.27610102295875549316e-01) (237, 3.01969610154628753662e-02) (238, -6.25733137130737304688e-02) (239, 1.70115217566490173340e-01) (240, -2.34141826629638671875e-01) (241, 1.39794290065765380859e-01) (242, -8.27811285853385925293e-02) (243, -7.94855877757072448730e-02) (244, 4.19564902782440185547e-01) (245, -4.15666289627552032471e-02) (246, -1.20111095905303955078e+00) (247, 8.44236016273498535156e-01) (248, 5.47559931874275207520e-02) (249, -5.18048942089080810547e-01) (250, 4.98150810599327087402e-02) (251, -7.56740048527717590332e-02) (252, 1.79941147565841674805e-01) (253, -1.14463663101196289062e+00) (254, 9.71521079540252685547e-01) (255, 1.36381775140762329102e-01) (256, 9.14838016033172607422e-02) (0, 1.49998571777343750000e+03) (1, 6.55668945312500000000e+02) (2, 1.50000000000000000000e+03) (3, 1.50000000000000000000e+03) (4, 2.01890990138053894043e-01) (5, 2.23422256469726562500e+02) (6, 1.47058458328247070312e+01) (7, -1.46477648925781250000e+03) (8, 3.57692222595214843750e+01) (9, 4.78557395935058593750e+00) (10, 4.73719882965087890625e+00) (11, 5.36142706871032714844e-01) (12, -4.36679344177246093750e+01) (13, 1.33716113281250000000e+03) (14, 9.37287986278533935547e-01) (15, 1.14326855468750000000e+03) (16, 1.50000000000000000000e+03) (17, 1.06065595149993896484e+00) (18, 6.63615047931671142578e-01) (19, 4.91898298263549804688e-01) (20, 6.51654154062271118164e-02) (21, 6.29356980323791503906e-01) (22, 1.50000000000000000000e+03) (23, 1.86990320682525634766e+00) (24, 3.64437133073806762695e-01) (25, 2.78525114059448242188e-01) (26, 4.79243472218513488770e-02) (27, -5.58728790283203125000e+01) (28, 1.49999987792968750000e+03) (29, 7.68536329269409179688e+00) (30, 1.50000000000000000000e+03) (31, 1.53982849121093750000e+01) (32, 1.27533531188964843750e+00) (33, 2.26303905248641967773e-01) (34, 5.12199223041534423828e-01) (35, 3.32588624954223632812e+00) (36, 4.16060352325439453125e+00) (37, 3.89670394361019134521e-02) (38, 1.96886897087097167969e-01) (39, 1.05933390557765960693e-01) (40, -6.95916564941406250000e+02) (41, -8.83192443847656250000e+00) (42, 5.07552996277809143066e-02) (43, -9.01640510559082031250e+00) (44, 1.48029064941406250000e+03) (45, -1.48805126953125000000e+03) (46, -1.49969421386718750000e+03) (47, -8.83985839843750000000e+02) (48, 6.92296147346496582031e-01) (49, 4.67292487621307373047e-01) (50, 9.57270324230194091797e-01) (51, 1.11661338806152343750e+00) (52, 3.05761795043945312500e+01) (53, 7.12406311035156250000e+01) (54, 1.66809380054473876953e+00) (55, 1.29912011718750000000e+03) (56, 1.49950891113281250000e+03) (57, 1.24063812196254730225e-01) (58, 2.71711349487304687500e-01) (59, 4.13013696670532226562e-01) (60, 1.60211884975433349609e+00) (61, -6.47080612182617187500e+00) (62, 1.20156383514404296875e+00) (63, 5.14082252979278564453e-01) (64, 1.49968530273437500000e+03) (65, 6.34528696537017822266e-01) (66, 2.41915512084960937500e+01) (67, 1.49999987792968750000e+03) (68, 1.87792388916015625000e+02) (69, 1.00090906023979187012e-01) (70, 6.89717289060354232788e-03) (71, 6.20425462722778320312e-01) (72, 9.29627180099487304688e-01) (73, 3.00942397117614746094e+00) (74, 3.59938919544219970703e-01) (75, 5.03809750080108642578e-01) (76, 5.26679575443267822266e-01) (77, 9.73520278930664062500e+00) (78, 6.94590270519256591797e-01) (79, 1.53804850578308105469e+00) (80, 3.34708958864212036133e-01) (81, 9.47037048339843750000e+02) (82, 1.59274072647094726562e+01) (83, 1.73698749542236328125e+01) (84, 9.06772255897521972656e-01) (85, 9.91129577636718750000e+02) (86, 1.40438476562500000000e+03) (87, 4.97762441635131835938e+00) (88, 1.49999707031250000000e+03) (89, 3.46523344516754150391e-01) (90, 1.37797251343727111816e-01) (91, 4.47575822472572326660e-02) (92, 3.96046966314315795898e-01) (93, -2.12775409221649169922e-01) (94, 1.38774022459983825684e-01) (95, 1.50000000000000000000e+03) (96, 1.50000000000000000000e+03) (97, 1.49402185058593750000e+03) (98, 1.60830223560333251953e+00) (99, 1.80671253204345703125e+01) (100, 1.01362133026123046875e+00) (101, 9.06324291229248046875e+00) (102, 1.05728551745414733887e-01) (103, 1.11603510379791259766e+00) (104, 2.70737379789352416992e-01) (105, 4.99143809080123901367e-01) (106, 1.96783617138862609863e-01) (107, 1.24540120363235473633e-01) (108, 2.67954254150390625000e+00) (109, 5.25038267369382083416e-05) (110, -1.50438681244850158691e-01) (111, 4.76164627075195312500e+01) (112, 1.50000000000000000000e+03) (113, 1.49928295898437500000e+03) (114, 8.16633892059326171875e+00) (115, 1.79264044761657714844e+00) (116, 2.50590109825134277344e+00) (117, 4.84487199783325195312e+00) (118, 8.73791456222534179688e-01) (119, 3.08516407012939453125e+00) (120, 4.79744243621826171875e+00) (121, 3.75055283308029174805e-01) (122, 1.71317815780639648438e-01) (123, -8.84758532047271728516e-02) (124, -2.08907917141914367676e-01) (125, -1.06780314818024635315e-02) (126, 1.27073198556900024414e-01) (127, 1.49999926757812500000e+03) (128, 7.76108779907226562500e+01) (129, 5.66769790649414062500e+01) (130, 3.28189544677734375000e+02) (131, 2.27273864746093750000e+01) (132, 6.45421743392944335938e+00) (133, 5.17206132411956787109e-01) (134, 2.73617684841156005859e-01) (135, -4.33416552841663360596e-02) (136, 1.71152919530868530273e-01) (137, 5.54905273437500000000e+02) (138, 3.32916545867919921875e+00) (139, 3.37344482421875000000e+02) (140, -8.20701047778129577637e-02) (141, 4.99634474515914916992e-01) (142, 1.64362319946289062500e+02) (143, 1.67582740783691406250e+01) (144, 1.11154174804687500000e+00) (145, 1.54452395439147949219e+00) (146, -2.32411384582519531250e+00) (147, 1.50000000000000000000e+03) (148, 4.33278024196624755859e-01) (149, 4.46263134479522705078e-01) (150, 4.14911925792694091797e-01) (151, 2.73308008909225463867e-01) (152, 6.19787462055683135986e-02) (153, 2.79364681243896484375e+00) (154, -6.98511376976966857910e-02) (155, -4.68525998294353485107e-02) (156, 1.79684534668922424316e-01) (157, 5.78920304775238037109e-01) (158, 3.19720089435577392578e-01) (159, 4.78320419788360595703e-01) (160, -9.72703158855438232422e-01) (161, -1.65677175391465425491e-03) (162, -3.38084840774536132812e+00) (163, 1.00214350223541259766e+00) (164, 4.51200866699218750000e+01) (165, 2.91120123863220214844e+00) (166, 4.29244089126586914062e+00) (167, 3.91310423612594604492e-01) (168, 1.37078881263732910156e+00) (169, 6.50732517242431640625e-01) (170, 9.38861072063446044922e-02) (171, 7.62638896703720092773e-02) (172, -7.21456480026245117188e+00) (173, -1.86572775244712829590e-01) (174, -3.73293571174144744873e-02) (175, 3.70025694370269775391e-01) (176, 3.20952206850051879883e-01) (177, 1.38968348503112792969e-01) (178, 1.67618438601493835449e-01) (179, 6.00665330886840820312e-01) (180, 2.74630403518676757812e+00) (181, 9.29180443286895751953e-01) (182, 1.50000000000000000000e+03) (183, 6.50723571777343750000e+01) (184, 1.27074873447418212891e+00) (185, 3.42034041881561279297e-01) (186, 2.98309653997421264648e-01) (187, 3.26534897089004516602e-01) (188, 3.06034594774246215820e-01) (189, 1.49344727396965026855e-01) (190, 4.59728464484214782715e-02) (191, 1.33177444338798522949e-01) (192, 2.51509338617324829102e-01) (193, 8.84165242314338684082e-02) (194, -1.59026403427124023438e+01) (195, -6.33303225040435791016e-01) (196, 1.78447842597961425781e-01) (197, -8.11433345079421997070e-02) (198, 3.20658624172210693359e-01) (199, 6.57738685607910156250e-01) (200, 1.39850401878356933594e+00) (201, 1.49985180664062500000e+03) (202, 1.71606168150901794434e-01) (203, 2.81565338373184204102e-01) (204, 9.12261188030242919922e-01) (205, 1.70542165637016296387e-01) (206, 8.74757990241050720215e-02) (207, 2.65831332653760910034e-02) (208, 2.30664998292922973633e-01) (209, 9.54273760318756103516e-01) (210, 4.50525321960449218750e+01) (211, -5.49053311347961425781e-01) (212, 3.30155193805694580078e-02) (213, -2.60253343731164932251e-02) (214, 1.29874676465988159180e-01) (215, 3.17205674946308135986e-02) (216, 3.01040124893188476562e+00) (217, 1.49996044921875000000e+03) (218, 5.11917686462402343750e+00) (219, 1.50000000000000000000e+03) (220, 1.50000000000000000000e+03) (221, 9.66070532798767089844e-01) (222, 1.06723062694072723389e-01) (223, 1.49975549316406250000e+03) (224, 6.90167918801307678223e-02) (225, -1.02997004985809326172e-01) (226, -4.01168537139892578125e+00) (227, 1.74379081726074218750e+01) (228, 1.62179517745971679688e+00) (229, -1.03466564941406250000e+03) (230, -2.48897552490234375000e-01) (231, 2.16661915183067321777e-01) (232, 1.82514265179634094238e-01) (233, 1.83649301528930664062e-01) (234, 2.92113181203603744507e-02) (235, 8.40051147460937500000e+02) (236, 7.99518823623657226562e-01) (237, 2.28980332612991333008e-01) (238, 1.49742870330810546875e+01) (239, 1.49999938964843750000e+03) (240, 9.05872642993927001953e-01) (241, 7.05640614032745361328e-01) (242, 1.50000000000000000000e+03) (243, 1.49999731445312500000e+03) (244, -1.49970642089843750000e+03) (245, 1.45864282226562500000e+03) (246, 1.50000000000000000000e+03) (247, 4.14002656936645507812e+00) (248, 2.50801677703857421875e+01) (249, 2.01207041740417480469e-01) (250, 6.37230053544044494629e-02) (251, 1.12960487604141235352e-01) (252, 1.83186233043670654297e-02) (253, 3.13905487060546875000e+02) (254, 1.49730273437500000000e+03) (255, -1.49976342773437500000e+03) (256, -2.81463116407394409180e-02) (0, 1.09474435448646545410e-01) (1, -4.85957562923431396484e-02) (2, -5.83501636981964111328e-01) (3, 3.42444717884063720703e-01) (4, -2.99353986978530883789e-01) (5, 4.20503430068492889404e-02) (6, 3.54450672864913940430e-01) (7, 9.36766862869262695312e-01) (8, -1.50626972317695617676e-01) (9, 4.73171919584274291992e-01) (10, 3.76516997814178466797e-01) (11, 6.64170384407043457031e-02) (12, -5.15283465385437011719e-01) (13, 6.56194210052490234375e-01) (14, 1.82323351502418518066e-01) (15, 1.57591712474822998047e+00) (16, 2.90730804204940795898e-01) (17, -6.34493604302406311035e-02) (18, 9.15407091379165649414e-02) (19, 9.32365190237760543823e-03) (20, 2.65425108373165130615e-02) (21, 1.19958467781543731689e-01) (22, -3.79757225513458251953e-01) (23, -2.48628318309783935547e-01) (24, -2.16844990849494934082e-01) (25, -4.22254920005798339844e-01) (26, -3.51635485887527465820e-01) (27, -4.26664829254150390625e-01) (28, 1.78217101097106933594e+00) (29, -6.58145332336425781250e+00) (30, 7.58780717849731445312e-01) (31, -4.21992689371109008789e-01) (32, 4.25190627574920654297e-01) (33, -1.38182103633880615234e-01) (34, -2.27533522993326187134e-02) (35, -3.45553760416805744171e-03) (36, -1.43804788589477539062e-01) (37, -3.63770723342895507812e-02) (38, -2.46665887534618377686e-02) (39, -1.24813169240951538086e-01) (40, -2.94332891702651977539e-01) (41, -3.90709102153778076172e-01) (42, 2.97613829374313354492e-01) (43, -2.51800984144210815430e-01) (44, 1.05541539192199707031e+00) (45, 3.44482898712158203125e-01) (46, 1.83458641171455383301e-01) (47, -2.53964662551879882812e-02) (48, -1.98851022869348526001e-02) (49, -1.05923376977443695068e-01) (50, -1.28252163529396057129e-01) (51, 2.46697217226028442383e-01) (52, 7.38429129123687744141e-02) (53, -3.13142575323581695557e-02) (54, -1.30463689565658569336e-01) (55, -5.61437122523784637451e-02) (56, -7.11685940623283386230e-02) (57, -1.02535739541053771973e-01) (58, -7.32040181756019592285e-02) (59, -2.05725878477096557617e-01) (60, -2.10785925388336181641e-01) (61, -1.62534102797508239746e-01) (62, -4.37867254018783569336e-01) (63, -8.99504125118255615234e-02) (64, 5.85624650120735168457e-02) (65, 5.66734485328197479248e-02) (66, 7.35953450202941894531e-02) (67, 2.61493436992168426514e-02) (68, -2.12701529264450073242e-01) (69, -2.16917976737022399902e-01) (70, -2.31059014797210693359e-01) (71, -1.37538790702819824219e-01) (72, 6.62199631333351135254e-02) (73, -9.10978987812995910645e-02) (74, -1.51523575186729431152e-01) (75, -4.31724339723587036133e-02) (76, -2.03185424208641052246e-01) (77, -1.19477428495883941650e-01) (78, 3.70699958875775337219e-03) (79, -8.31498391926288604736e-03) (80, -2.85608261823654174805e-01) (81, 2.76812678202986717224e-03) (82, 1.77482888102531433105e-01) (83, 2.12409302592277526855e-01) (84, -1.28015190362930297852e-01) (85, -2.80104845762252807617e-01) (86, -3.13284307718276977539e-01) (87, -7.55322799086570739746e-02) (88, -9.53387841582298278809e-02) (89, -2.14848771691322326660e-01) (90, -9.64586287736892700195e-02) (91, -1.10322333872318267822e-01) (92, -1.97336658835411071777e-01) (93, 5.29436171054840087891e-02) (94, -7.34297111630439758301e-02) (95, -5.26447072625160217285e-02) (96, -1.01210571825504302979e-01) (97, 7.92155414819717407227e-02) (98, -1.74145326018333435059e-01) (99, 1.98068246245384216309e-01) (100, -1.09756357967853546143e-01) (101, 9.58323851227760314941e-02) (102, -1.71745792031288146973e-01) (103, -1.46200656890869140625e-01) (104, -1.02395206689834594727e-01) (105, 3.08861196041107177734e-01) (106, -9.63780730962753295898e-02) (107, -2.59984493255615234375e-01) (108, -1.14176057279109954834e-01) (109, 3.42419773340225219727e-01) (110, 2.15918406844139099121e-01) (111, -4.75722663104534149170e-02) (112, 1.75564602017402648926e-01) (113, 3.41422051191329956055e-01) (114, -1.76510170102119445801e-01) (115, 1.81419894099235534668e-01) (116, -9.10138189792633056641e-02) (117, 1.19030512869358062744e-01) (118, -8.06307941675186157227e-02) (119, 6.02467283606529235840e-02) (120, -1.27432689070701599121e-01) (121, -1.17630407214164733887e-01) (122, -9.68665629625320434570e-02) (123, -9.75087285041809082031e-02) (124, -3.17464135587215423584e-02) (125, 2.47664108872413635254e-01) (126, 2.63468891382217407227e-01) (127, -1.01170517504215240479e-01) (128, 6.63813054561614990234e-02) (129, 2.64458566904067993164e-01) (130, 3.69310192763805389404e-02) (131, -2.30701807886362075806e-02) (132, -1.03713765740394592285e-01) (133, -1.97665274143218994141e-01) (134, 7.19630345702171325684e-03) (135, -1.47249653935432434082e-01) (136, -1.44371986389160156250e-01) (137, 1.08001269400119781494e-02) (138, -5.08439168334007263184e-02) (139, -3.96234355866909027100e-02) (140, -5.72909116744995117188e-02) (141, -4.72857542335987091064e-02) (142, -3.17982099950313568115e-02) (143, -1.41914144158363342285e-01) (144, 3.20264667272567749023e-01) (145, 1.36906579136848449707e-01) (146, 3.33017230033874511719e-01) (147, 8.59908014535903930664e-02) (148, 2.43034362792968750000e-01) (149, -2.66595408320426940918e-02) (150, -2.56057292222976684570e-01) (151, 3.47969293594360351562e-01) (152, -2.06313014030456542969e-01) (153, -1.23045116662979125977e-01) (154, -3.04067879915237426758e-02) (155, 6.94706887006759643555e-02) (156, 3.30684743821620941162e-02) (157, -1.13397210836410522461e-01) (158, -8.00209119915962219238e-02) (159, -2.71709430962800979614e-02) (160, -1.22481383383274078369e-01) (161, -2.66746934503316879272e-02) (162, -7.99457430839538574219e-02) (163, 2.90242373943328857422e-01) (164, 2.56122469902038574219e-01) (165, 1.29826337099075317383e-01) (166, 5.05707189440727233887e-02) (167, -2.86389678716659545898e-01) (168, -3.25093328952789306641e-01) (169, -2.86020666360855102539e-01) (170, -1.29172340035438537598e-01) (171, -1.34028211236000061035e-01) (172, -4.66425679624080657959e-02) (173, 1.12500088289380073547e-02) (174, -1.68026797473430633545e-02) (175, -4.87179197371006011963e-02) (176, -9.32866558432579040527e-02) (177, 4.36889678239822387695e-02) (178, 9.96043756604194641113e-02) (179, -7.72933885455131530762e-02) (180, 5.96319846808910369873e-02) (181, -5.07751554250717163086e-02) (182, -8.92466157674789428711e-02) (183, -3.48035097122192382812e-01) (184, -1.70176535844802856445e-01) (185, 2.19706054776906967163e-02) (186, -4.08046096563339233398e-02) (187, -1.79885745048522949219e-01) (188, -1.33703619241714477539e-01) (189, -3.48885469138622283936e-02) (190, -7.37540721893310546875e-02) (191, -1.02572515606880187988e-01) (192, -2.42254063487052917480e-01) (193, -6.14817962050437927246e-02) (194, -5.23955345153808593750e-01) (195, 2.32008710503578186035e-01) (196, -3.68655063211917877197e-02) (197, -3.55722084641456604004e-02) (198, -1.06739373877644538879e-02) (199, -6.39263167977333068848e-02) (200, 2.57325712591409683228e-02) (201, 5.13081112876534461975e-03) (202, 4.32779006659984588623e-02) (203, -7.42412060499191284180e-02) (204, -3.06560188531875610352e-01) (205, -3.21718364953994750977e-01) (206, -3.35778743028640747070e-02) (207, 1.58102959394454956055e-01) (208, 2.35647372901439666748e-02) (209, 9.68115702271461486816e-02) (210, 1.05016008019447326660e-01) (211, 6.29684031009674072266e-01) (212, -3.79504203796386718750e-01) (213, -2.85522431135177612305e-01) (214, -2.00825765728950500488e-01) (215, -1.37176662683486938477e-01) (216, -1.95394501090049743652e-01) (217, -1.54016437008976936340e-02) (218, -9.95776057243347167969e-02) (219, -4.77210469543933868408e-02) (220, -3.50749976933002471924e-02) (221, -1.26447707414627075195e-01) (222, -1.79290473461151123047e-01) (223, -1.44873932003974914551e-01) (224, 1.78641583770513534546e-02) (225, -1.32593708112835884094e-02) (226, -1.82626232504844665527e-01) (227, -5.94889640808105468750e-01) (228, -8.16759169101715087891e-02) (229, -4.53518480062484741211e-01) (230, 6.59632161259651184082e-02) (231, -2.12624654173851013184e-01) (232, 1.63452088832855224609e-01) (233, -3.97513449192047119141e-01) (234, -8.38812470436096191406e-01) (235, -2.17705160379409790039e-01) (236, -7.63507783412933349609e-02) (237, -7.95132592320442199707e-02) (238, -2.89807450026273727417e-02) (239, -3.49202275276184082031e-01) (240, -2.00693041086196899414e-01) (241, 1.40487612225115299225e-03) (242, 1.81153863668441772461e-01) (243, 3.09084475040435791016e-01) (244, 4.87507283687591552734e-01) (245, -3.36237728595733642578e-01) (246, -2.28158414363861083984e-01) (247, 7.92146921157836914062e-01) (248, 8.73738706111907958984e-01) (249, -3.21480005979537963867e-01) (250, -3.28212112188339233398e-01) (251, -2.51937508583068847656e-01) (252, -4.76001054048538208008e-01) (253, -7.92049020528793334961e-02) (254, 7.40149691700935363770e-02) (255, 9.57876443862915039062e-02) (256, -2.40658111870288848877e-02) (0, -1.55024826526641845703e-01) (1, -8.97477686405181884766e-01) (2, -5.92076957225799560547e-01) (3, 2.39891842007637023926e-01) (4, 1.24119363725185394287e-01) (5, 3.34564775228500366211e-01) (6, 1.00699059665203094482e-01) (7, 2.55058646202087402344e-01) (8, 3.59228402376174926758e-01) (9, 1.27550050616264343262e-01) (10, 1.79772540926933288574e-01) (11, 2.90968388319015502930e-01) (12, 2.42080599069595336914e-01) (13, 2.54778832197189331055e-01) (14, 3.29850882291793823242e-01) (15, 2.78706461191177368164e-01) (16, -1.85218140482902526855e-01) (17, 2.57293343544006347656e-01) (18, 2.46816083788871765137e-01) (19, 3.76859009265899658203e-01) (20, 3.51429790258407592773e-01) (21, 3.25987190008163452148e-01) (22, 2.47391492128372192383e-01) (23, -3.73383253812789916992e-01) (24, 2.31692582368850708008e-01) (25, 2.01679095625877380371e-01) (26, 1.71212151646614074707e-01) (27, 2.62265652418136596680e-01) (28, 1.21970050036907196045e-01) (29, 3.49464893341064453125e-01) (30, 2.43783369660377502441e-01) (31, 1.60042896866798400879e-01) (32, 3.35247159004211425781e-01) (33, 1.98321379721164703369e-02) (34, 2.10752010345458984375e-01) (35, 4.20336902141571044922e-01) (36, 4.11590814590454101562e-01) (37, -3.49538624286651611328e-01) (38, -2.73586571216583251953e-01) (39, 1.90815329551696777344e-01) (40, 1.67519196867942810059e-01) (41, 2.22033873200416564941e-01) (42, 1.37445032596588134766e-01) (43, 2.23290577530860900879e-01) (44, 4.23787951469421386719e-01) (45, 6.34405970573425292969e-01) (46, 3.38218301534652709961e-01) (47, 2.43978366255760192871e-01) (48, 4.40743625164031982422e-01) (49, 3.48671793937683105469e-01) (50, 2.04999297857284545898e-01) (51, 5.09597122669219970703e-01) (52, 4.36246961355209350586e-01) (53, 2.57517933845520019531e-01) (54, 8.57297927141189575195e-02) (55, 4.63528841733932495117e-01) (56, 2.77622491121292114258e-01) (57, 3.45036149024963378906e-01) (58, 3.46679121255874633789e-01) (59, 2.85195261240005493164e-01) (60, 2.12186112999916076660e-01) (61, 4.34847354888916015625e-01) (62, 4.30550962686538696289e-01) (63, 4.13623392581939697266e-01) (64, 3.94676953554153442383e-01) (65, 4.67118203639984130859e-01) (66, 3.67179661989212036133e-01) (67, 2.72443771362304687500e-01) (68, 1.55374407768249511719e-01) (69, 3.42119157314300537109e-01) (70, 3.08418095111846923828e-01) (71, 1.21648330241441726685e-02) (72, 3.37107390165328979492e-01) (73, 2.40476444363594055176e-01) (74, 3.24828714132308959961e-01) (75, 3.54842782020568847656e-01) (76, 3.85221004486083984375e-01) (77, 4.40029352903366088867e-01) (78, 4.40285980701446533203e-01) (79, 1.53475835919380187988e-01) (80, 5.19302368164062500000e-01) (81, 3.76182734966278076172e-01) (82, 2.92211472988128662109e-01) (83, 1.02127112448215484619e-01) (84, 1.73859238624572753906e-01) (85, 2.74572938680648803711e-01) (86, 2.88444846868515014648e-01) (87, 1.51360988616943359375e-01) (88, 1.44270554184913635254e-01) (89, 3.45063656568527221680e-01) (90, 1.97257414460182189941e-01) (91, 2.64011740684509277344e-01) (92, 2.55103409290313720703e-01) (93, 3.57746362686157226562e-01) (94, 2.10958078503608703613e-01) (95, 2.65923619270324707031e-01) (96, 4.41418975591659545898e-01) (97, 2.57457554340362548828e-01) (98, 1.44183963537216186523e-01) (99, 1.00541464984416961670e-01) (100, 1.39653474092483520508e-01) (101, 2.19263941049575805664e-01) (102, 3.63617956638336181641e-01) (103, 9.09057930111885070801e-02) (104, 3.65708351135253906250e-01) (105, 2.09417358040809631348e-01) (106, 3.61945480108261108398e-01) (107, 1.36181727051734924316e-01) (108, 3.10428828001022338867e-01) (109, 4.02020692825317382812e-01) (110, 3.67324411869049072266e-01) (111, 3.44922512769699096680e-01) (112, 3.19602817296981811523e-01) (113, 3.54956656694412231445e-01) (114, 2.79717206954956054688e-01) (115, 1.82460457086563110352e-01) (116, 2.54264116287231445312e-01) (117, 1.82866737246513366699e-01) (118, 3.22783499956130981445e-01) (119, 3.14898490905761718750e-01) (120, 3.56258541345596313477e-01) (121, 2.34523713588714599609e-01) (122, 1.37770324945449829102e-01) (123, 4.28042888641357421875e-01) (124, 3.86861830949783325195e-01) (125, 3.75587552785873413086e-01) (126, 3.46877604722976684570e-01) (127, 3.33491265773773193359e-01) (128, 2.69274950027465820312e-01) (129, 1.23024262487888336182e-01) (130, 1.61115065217018127441e-01) (131, 1.73884883522987365723e-01) (132, 1.45907059311866760254e-01) (133, 3.14533829689025878906e-01) (134, 3.69446754455566406250e-01) (135, 4.81281578540802001953e-01) (136, 1.94602474570274353027e-01) (137, 1.58931285142898559570e-01) (138, 3.97315531969070434570e-01) (139, 2.74427503347396850586e-01) (140, 3.29454272985458374023e-01) (141, 3.51969659328460693359e-01) (142, 4.44542318582534790039e-01) (143, 2.14061960577964782715e-01) (144, 3.88916760683059692383e-01) (145, 3.81119370460510253906e-01) (146, 1.93215698003768920898e-01) (147, 1.07866629958152770996e-01) (148, 6.04717284440994262695e-02) (149, 1.41238376498222351074e-01) (150, 3.62490683794021606445e-01) (151, 1.69901117682456970215e-01) (152, 2.01579093933105468750e-01) (153, 9.05580967664718627930e-02) (154, 1.26605063676834106445e-01) (155, 4.65389639139175415039e-01) (156, 3.52195620536804199219e-01) (157, 3.91687005758285522461e-01) (158, 3.53399366140365600586e-01) (159, 3.77192616462707519531e-01) (160, 2.84343928098678588867e-01) (161, 2.24155783653259277344e-01) (162, 2.78189539909362792969e-01) (163, 3.22118341922760009766e-01) (164, 1.02546311914920806885e-01) (165, 1.63561746478080749512e-01) (166, 2.17914283275604248047e-01) (167, 9.45637673139572143555e-02) (168, 1.18713870644569396973e-01) (169, 1.91848665475845336914e-01) (170, 2.01958641409873962402e-01) (171, 3.65248113870620727539e-01) (172, 4.43195044994354248047e-01) (173, 5.01451730728149414062e-01) (174, 4.94294673204421997070e-01) (175, 2.99115210771560668945e-01) (176, 2.77095794677734375000e-01) (177, 3.93451660871505737305e-01) (178, 2.55890071392059326172e-01) (179, 8.61758813261985778809e-02) (180, 2.15424075722694396973e-01) (181, 2.29513794183731079102e-01) (182, 1.63143143057823181152e-01) (183, 2.29572117328643798828e-01) (184, 2.67654210329055786133e-01) (185, 3.69345575571060180664e-01) (186, 3.62466007471084594727e-01) (187, 4.43050324916839599609e-01) (188, 3.39874207973480224609e-01) (189, 4.76329922676086425781e-01) (190, 3.66989731788635253906e-01) (191, 3.22497040033340454102e-01) (192, 3.58007192611694335938e-01) (193, 4.07330989837646484375e-01) (194, 2.62768089771270751953e-01) (195, -3.55853736400604248047e-01) (196, 2.14203491806983947754e-01) (197, 4.77039515972137451172e-01) (198, 4.14596349000930786133e-01) (199, 4.47001308202743530273e-01) (200, 4.39277499914169311523e-01) (201, 5.12311637401580810547e-01) (202, 4.85713005065917968750e-01) (203, 4.89939391613006591797e-01) (204, 3.55989396572113037109e-01) (205, 3.92348647117614746094e-01) (206, 4.28932547569274902344e-01) (207, 3.69048863649368286133e-01) (208, 2.69240051507949829102e-01) (209, 3.45134854316711425781e-01) (210, 4.64017987251281738281e-01) (211, -7.37097263336181640625e-02) (212, -6.52742385864257812500e-02) (213, 2.48815476894378662109e-01) (214, 4.49610650539398193359e-01) (215, 3.55142951011657714844e-01) (216, 3.27044188976287841797e-01) (217, 3.68101894855499267578e-01) (218, 3.85184347629547119141e-01) (219, 4.78585630655288696289e-01) (220, 4.86185073852539062500e-01) (221, 4.79591727256774902344e-01) (222, 4.15316820144653320312e-01) (223, 3.02438527345657348633e-01) (224, 2.44995936751365661621e-01) (225, 4.01571363210678100586e-01) (226, 3.60709242522716522217e-02) (227, -3.42819356918334960938e+00) (228, 2.29102373123168945312e-01) (229, 1.78908973932266235352e-01) (230, 1.46173700690269470215e-01) (231, 1.90413355827331542969e-01) (232, 2.15892016887664794922e-01) (233, 2.70204037427902221680e-01) (234, 1.24960578978061676025e-01) (235, 2.71331787109375000000e-01) (236, 2.89240896701812744141e-01) (237, 4.00747925043106079102e-01) (238, 4.11888986825942993164e-01) (239, 3.94206851720809936523e-01) (240, 2.87627220153808593750e-01) (241, 2.31078535318374633789e-01) (242, 2.60573685169219970703e-01) (243, 2.38902807235717773438e-01) (244, 2.46648803353309631348e-01) (245, 3.66094797849655151367e-01) (246, 1.82257488369941711426e-01) (247, 2.18217164278030395508e-01) (248, 2.92974412441253662109e-01) (249, 1.63494512438774108887e-01) (250, 2.62861639261245727539e-01) (251, 2.23408192396163940430e-01) (252, 1.85899794101715087891e-01) (253, 5.53029417991638183594e-01) (254, 6.83769345283508300781e-01) (255, -4.16603374481201171875e+00) (256, 1.85452789068222045898e-01) (0, 4.50367003679275512695e-01) (1, 8.78677308559417724609e-01) (2, 1.34658467769622802734e+00) (3, 6.21377170085906982422e-01) (4, 6.51076078414916992188e-01) (5, 6.63327515125274658203e-01) (6, 6.14034354686737060547e-01) (7, 4.58416342735290527344e-01) (8, 9.70491543412208557129e-02) (9, 5.96738755702972412109e-02) (10, 1.38694234192371368408e-03) (11, 8.25784802436828613281e-02) (12, 1.46595478057861328125e-01) (13, 3.99379670619964599609e-01) (14, 2.36662968993186950684e-01) (15, 3.09600859880447387695e-01) (16, -3.28564085066318511963e-02) (17, 3.01124870777130126953e-01) (18, 1.94620653986930847168e-01) (19, 4.06006217002868652344e-01) (20, 2.63462275266647338867e-01) (21, 2.29829624295234680176e-01) (22, 5.68689227104187011719e-01) (23, 7.37117469310760498047e-01) (24, 7.12769210338592529297e-01) (25, 5.42907416820526123047e-01) (26, 5.92758178710937500000e-01) (27, 6.06292307376861572266e-01) (28, 7.86824524402618408203e-01) (29, -1.33379742503166198730e-01) (30, 7.12305188179016113281e-01) (31, 5.40005326271057128906e-01) (32, 2.93825894594192504883e-01) (33, 1.90645560622215270996e-01) (34, 5.14685750007629394531e-01) (35, 5.17176806926727294922e-01) (36, 5.05109250545501708984e-01) (37, 1.52216300368309020996e-01) (38, 1.60440549254417419434e-01) (39, 2.64430701732635498047e-01) (40, -1.05271786451339721680e-02) (41, 5.44508099555969238281e-01) (42, 4.03157413005828857422e-01) (43, 5.20138621330261230469e-01) (44, 4.23730760812759399414e-01) (45, 3.04360628128051757812e-01) (46, 2.38692641258239746094e-01) (47, 6.54224634170532226562e-01) (48, 1.85282438993453979492e-01) (49, 3.71956169605255126953e-01) (50, 3.72732989490032196045e-02) (51, 2.43678495287895202637e-01) (52, 4.07056510448455810547e-01) (53, 7.24020302295684814453e-01) (54, 3.35294187068939208984e-01) (55, 2.31508463621139526367e-01) (56, 4.19937670230865478516e-01) (57, 3.27188044786453247070e-01) (58, 5.98882317543029785156e-01) (59, 5.47150135040283203125e-01) (60, 7.24287688732147216797e-01) (61, 2.61341661214828491211e-01) (62, -3.79415392875671386719e-01) (63, -2.44770273566246032715e-01) (64, 3.80826890468597412109e-01) (65, 1.35346099734306335449e-01) (66, 2.63497889041900634766e-01) (67, 3.12425583600997924805e-01) (68, 6.51367664337158203125e-01) (69, 6.26116096973419189453e-01) (70, 5.00767350196838378906e-01) (71, 1.16390936076641082764e-01) (72, -2.32763156294822692871e-01) (73, 5.26881933212280273438e-01) (74, 4.16187644004821777344e-01) (75, 1.56584784388542175293e-01) (76, 1.14339642226696014404e-01) (77, -3.10010880231857299805e-01) (78, 2.01786026358604431152e-01) (79, 3.87590914964675903320e-01) (80, 4.19332891702651977539e-01) (81, 3.51753473281860351562e-01) (82, 4.63384628295898437500e-01) (83, 5.09915173053741455078e-01) (84, 3.52375298738479614258e-01) (85, 5.84036052227020263672e-01) (86, -4.12568189203739166260e-02) (87, 7.11441814899444580078e-01) (88, 6.58023297786712646484e-01) (89, 5.66516034305095672607e-02) (90, 6.47586941719055175781e-01) (91, 3.53784024715423583984e-01) (92, 4.18203443288803100586e-01) (93, 4.84437912702560424805e-01) (94, 3.83380293846130371094e-01) (95, 2.03863486647605895996e-01) (96, -3.72430294752120971680e-01) (97, 6.70417444780468940735e-03) (98, 4.77222919464111328125e-01) (99, 4.09495115280151367188e-01) (100, 4.72182154655456542969e-01) (101, 3.25260013341903686523e-01) (102, 4.05915975570678710938e-01) (103, 5.12361168861389160156e-01) (104, -1.83431128971278667450e-03) (105, 3.24382185935974121094e-02) (106, 5.69519877433776855469e-01) (107, 6.45038485527038574219e-01) (108, 5.48692345619201660156e-01) (109, 3.94191503524780273438e-01) (110, 4.09583508968353271484e-01) (111, 1.12734772264957427979e-01) (112, -1.60981625318527221680e-01) (113, 5.75726293027400970459e-02) (114, -9.09398943185806274414e-02) (115, 3.75383168458938598633e-01) (116, 4.42340910434722900391e-01) (117, 3.36998283863067626953e-01) (118, 1.54100000858306884766e-01) (119, 2.68976300954818725586e-01) (120, 2.89540775120258331299e-02) (121, 1.51456952095031738281e-01) (122, 7.11691200733184814453e-01) (123, 2.02199071645736694336e-01) (124, 2.77837812900543212891e-01) (125, 3.67654561996459960938e-01) (126, 2.43569076061248779297e-01) (127, 2.66001582145690917969e-01) (128, -6.08118399977684020996e-02) (129, 2.22522430121898651123e-02) (130, 2.48357746750116348267e-02) (131, -6.61094933748245239258e-02) (132, 9.19771287590265274048e-03) (133, 6.22846961021423339844e-01) (134, 5.95147371292114257812e-01) (135, 3.76378655433654785156e-01) (136, 2.77693897485733032227e-01) (137, 1.62042289972305297852e-01) (138, 4.61498945951461791992e-01) (139, 3.26015889644622802734e-01) (140, -2.88426935672760009766e-01) (141, 1.43140763044357299805e-01) (142, 5.39047241210937500000e-01) (143, 2.06750079989433288574e-01) (144, 1.37939900159835815430e-01) (145, -9.72094163298606872559e-02) (146, -5.80149367451667785645e-02) (147, -6.94944709539413452148e-02) (148, 7.26289451122283935547e-02) (149, 6.28634691238403320312e-01) (150, -2.93319404125213623047e-01) (151, 2.38936156034469604492e-01) (152, 5.10171532630920410156e-01) (153, 4.00435715913772583008e-01) (154, 5.64904212951660156250e-01) (155, 3.94622504711151123047e-01) (156, 4.76778745651245117188e-01) (157, 3.75697344541549682617e-01) (158, 4.09245222806930541992e-01) (159, 2.65215039253234863281e-01) (160, 3.18860203027725219727e-01) (161, 4.65696394443511962891e-01) (162, 2.52226889133453369141e-01) (163, 6.66392818093299865723e-02) (164, 1.68733611702919006348e-01) (165, 1.36187061667442321777e-01) (166, 7.91762247681617736816e-02) (167, 6.34560436010360717773e-02) (168, 5.77263653278350830078e-01) (169, 6.24200224876403808594e-01) (170, 5.88373124599456787109e-01) (171, 5.85403800010681152344e-01) (172, 2.63759791851043701172e-01) (173, 2.75565147399902343750e-01) (174, 2.21830293536186218262e-01) (175, 2.20108866691589355469e-01) (176, 3.46768379211425781250e-01) (177, 3.97008538246154785156e-01) (178, 3.19873064756393432617e-01) (179, 3.48607897758483886719e-01) (180, 3.68412762880325317383e-01) (181, 2.97831237316131591797e-01) (182, 2.84712284803390502930e-01) (183, 1.66511554270982742310e-02) (184, 4.27427172660827636719e-01) (185, 1.06963500380516052246e-01) (186, -6.59299045801162719727e-02) (187, -1.20402686297893524170e-02) (188, 4.77035135030746459961e-01) (189, 3.01243841648101806641e-01) (190, 3.61836314201354980469e-01) (191, -3.01070779561996459961e-01) (192, 2.38641843199729919434e-01) (193, 5.95578193664550781250e-01) (194, 5.08129894733428955078e-01) (195, 4.87234592437744140625e-01) (196, 4.64423596858978271484e-01) (197, 1.16902053356170654297e-01) (198, 4.85180944204330444336e-01) (199, 2.37420305609703063965e-01) (200, 2.22359061241149902344e-01) (201, -3.81203889846801757812e-01) (202, 2.07866400480270385742e-01) (203, 1.99960350990295410156e-01) (204, 5.84266662597656250000e-01) (205, 3.67443740367889404297e-01) (206, 4.88266468048095703125e-01) (207, 3.04115563631057739258e-01) (208, 7.24414527416229248047e-01) (209, 5.79932868480682373047e-01) (210, -3.20178240537643432617e-01) (211, 3.87021124362945556641e-01) (212, 5.13775825500488281250e-01) (213, 7.48122334480285644531e-01) (214, 5.08758068084716796875e-01) (215, 5.93807458877563476562e-01) (216, 3.61188143491744995117e-01) (217, 2.87582129240036010742e-01) (218, 1.82683974504470825195e-01) (219, 2.85680085420608520508e-01) (220, -2.48802557587623596191e-01) (221, -1.21896877884864807129e-01) (222, 4.13191795349121093750e-01) (223, -1.43718361854553222656e-01) (224, 7.08694875240325927734e-01) (225, 7.25955843925476074219e-01) (226, 8.14650833606719970703e-01) (227, 4.34108972549438476562e+00) (228, 3.21665436029434204102e-01) (229, 3.63997668027877807617e-01) (230, 3.22390913963317871094e-01) (231, 4.71992909908294677734e-01) (232, 3.76862823963165283203e-01) (233, 2.61238276958465576172e-01) (234, 2.44230121374130249023e-01) (235, 2.59806305170059204102e-01) (236, 3.49779486656188964844e-01) (237, 3.27357947826385498047e-01) (238, 1.14840110763907432556e-02) (239, 2.74058520793914794922e-01) (240, 7.74731159210205078125e-01) (241, 5.18094561994075775146e-02) (242, 1.41387283802032470703e-01) (243, 3.65607708692550659180e-01) (244, -3.99907641112804412842e-02) (245, -3.09983581304550170898e-01) (246, 4.53697800636291503906e-01) (247, 6.01300239562988281250e-01) (248, 6.33431017398834228516e-01) (249, -4.60214875638484954834e-02) (250, 3.49583220668137073517e-03) (251, -7.76179740205407142639e-03) (252, 4.75931614637374877930e-02) (253, -1.64529874920845031738e-01) (254, -1.23406395316123962402e-01) (255, 1.49999902343750000000e+03) (256, 5.52332222461700439453e-01) (0, -6.07266545295715332031e-01) (1, -3.96374732255935668945e-01) (2, -5.76878368854522705078e-01) (3, 2.11034882813692092896e-02) (4, -1.84795081615447998047e+00) (5, 1.78087204694747924805e-01) (6, 4.33474220335483551025e-02) (7, -2.35770821571350097656e+00) (8, 9.55773055553436279297e-01) (9, -3.64092618227005004883e-01) (10, -3.03920656442642211914e-01) (11, -1.61163255572319030762e-01) (12, -5.96218258142471313477e-02) (13, -6.90003693103790283203e-01) (14, -1.44098234176635742188e+00) (15, 1.65118801593780517578e+00) (16, -1.13701917231082916260e-01) (17, -1.51123178005218505859e+00) (18, -4.17134255170822143555e-01) (19, -8.01812529563903808594e-01) (20, 2.97021325677633285522e-02) (21, -1.16955077648162841797e+00) (22, -7.66038060188293457031e-01) (23, -4.38813120126724243164e-01) (24, -9.71838682889938354492e-02) (25, -5.80270513892173767090e-02) (26, -5.36346510052680969238e-02) (27, 4.77650499343872070312e+00) (28, -3.23200178146362304688e+00) (29, -2.03675866127014160156e+00) (30, 2.14419409632682800293e-01) (31, 1.49997412109375000000e+03) (32, -1.88358879089355468750e+00) (33, 2.59642779827117919922e-01) (34, 2.11003065109252929688e-01) (35, -1.37341916561126708984e-01) (36, 3.69051873683929443359e-01) (37, -5.98546326160430908203e-01) (38, 2.93396681547164916992e-01) (39, 3.66370856761932373047e-01) (40, 1.31853473186492919922e+00) (41, -4.94355767965316772461e-01) (42, 5.97360789775848388672e-01) (43, 7.98558473587036132812e-01) (44, -3.14987826347351074219e+00) (45, -6.33061456680297851562e+00) (46, 8.60419845581054687500e+00) (47, 1.56404674053192138672e+00) (48, -8.25735628604888916016e-02) (49, -1.67033448815345764160e-01) (50, -1.81636369228363037109e+00) (51, -1.51058006286621093750e+00) (52, 2.04533720016479492188e+00) (53, 3.50267380475997924805e-01) (54, 1.15175373852252960205e-01) (55, -1.85359895229339599609e+00) (56, 3.69107991456985473633e-01) (57, -7.30763450264930725098e-02) (58, 4.82944324612617492676e-02) (59, 4.95175927877426147461e-01) (60, 9.60627645254135131836e-02) (61, 4.62187156081199645996e-02) (62, -1.94784671068191528320e-01) (63, 3.67846727371215820312e-01) (64, 4.76723641157150268555e-01) (65, -2.66920328140258789062e-01) (66, 6.40807449817657470703e-01) (67, 8.85431766510009765625e-02) (68, 1.25957772135734558105e-01) (69, -1.29266500473022460938e+00) (70, -5.02456128597259521484e-01) (71, -6.25547245144844055176e-02) (72, -1.40317663550376892090e-01) (73, -1.90597370266914367676e-01) (74, -1.32415741682052612305e-01) (75, -7.31128528714179992676e-02) (76, 2.15692758560180664062e-01) (77, 3.28213274478912353516e-02) (78, -1.03565037250518798828e+00) (79, 7.07278251647949218750e-01) (80, 1.51156842708587646484e-01) (81, -2.97534942626953125000e-01) (82, -3.96549016237258911133e-01) (83, -8.31612348556518554688e-01) (84, -2.23198130726814270020e-01) (85, -3.90129953622817993164e-01) (86, -2.55344063043594360352e-01) (87, -1.11505115032196044922e+00) (88, 1.01709330920130014420e-03) (89, 1.56728342175483703613e-01) (90, 9.82739627361297607422e-01) (91, 3.57882142066955566406e-01) (92, 3.36041629314422607422e-01) (93, 1.76015645265579223633e-01) (94, 6.67871296405792236328e-01) (95, -1.04685135185718536377e-01) (96, -1.62203386425971984863e-01) (97, 3.74803811311721801758e-01) (98, -5.20451843738555908203e-01) (99, -4.54126484692096710205e-02) (100, -3.55907261371612548828e-01) (101, -1.13037824630737304688e-01) (102, -1.71998694539070129395e-01) (103, 3.16086053848266601562e-01) (104, -3.08759566396474838257e-02) (105, 2.05132111907005310059e-01) (106, 6.58344030380249023438e-01) (107, 1.70902982354164123535e-02) (108, -4.78859812021255493164e-01) (109, 8.30748736858367919922e-01) (110, 3.99285163879394531250e+01) (111, 8.04453134536743164062e-01) (112, 5.51701307296752929688e-01) (113, 1.07058644294738769531e+00) (114, 7.54251241683959960938e-01) (115, 2.37629383802413940430e-01) (116, -5.04840612411499023438e-01) (117, -1.51096493005752563477e-01) (118, -1.33077293634414672852e-01) (119, 6.01687990128993988037e-02) (120, 6.70671463012695312500e-02) (121, -2.06156130880117416382e-02) (122, -6.31386472377926111221e-04) (123, -1.17784000933170318604e-01) (124, -5.46559654176235198975e-02) (125, 1.32376861572265625000e+00) (126, 4.70489740371704101562e+00) (127, 4.65527534484863281250e-01) (128, 5.16178190708160400391e-01) (129, 2.16926050186157226562e+00) (130, 1.10935890674591064453e+00) (131, -5.28364181518554687500e-01) (132, -2.90429234504699707031e-01) (133, 1.34673435240983963013e-02) (134, 1.30755126476287841797e+00) (135, 4.81711655855178833008e-01) (136, 1.68749019503593444824e-01) (137, 4.58451509475708007812e-02) (138, 1.60912111401557922363e-01) (139, -1.21591247618198394775e-01) (140, -2.33024343848228454590e-01) (141, -7.12130218744277954102e-02) (142, 4.39565569162368774414e-01) (143, -1.46128103137016296387e-01) (144, 4.54972982406616210938e-01) (145, 1.43416941165924072266e-01) (146, 1.37479335069656372070e-01) (147, 7.63893187046051025391e-01) (148, 6.20671689510345458984e-01) (149, 4.20216292142868041992e-01) (150, 8.09210419654846191406e-01) (151, 1.21092557907104492188e+00) (152, 1.05658769607543945312e-01) (153, 4.12491798400878906250e-01) (154, 3.77865731716156005859e-01) (155, 4.99969989061355590820e-01) (156, 6.65854096412658691406e-01) (157, 1.98828533291816711426e-01) (158, -5.58589100837707519531e-01) (159, -8.70627388358116149902e-02) (160, -7.41367191076278686523e-02) (161, 2.12114542722702026367e-01) (162, 2.10192352533340454102e-01) (163, 7.60486364364624023438e-01) (164, 7.65817523002624511719e-01) (165, 3.38482809066772460938e+00) (166, -5.66779412329196929932e-02) (167, 7.19518899917602539062e-01) (168, 6.44645318388938903809e-02) (169, 1.49694979190826416016e+00) (170, -3.03055047988891601562e-01) (171, -3.08166146278381347656e-01) (172, 1.13199718296527862549e-01) (173, 2.62781977653503417969e-01) (174, 8.31924378871917724609e-02) (175, 8.57524424791336059570e-02) (176, 1.84376642107963562012e-01) (177, 1.29911452531814575195e-02) (178, -1.37448504567146301270e-01) (179, -7.87027180194854736328e-01) (180, 9.28309187293052673340e-02) (181, 3.17389875650405883789e-01) (182, -3.28843325376510620117e-01) (183, 5.54311871528625488281e-01) (184, 2.40139931440353393555e-01) (185, 2.49303638935089111328e-01) (186, 1.17507264018058776855e-01) (187, -8.05856101214885711670e-03) (188, 3.67598116397857666016e-01) (189, -1.16029411554336547852e-01) (190, 3.98574292659759521484e-01) (191, -1.19542606174945831299e-01) (192, -3.35347384214401245117e-01) (193, 4.16750580072402954102e-01) (194, -9.05617356300354003906e-01) (195, 2.54353851079940795898e-01) (196, 5.98660051822662353516e-01) (197, -3.36230881512165069580e-02) (198, 3.29985730350017547607e-02) (199, -1.91259488463401794434e-01) (200, 9.83703956007957458496e-02) (201, 3.78573596477508544922e-01) (202, 3.75606864690780639648e-02) (203, 4.90099728107452392578e-01) (204, 6.92977488040924072266e-01) (205, 3.99876296520233154297e-01) (206, 1.53284168243408203125e+00) (207, 5.22525846958160400391e-01) (208, 3.94525146111845970154e-03) (209, 9.59242999553680419922e-01) (210, 2.14689731597900390625e+00) (211, -1.99475407600402832031e+00) (212, -6.94581717252731323242e-02) (213, 4.38986122608184814453e-02) (214, 6.79394304752349853516e-02) (215, 1.06767192482948303223e-01) (216, -9.17091742157936096191e-02) (217, -9.43656936287879943848e-02) (218, 4.92315083742141723633e-01) (219, 3.35744351148605346680e-01) (220, 2.71800309419631958008e-01) (221, -1.13066427409648895264e-01) (222, -1.66171467304229736328e+00) (223, 2.93642669916152954102e-01) (224, 3.39236974716186523438e-01) (225, 1.00955033302307128906e+00) (226, -1.02516436576843261719e+00) (227, 1.62000387907028198242e-01) (228, 4.41034466028213500977e-01) (229, -3.15909892320632934570e-01) (230, 4.87908661365509033203e-01) (231, -7.54385054111480712891e-01) (232, -2.11218520998954772949e-01) (233, -1.70697361230850219727e-01) (234, -2.33376380056142807007e-02) (235, -3.73258322477340698242e-01) (236, -2.33498681336641311646e-02) (237, -5.84280967712402343750e-01) (238, -1.83078408241271972656e+00) (239, 1.88526839017868041992e-01) (240, 2.73693025112152099609e-01) (241, -1.71753275394439697266e+00) (242, 6.53809964656829833984e-01) (243, 1.37999802827835083008e-01) (244, 8.04763555526733398438e-01) (245, 2.02423882484436035156e+00) (246, -2.19964480400085449219e+00) (247, 7.22629129886627197266e-02) (248, 3.61774623394012451172e-01) (249, 7.71936401724815368652e-03) (250, -1.35061204433441162109e-01) (251, -3.31016004085540771484e-01) (252, -1.22790002822875976562e+00) (253, 5.24681285023689270020e-02) (254, 2.66129732131958007812e+00) (255, -3.45819264650344848633e-01) (256, -3.79513315856456756592e-02) (0, -6.91714525222778320312e-01) (1, -1.50000000000000000000e+03) (2, -1.49999865722656250000e+03) (3, -1.41186404228210449219e+00) (4, -1.16141498088836669922e-01) (5, -3.32817226648330688477e-01) (6, -2.29231387376785278320e-01) (7, -2.14501649141311645508e-01) (8, 4.77110773324966430664e-01) (9, -3.43484692275524139404e-02) (10, -1.06695368885993957520e-01) (11, -2.94173061847686767578e-01) (12, -2.93847173452377319336e-01) (13, -2.41391515731811523438e+00) (14, 3.09771925210952758789e-01) (15, -3.80673003196716308594e+00) (16, -7.17033028602600097656e-01) (17, -7.49051094055175781250e-01) (18, -6.53050720691680908203e-01) (19, -6.55895113945007324219e-01) (20, -6.89976572990417480469e-01) (21, -8.16296458244323730469e-01) (22, -7.68947124481201171875e-01) (23, 5.93948885798454284668e-02) (24, 4.01702970266342163086e-02) (25, -3.25395315885543823242e-01) (26, -3.77257704734802246094e-01) (27, 8.94346833229064941406e-02) (28, -1.00872564315795898438e+00) (29, -4.75663036108016967773e-01) (30, 3.17913025617599487305e-01) (31, -3.78251522779464721680e-01) (32, -3.99644166231155395508e-01) (33, -1.65805771946907043457e-01) (34, -1.31690397858619689941e-01) (35, -1.60514771938323974609e-01) (36, -1.75334975123405456543e-01) (37, -5.75130403041839599609e-01) (38, -8.37440043687820434570e-02) (39, -1.52788802981376647949e-01) (40, 6.89546205103397369385e-03) (41, -2.71676570177078247070e-01) (42, -3.36797326803207397461e-01) (43, 1.99440475553274154663e-02) (44, -2.08737909793853759766e-01) (45, -2.73216545581817626953e-01) (46, 8.12129437923431396484e-01) (47, 3.36964219808578491211e-01) (48, -2.09362789988517761230e-01) (49, -3.78913730382919311523e-01) (50, -1.11948758363723754883e-01) (51, -2.69519805908203125000e-01) (52, 1.63599088788032531738e-01) (53, -3.00454676151275634766e-01) (54, -9.48647201061248779297e-01) (55, -8.96350026130676269531e-01) (56, -8.19859802722930908203e-01) (57, -6.32856130599975585938e-01) (58, -8.24485242366790771484e-01) (59, -7.61151790618896484375e-01) (60, -9.08150672912597656250e-01) (61, -1.45821705460548400879e-01) (62, -2.03005477786064147949e-01) (63, -5.61481975018978118896e-02) (64, -1.54019549489021301270e-01) (65, -1.77158340811729431152e-01) (66, -1.96138117462396621704e-02) (67, -5.94752490520477294922e-01) (68, -2.80985623598098754883e-01) (69, -5.97669720649719238281e-01) (70, -5.49403548240661621094e-01) (71, -9.96470689773559570312e-01) (72, -3.75690907239913940430e-01) (73, -9.12898361682891845703e-01) (74, -9.94320333003997802734e-01) (75, -3.77957433462142944336e-01) (76, -2.58737415075302124023e-01) (77, -1.65445804595947265625e-01) (78, -1.63293257355690002441e-01) (79, -2.81374692916870117188e-01) (80, -1.69628098607063293457e-01) (81, -2.26299986243247985840e-01) (82, -1.19218118488788604736e-01) (83, -2.52053290605545043945e-01) (84, 5.96667081117630004883e-02) (85, -1.12524427473545074463e-01) (86, -8.06473314762115478516e-01) (87, -5.02663195133209228516e-01) (88, -1.60858199000358581543e-01) (89, -1.14255525171756744385e-01) (90, -7.11658149957656860352e-02) (91, -5.21930456161499023438e-01) (92, -4.20095592737197875977e-01) (93, -1.53985336422920227051e-01) (94, -3.06190133094787597656e-01) (95, -1.05013959109783172607e-01) (96, -1.59578993916511535645e-01) (97, -1.65761396288871765137e-01) (98, -1.71682104468345642090e-01) (99, -1.17627426981925964355e-01) (100, -5.43897151947021484375e-02) (101, -2.08184763789176940918e-01) (102, -2.02692359685897827148e-01) (103, -2.01779708266258239746e-01) (104, -2.40667149424552917480e-01) (105, -8.87516885995864868164e-02) (106, -7.38020390272140502930e-02) (107, -1.35907351970672607422e-01) (108, -5.44062554836273193359e-01) (109, -5.73709726333618164062e-01) (110, -1.63504868745803833008e-01) (111, -1.78168773651123046875e-01) (112, -8.06760638952255249023e-02) (113, -6.02383948862552642822e-02) (114, 1.01079002022743225098e-01) (115, -6.71903491020202636719e-02) (116, -1.47975161671638488770e-01) (117, 3.10564530082046985626e-03) (118, -2.03396990895271301270e-01) (119, -2.88956403732299804688e-01) (120, -7.65946507453918457031e-01) (121, -7.25028097629547119141e-01) (122, -8.49844038486480712891e-01) (123, -4.82573807239532470703e-01) (124, -5.60323536396026611328e-01) (125, -5.81108391284942626953e-01) (126, -1.31610557436943054199e-01) (127, -3.59665066003799438477e-01) (128, -5.26502370834350585938e-01) (129, -8.85746181011199951172e-02) (130, -9.31478813290596008301e-02) (131, -3.37971635162830352783e-02) (132, -7.46862217783927917480e-02) (133, -5.70506274700164794922e-01) (134, -3.08169089257717132568e-02) (135, -3.13792705535888671875e-01) (136, -5.82407057285308837891e-01) (137, -5.86232423782348632812e-01) (138, -8.17789673805236816406e-01) (139, -7.49283552169799804688e-01) (140, -2.36529305577278137207e-01) (141, -3.30566108226776123047e-01) (142, -4.45611029863357543945e-01) (143, -3.82053089141845703125e+00) (144, -1.42942070960998535156e-01) (145, -4.29604686796665191650e-02) (146, -5.69051690399646759033e-02) (147, -2.97975659370422363281e-01) (148, -3.28712433576583862305e-01) (149, -8.60217154026031494141e-01) (150, -6.62502467632293701172e-01) (151, -1.05916106700897216797e+00) (152, -5.97544670104980468750e-01) (153, -1.99334785342216491699e-01) (154, -5.26578366756439208984e-01) (155, -4.10289883613586425781e-01) (156, -3.13974708318710327148e-01) (157, -3.50189924240112304688e-01) (158, -2.83901780843734741211e-01) (159, -2.13307455182075500488e-01) (160, -1.91088467836380004883e-01) (161, -1.55856356024742126465e-01) (162, 8.30233767628669738770e-02) (163, -3.21096748113632202148e-01) (164, -3.41754823923110961914e-01) (165, -9.30042862892150878906e-01) (166, -1.37865066528320312500e+00) (167, -3.32005649805068969727e-01) (168, -4.36695367097854614258e-01) (169, -1.97784930467605590820e-01) (170, -4.83291327953338623047e-01) (171, -5.73862731456756591797e-01) (172, -5.83423912525177001953e-01) (173, -1.68315723538398742676e-01) (174, -3.42989683151245117188e-01) (175, -1.64675787091255187988e-01) (176, -2.51388758420944213867e-01) (177, -4.27546799182891845703e-01) (178, -6.22391104698181152344e-01) (179, -4.65786159038543701172e-01) (180, -4.33833211660385131836e-01) (181, -4.61964607238769531250e-01) (182, -1.59370318055152893066e-01) (183, -6.55992507934570312500e-01) (184, -8.72982203960418701172e-01) (185, -7.63032972812652587891e-01) (186, -8.54110002517700195312e-01) (187, -6.85422718524932861328e-01) (188, -3.45167547464370727539e-01) (189, -4.77261960506439208984e-01) (190, -9.80474427342414855957e-02) (191, -2.04264134168624877930e-01) (192, -8.41695904731750488281e-01) (193, -7.92502224445343017578e-01) (194, -4.42722648382186889648e-01) (195, 2.11291030049324035645e-01) (196, 8.70257541537284851074e-02) (197, -1.58858835697174072266e-01) (198, -9.17980521917343139648e-02) (199, -3.05530518293380737305e-01) (200, -2.07542046904563903809e-01) (201, -1.27696231007575988770e-01) (202, -6.90786778926849365234e-01) (203, -8.16311299800872802734e-01) (204, -7.79945015907287597656e-01) (205, -2.35474973917007446289e-01) (206, -6.04513809084892272949e-02) (207, -1.56022071838378906250e-01) (208, -6.38346910476684570312e-01) (209, -6.68459713459014892578e-01) (210, -1.50000000000000000000e+03) (211, -2.00407171249389648438e+00) (212, 3.74907534569501876831e-03) (213, 3.78256402909755706787e-02) (214, -1.11195005476474761963e-01) (215, -6.54383227229118347168e-02) (216, -3.23652863502502441406e-01) (217, -1.84695139527320861816e-01) (218, -2.84263908863067626953e-01) (219, -2.24472284317016601562e-01) (220, -2.78139114379882812500e-01) (221, -3.40059250593185424805e-01) (222, -2.71270573139190673828e-01) (223, -1.04320693016052246094e+00) (224, -7.70681917667388916016e-01) (225, -5.07640361785888671875e-01) (226, -6.73968136310577392578e-01) (227, -1.49999987792968750000e+03) (228, 5.52103817462921142578e-01) (229, 4.07421551644802093506e-02) (230, -5.91380715370178222656e-01) (231, 9.86079405993223190308e-03) (232, 6.99223543051630258560e-04) (233, -2.31415666639804840088e-02) (234, -6.18171095848083496094e-02) (235, -6.92112296819686889648e-02) (236, -1.48396357893943786621e-01) (237, -1.82543054223060607910e-01) (238, -2.21279591321945190430e-01) (239, -4.34023171663284301758e-01) (240, -6.92973971366882324219e-01) (241, -6.28684759140014648438e-02) (242, -1.48144572973251342773e-01) (243, -2.93625384569168090820e-01) (244, -2.42287412285804748535e-01) (245, -1.07967078685760498047e-01) (246, -2.53298491239547729492e-01) (247, -1.45487260818481445312e+01) (248, 2.40158185362815856934e-01) (249, -1.00191645324230194092e-01) (250, 4.04680036008358001709e-02) (251, -5.65597675740718841553e-02) (252, -2.89138823747634887695e-01) (253, -1.62242829799652099609e-01) (254, 1.15246391296386718750e+01) (255, -1.14636349678039550781e+00) (256, -4.72360223531723022461e-01) (0, 4.08677279949188232422e-01) (1, 6.32403612136840820312e-01) (2, 8.55320930480957031250e-01) (3, 5.98782598972320556641e-01) (4, 6.25043451786041259766e-01) (5, 5.48335015773773193359e-01) (6, 6.36914551258087158203e-01) (7, 5.88968217372894287109e-01) (8, 4.93431299924850463867e-01) (9, 6.30021154880523681641e-01) (10, 5.11535644531250000000e-01) (11, 7.81334161758422851562e-01) (12, 7.53553748130798339844e-01) (13, 9.94095653295516967773e-02) (14, 7.71083086729049682617e-02) (15, -2.96045504510402679443e-02) (16, 2.97941178083419799805e-01) (17, 3.02376389503479003906e-01) (18, 2.73141145706176757812e-01) (19, 2.94739276170730590820e-01) (20, 4.75588798522949218750e-01) (21, 4.67744946479797363281e-01) (22, 7.11204826831817626953e-01) (23, 6.77707374095916748047e-01) (24, 6.00256562232971191406e-01) (25, 5.70079326629638671875e-01) (26, 4.70106393098831176758e-01) (27, 6.26419007778167724609e-01) (28, 2.44266718626022338867e-01) (29, 7.06190466880798339844e-01) (30, 7.13410317897796630859e-01) (31, 6.16273343563079833984e-01) (32, 4.58647310733795166016e-01) (33, 2.41329833865165710449e-01) (34, 2.35059350728988647461e-01) (35, 2.65895694494247436523e-01) (36, 3.32785338163375854492e-01) (37, 4.53739523887634277344e-01) (38, 3.11886399984359741211e-01) (39, 4.03804898262023925781e-01) (40, 5.29420137405395507812e-01) (41, 5.92063963413238525391e-01) (42, 6.67515218257904052734e-01) (43, 5.91733217239379882812e-01) (44, 2.04286519438028335571e-02) (45, 6.18380248546600341797e-01) (46, 6.49858415126800537109e-01) (47, 5.94247467815876007080e-02) (48, 2.61267572641372680664e-01) (49, 3.50732147693634033203e-01) (50, 3.88313949108123779297e-01) (51, 2.87752211093902587891e-01) (52, 4.29882556200027465820e-01) (53, 6.93524420261383056641e-01) (54, 4.35594230890274047852e-01) (55, 6.74311161041259765625e-01) (56, 3.36437672376632690430e-01) (57, 4.96873110532760620117e-01) (58, 6.60163879394531250000e-01) (59, 5.01589059829711914062e-01) (60, 6.75722420215606689453e-01) (61, 4.24644380807876586914e-01) (62, 3.67646992206573486328e-01) (63, 4.00438696146011352539e-01) (64, 2.26223111152648925781e-01) (65, 1.97674095630645751953e-01) (66, 3.97737473249435424805e-01) (67, 7.50483334064483642578e-01) (68, 6.79355382919311523438e-01) (69, 6.17523074150085449219e-01) (70, 6.57447636127471923828e-01) (71, 2.27450840175151824951e-02) (72, 2.28313565254211425781e-01) (73, 6.31563544273376464844e-01) (74, 5.80575764179229736328e-01) (75, 5.25301456451416015625e-01) (76, 5.08904337882995605469e-01) (77, 3.33719074726104736328e-01) (78, 4.70606476068496704102e-01) (79, 3.74211519956588745117e-01) (80, 4.99972701072692871094e-01) (81, 3.27116876840591430664e-01) (82, 3.38020652532577514648e-01) (83, 3.93940508365631103516e-01) (84, 4.04874294996261596680e-01) (85, 5.85673093795776367188e-01) (86, 5.16993045806884765625e-01) (87, 8.21566343307495117188e-01) (88, 6.93540692329406738281e-01) (89, 6.70864820480346679688e-01) (90, 5.63971579074859619141e-01) (91, 5.75949013233184814453e-01) (92, 3.53683143854141235352e-01) (93, 1.29378408193588256836e-01) (94, 3.54057997465133666992e-01) (95, 3.26182156801223754883e-01) (96, 4.58866298198699951172e-01) (97, 4.30813521146774291992e-01) (98, 3.52176129817962646484e-01) (99, 4.62544590234756469727e-01) (100, 3.43193322420120239258e-01) (101, 5.21034359931945800781e-01) (102, 6.31939232349395751953e-01) (103, 5.70056259632110595703e-01) (104, 5.73822915554046630859e-01) (105, 6.27665758132934570312e-01) (106, 6.17719411849975585938e-01) (107, 6.63284242153167724609e-01) (108, 6.86609745025634765625e-01) (109, 2.04716071486473083496e-01) (110, -1.35320574045181274414e-01) (111, -2.75967828929424285889e-02) (112, 4.30259376764297485352e-01) (113, 3.44156473875045776367e-01) (114, 2.86713182926177978516e-01) (115, 3.04125964641571044922e-01) (116, 7.72227585315704345703e-01) (117, 7.15043902397155761719e-01) (118, 6.21343493461608886719e-01) (119, 3.54155331850051879883e-01) (120, 3.56548905372619628906e-01) (121, 6.73893451690673828125e-01) (122, 4.79113876819610595703e-01) (123, 7.04618155956268310547e-01) (124, 6.12537205219268798828e-01) (125, 2.81294465065002441406e-01) (126, -2.34093982726335525513e-02) (127, -3.59440930187702178955e-02) (128, 3.01203548908233642578e-01) (129, -8.48654732108116149902e-02) (130, 3.42631191015243530273e-01) (131, 6.72909140586853027344e-01) (132, 7.80568122863769531250e-01) (133, 7.26157903671264648438e-01) (134, 4.68943208456039428711e-01) (135, 5.45649588108062744141e-01) (136, 5.35032391548156738281e-01) (137, 6.27821624279022216797e-01) (138, 5.90724885463714599609e-01) (139, 2.53534644842147827148e-01) (140, 2.93397277593612670898e-01) (141, 2.36895442008972167969e-01) (142, 2.64387458562850952148e-01) (143, 5.76837003231048583984e-01) (144, 2.78778076171875000000e-01) (145, -4.07549962401390075684e-02) (146, -5.03843128681182861328e-02) (147, 7.28285849094390869141e-01) (148, 5.80828964710235595703e-01) (149, 4.96077448129653930664e-01) (150, 5.16504883766174316406e-01) (151, 1.29714310169219970703e-01) (152, 7.18862414360046386719e-01) (153, 7.27780938148498535156e-01) (154, 5.64258873462677001953e-01) (155, 5.93866884708404541016e-01) (156, 1.74643397331237792969e-01) (157, 3.48826855421066284180e-01) (158, 3.19346934556961059570e-01) (159, 3.92639517784118652344e-01) (160, 2.91715830564498901367e-01) (161, 2.48298838734626770020e-01) (162, 4.05167937278747558594e-01) (163, 4.95213568210601806641e-02) (164, 6.10339462757110595703e-01) (165, 7.11895763874053955078e-01) (166, 5.34963786602020263672e-01) (167, 6.80305838584899902344e-01) (168, 6.93588435649871826172e-01) (169, 8.02036106586456298828e-01) (170, 6.24047756195068359375e-01) (171, 5.17125785350799560547e-01) (172, 6.50289654731750488281e-01) (173, 2.36535519361495971680e-01) (174, 2.96968400478363037109e-01) (175, 2.22034439444541931152e-01) (176, 3.19286376237869262695e-01) (177, 4.90246266126632690430e-01) (178, 6.86195015907287597656e-01) (179, 4.18432146310806274414e-01) (180, 4.46184575557708740234e-01) (181, 6.05771839618682861328e-01) (182, 5.36760747432708740234e-01) (183, 7.11726486682891845703e-01) (184, 3.35508227348327636719e-01) (185, 4.22925621271133422852e-01) (186, 3.35573792457580566406e-01) (187, 3.49029839038848876953e-01) (188, 5.17637073993682861328e-01) (189, 4.07671988010406494141e-01) (190, 1.75884723663330078125e-01) (191, -2.04932570457458496094e-01) (192, 2.97484248876571655273e-01) (193, 4.64606046676635742188e-01) (194, 6.07841074466705322266e-01) (195, 4.29894685745239257812e-01) (196, 5.12676119804382324219e-01) (197, 4.69971418380737304688e-01) (198, 3.44657748937606811523e-01) (199, 3.13674479722976684570e-01) (200, 3.39071244001388549805e-01) (201, 2.77933746576309204102e-01) (202, 3.03244918584823608398e-01) (203, 3.01256239414215087891e-01) (204, 3.89709472656250000000e-01) (205, 4.94926720857620239258e-01) (206, 3.39354246854782104492e-01) (207, 6.05753026902675628662e-02) (208, 3.71337354183197021484e-01) (209, 4.61966842412948608398e-01) (210, 1.68007165193557739258e-01) (211, 3.88388484716415405273e-01) (212, 5.74355959892272949219e-01) (213, 6.30659997463226318359e-01) (214, 5.74894070625305175781e-01) (215, 6.35923206806182861328e-01) (216, 2.70803600549697875977e-01) (217, 2.80361533164978027344e-01) (218, 3.26435863971710205078e-01) (219, 3.68542730808258056641e-01) (220, 3.16679894924163818359e-01) (221, 4.81074720621109008789e-01) (222, 3.69525730609893798828e-01) (223, 2.49940007925033569336e-01) (224, 4.71029758453369140625e-01) (225, 6.49069309234619140625e-01) (226, 7.61466801166534423828e-01) (227, 4.66190755367279052734e-01) (228, 4.40142691135406494141e-01) (229, 4.23098027706146240234e-01) (230, 5.09928703308105468750e-01) (231, 4.16407018899917602539e-01) (232, 4.43052917718887329102e-01) (233, 3.28113168478012084961e-01) (234, 6.77522480487823486328e-01) (235, 4.14493411779403686523e-01) (236, 2.96515762805938720703e-01) (237, 3.34943681955337524414e-01) (238, 2.33036994934082031250e-01) (239, 2.86839604377746582031e-01) (240, 6.25396728515625000000e-01) (241, 6.79475307464599609375e-01) (242, 6.98114395141601562500e-01) (243, 4.12728339433670043945e-01) (244, 5.57340025901794433594e-01) (245, 6.53611183166503906250e-01) (246, 5.64720749855041503906e-01) (247, 6.11168026924133300781e-01) (248, 4.95535016059875488281e-01) (249, 4.44817423820495605469e-01) (250, 2.74295181035995483398e-01) (251, 2.84629374742507934570e-01) (252, 6.95290565490722656250e-01) (253, 2.62393295764923095703e-01) (254, 3.94436754286289215088e-02) (255, 8.06170344352722167969e-01) (256, 6.04796826839447021484e-01) (0, -1.34446239471435546875e+00) (1, -1.49129394531250000000e+03) (2, -1.50000000000000000000e+03) (3, 8.24027508497238159180e-02) (4, -3.86762589216232299805e-01) (5, 6.99766213074326515198e-03) (6, -5.28974771499633789062e-01) (7, -7.91575133800506591797e-01) (8, 2.84862190485000610352e-01) (9, -1.20724089443683624268e-01) (10, -7.77199268341064453125e-02) (11, -2.90338754653930664062e-01) (12, -3.63003522157669067383e-01) (13, -1.55691981315612792969e+00) (14, -8.91593098640441894531e-02) (15, -1.42172217369079589844e+00) (16, -6.82573676109313964844e-01) (17, -8.78314137458801269531e-01) (18, -5.88890492916107177734e-01) (19, -6.25633835792541503906e-01) (20, -7.50211596488952636719e-01) (21, -7.73309290409088134766e-01) (22, -3.49192202091217041016e-01) (23, -3.56200635433197021484e-01) (24, -4.99420523643493652344e-01) (25, -3.68897825479507446289e-01) (26, -2.17344522476196289062e-01) (27, -4.34558749198913574219e-01) (28, -1.00797395706176757812e+01) (29, -2.66989946365356445312e-01) (30, 9.64796319603919982910e-02) (31, -2.27355122566223144531e+00) (32, -9.13220345973968505859e-01) (33, -6.24592900276184082031e-01) (34, -7.53473699092864990234e-01) (35, -5.62366127967834472656e-01) (36, -5.05247294902801513672e-01) (37, -6.00273311138153076172e-01) (38, -4.45163577795028686523e-01) (39, -7.61712901294231414795e-03) (40, -2.58976072072982788086e-01) (41, -3.45922023057937622070e-01) (42, -3.14439564943313598633e-01) (43, -3.44556719064712524414e-01) (44, -7.99098908901214599609e-01) (45, -2.82796978950500488281e-01) (46, -1.88270490616559982300e-02) (47, -3.02555710077285766602e-01) (48, -9.31304991245269775391e-01) (49, -7.61612355709075927734e-01) (50, -6.21762573719024658203e-01) (51, -5.85951924324035644531e-01) (52, 2.63153582811355590820e-01) (53, -3.21114987134933471680e-01) (54, -6.99712276458740234375e-01) (55, -9.89206850528717041016e-01) (56, -8.45617234706878662109e-01) (57, -7.51373589038848876953e-01) (58, -6.98460757732391357422e-01) (59, -7.18277096748352050781e-01) (60, -8.05536925792694091797e-01) (61, -7.93976545333862304688e-01) (62, -1.97206839919090270996e-01) (63, -6.53226375579833984375e-01) (64, -8.49176287651062011719e-01) (65, -8.11149597167968750000e-01) (66, -4.08505082130432128906e-01) (67, -4.95961219072341918945e-01) (68, -2.19128027558326721191e-01) (69, -7.30572938919067382812e-01) (70, -5.78348457813262939453e-01) (71, -8.92884612083435058594e-01) (72, -7.88510739803314208984e-01) (73, -6.90399169921875000000e-01) (74, -9.24790084362030029297e-01) (75, -8.48942458629608154297e-01) (76, -9.61424529552459716797e-01) (77, -8.55921924114227294922e-01) (78, -8.02500665187835693359e-01) (79, -3.58707994222640991211e-01) (80, -7.32722163200378417969e-01) (81, -5.90097844600677490234e-01) (82, -6.53870940208435058594e-01) (83, -7.50583171844482421875e-01) (84, -5.30309200286865234375e-01) (85, -5.75127542018890380859e-01) (86, -7.52918422222137451172e-01) (87, -5.62433540821075439453e-01) (88, -4.14455384016036987305e-01) (89, -1.17683440446853637695e-01) (90, -4.90971595048904418945e-01) (91, -4.43661510944366455078e-01) (92, -4.71259325742721557617e-01) (93, -7.31245756149291992188e-01) (94, -6.21592938899993896484e-01) (95, -6.75722718238830566406e-01) (96, -7.68812119960784912109e-01) (97, -3.74731123447418212891e-01) (98, -1.24896860122680664062e+00) (99, -4.92490381002426147461e-01) (100, -5.61758041381835937500e-01) (101, -4.91823226213455200195e-01) (102, -5.88026285171508789062e-01) (103, -6.26043915748596191406e-01) (104, -5.87445616722106933594e-01) (105, -4.57439482212066650391e-01) (106, -5.41124224662780761719e-01) (107, -4.67683970928192138672e-01) (108, -6.35134994983673095703e-01) (109, -5.10483860969543457031e-01) (110, -1.03053224086761474609e+00) (111, -8.71456325054168701172e-01) (112, -5.65905690193176269531e-01) (113, -4.22281950712203979492e-01) (114, -3.10959517955780029297e-01) (115, -4.05016362667083740234e-01) (116, -4.69758421182632446289e-01) (117, -4.07691627740859985352e-01) (118, -7.57206082344055175781e-01) (119, -7.91601896286010742188e-01) (120, -7.12580204010009765625e-01) (121, -6.90630674362182617188e-01) (122, -8.81112754344940185547e-01) (123, -5.63949584960937500000e-01) (124, -4.89495903253555297852e-01) (125, -4.85125988721847534180e-01) (126, -5.30405163764953613281e-01) (127, -8.36614906787872314453e-01) (128, -6.03270947933197021484e-01) (129, -4.66586142778396606445e-01) (130, -3.86482536792755126953e-01) (131, -4.61187869310379028320e-01) (132, -5.37521719932556152344e-01) (133, -5.83313941955566406250e-01) (134, -5.22779583930969238281e-01) (135, -5.25972127914428710938e-01) (136, -4.40392076969146728516e-01) (137, -6.06123566627502441406e-01) (138, -7.73497104644775390625e-01) (139, -8.61858546733856201172e-01) (140, -8.55187296867370605469e-01) (141, -9.72995579242706298828e-01) (142, -9.80744361877441406250e-01) (143, -2.60403776168823242188e+00) (144, -8.89061331748962402344e-01) (145, -3.94554257392883300781e-01) (146, -3.08101117610931396484e-01) (147, -6.36208772659301757812e-01) (148, -7.39958286285400390625e-01) (149, -1.09421467781066894531e+00) (150, -9.70744550228118896484e-01) (151, -2.53528475761413574219e+00) (152, -1.09077477455139160156e+00) (153, -4.28565621376037597656e-01) (154, -5.32406091690063476562e-01) (155, -4.44416999816894531250e-01) (156, -6.16082549095153808594e-01) (157, -8.15466463565826416016e-01) (158, -8.95140647888183593750e-01) (159, -9.33854162693023681641e-01) (160, -7.64167845249176025391e-01) (161, -7.03907310962677001953e-01) (162, -3.96663099527359008789e-01) (163, -1.75031796097755432129e-01) (164, -6.43882930278778076172e-01) (165, -4.22457545995712280273e-01) (166, -1.62172305583953857422e+00) (167, -3.43225568532943725586e-01) (168, -4.88670468330383300781e-01) (169, -1.28460064530372619629e-01) (170, -6.28456473350524902344e-01) (171, -5.48674583435058593750e-01) (172, -6.69973492622375488281e-01) (173, -3.95624727010726928711e-01) (174, -7.19039678573608398438e-01) (175, -8.76428842544555664062e-01) (176, -7.66600012779235839844e-01) (177, -5.64269125461578369141e-01) (178, -4.97275859117507934570e-01) (179, -6.02511763572692871094e-01) (180, -4.71024870872497558594e-01) (181, -5.25463581085205078125e-01) (182, -5.29482066631317138672e-01) (183, -5.95308482646942138672e-01) (184, -7.22087323665618896484e-01) (185, -7.64410138130187988281e-01) (186, -7.60195314884185791016e-01) (187, -7.82688915729522705078e-01) (188, -4.21624362468719482422e-01) (189, -6.07783198356628417969e-01) (190, -5.83546102046966552734e-01) (191, -8.41830015182495117188e-01) (192, -7.77704536914825439453e-01) (193, -8.28182816505432128906e-01) (194, -3.66808801889419555664e-01) (195, -4.93446856737136840820e-01) (196, -4.52594518661499023438e-01) (197, -5.90734302997589111328e-01) (198, -8.28540861606597900391e-01) (199, -8.00258874893188476562e-01) (200, -7.79262065887451171875e-01) (201, -7.26106166839599609375e-01) (202, -6.19781374931335449219e-01) (203, -6.30206108093261718750e-01) (204, -3.95962238311767578125e-01) (205, -4.84935671091079711914e-01) (206, -4.98653352260589599609e-01) (207, -8.23854923248291015625e-01) (208, -7.33277499675750732422e-01) (209, -7.38075375556945800781e-01) (210, -1.49947106933593750000e+03) (211, -2.83323121070861816406e+00) (212, -5.16334116458892822266e-01) (213, -4.28436785936355590820e-01) (214, -4.28348451852798461914e-01) (215, -5.41843473911285400391e-01) (216, -8.08643937110900878906e-01) (217, -8.80652785301208496094e-01) (218, -8.29482018947601318359e-01) (219, -8.46094429492950439453e-01) (220, -5.43664574623107910156e-01) (221, -6.92437231540679931641e-01) (222, -6.36042058467864990234e-01) (223, -2.98076820373535156250e+00) (224, -7.51501142978668212891e-01) (225, -5.21605074405670166016e-01) (226, -1.04257285594940185547e+00) (227, -1.43538195800781250000e+03) (228, 1.52607902884483337402e-01) (229, -6.41852915287017822266e-02) (230, -1.01956212520599365234e+00) (231, -2.89403647184371948242e-01) (232, -3.61902713775634765625e-01) (233, -5.22818624973297119141e-01) (234, -5.17040967941284179688e-01) (235, -5.28608560562133789062e-01) (236, -4.62933331727981567383e-01) (237, -5.04979014396667480469e-01) (238, -5.98793983459472656250e-01) (239, -1.14453005790710449219e+00) (240, -8.59902620315551757812e-01) (241, -4.12257879972457885742e-01) (242, -2.80771195888519287109e-01) (243, -3.53415071964263916016e-01) (244, -4.41729277372360229492e-01) (245, -2.58610993623733520508e-01) (246, -2.09343403577804565430e-01) (247, -1.45894837379455566406e+00) (248, -1.91035136580467224121e-01) (249, -3.72776120901107788086e-01) (250, -4.45313632488250732422e-01) (251, -3.49106252193450927734e-01) (252, -4.10074412822723388672e-01) (253, -2.22965985536575317383e-01) (254, 1.80032806396484375000e+01) (255, -1.43017983436584472656e+00) (256, -4.72081124782562255859e-01) (0, -6.39821910858154296875e+00) (1, -3.17058730125427246094e+00) (2, -4.74721860885620117188e+00) (3, -4.31973755359649658203e-01) (4, 1.15455150604248046875e+00) (5, 3.72320032119750976562e+00) (6, 1.89465999603271484375e+00) (7, -5.01794147491455078125e+00) (8, 1.07099199295043945312e+00) (9, 5.52232623100280761719e-01) (10, 6.71446979045867919922e-01) (11, 7.51643657684326171875e-01) (12, 8.45860838890075683594e-01) (13, -4.26181852817535400391e-01) (14, 5.20203053951263427734e-01) (15, -3.03148055076599121094e+00) (16, 4.90873352050781250000e+02) (17, -1.10886864364147186279e-01) (18, -5.04293246194720268250e-03) (19, -5.46663939952850341797e-01) (20, -1.89467594027519226074e-01) (21, -6.33102416992187500000e-01) (22, 5.56407165527343750000e+00) (23, 1.09718546271324157715e-01) (24, 4.20926772058010101318e-02) (25, 5.42277097702026367188e-01) (26, 4.86562639474868774414e-01) (27, -7.60016962885856628418e-02) (28, 6.71266937255859375000e+01) (29, -3.66610622406005859375e+00) (30, 5.53216457366943359375e-01) (31, 9.29003179073333740234e-01) (32, -1.11436820030212402344e+00) (33, -4.67484928667545318604e-02) (34, 7.03915432095527648926e-02) (35, 5.55821776390075683594e-01) (36, 8.28262791037559509277e-02) (37, 8.26399326324462890625e-01) (38, -2.00406208634376525879e-01) (39, 8.93410965800285339355e-02) (40, 5.27921915054321289062e-01) (41, 1.79362297058105468750e+00) (42, 4.44380193948745727539e-01) (43, -7.49364122748374938965e-02) (44, 1.92528869628906250000e+02) (45, -4.36864328384399414062e+00) (46, 1.49216247558593750000e+03) (47, 6.42547668457031250000e+02) (48, 4.87113416194915771484e-01) (49, 3.39508920907974243164e-01) (50, 2.23182424902915954590e-01) (51, 3.10252130031585693359e-01) (52, 1.08614869415760040283e-01) (53, 3.91727566719055175781e-01) (54, -2.23296418786048889160e-01) (55, 3.47087979316711425781e-02) (56, 2.95402765274047851562e-01) (57, -9.78106483817100524902e-02) (58, -1.30253568291664123535e-01) (59, -8.20820927619934082031e-02) (60, -4.86493371427059173584e-02) (61, 1.53138184547424316406e+00) (62, -8.41272830963134765625e-01) (63, -7.44620338082313537598e-02) (64, 2.77689129114151000977e-01) (65, 3.79775434732437133789e-01) (66, 2.38848432898521423340e-01) (67, -1.07310563325881958008e-01) (68, -1.02903783321380615234e-01) (69, -1.97095483541488647461e-01) (70, 1.09488360583782196045e-01) (71, -1.20525687932968139648e-01) (72, 2.58718460798263549805e-01) (73, 4.52256463468074798584e-02) (74, -5.23552857339382171631e-02) (75, 1.50092273950576782227e-01) (76, 2.30900138616561889648e-01) (77, 1.77417173981666564941e-01) (78, 9.09564420580863952637e-02) (79, -6.38265013694763183594e-02) (80, 4.39945101737976074219e-01) (81, 4.21246290206909179688e-01) (82, 4.04772758483886718750e-01) (83, 2.54083931446075439453e-01) (84, -1.65183126926422119141e-01) (85, 3.85074801743030548096e-02) (86, -1.13178086280822753906e+00) (87, 1.55037909746170043945e-01) (88, 3.05415958166122436523e-01) (89, 3.77744108438491821289e-01) (90, 2.00732812285423278809e-01) (91, 2.45938405394554138184e-01) (92, 4.01388287544250488281e-01) (93, -1.81828979402780532837e-02) (94, -5.92710673809051513672e-02) (95, 7.47188553214073181152e-02) (96, 3.13635259866714477539e-01) (97, 2.26413711905479431152e-01) (98, 2.65558987855911254883e-01) (99, 1.48073479533195495605e-01) (100, 1.29766151309013366699e-01) (101, 2.45944350957870483398e-01) (102, -2.85142332315444946289e-01) (103, -1.55749523639678955078e+00) (104, 2.18011665344238281250e+00) (105, 3.43024045228958129883e-01) (106, 2.06929370760917663574e-01) (107, 6.60773098468780517578e-01) (108, 1.71764213591814041138e-02) (109, 7.43077456951141357422e-01) (110, 2.90528953075408935547e-01) (111, -2.88823157548904418945e-01) (112, 4.50959920883178710938e-01) (113, 2.45960354804992675781e-01) (114, 2.44749754667282104492e-01) (115, 2.73971199989318847656e-01) (116, 3.02674531936645507812e-01) (117, 2.78204053640365600586e-01) (118, 2.07765623927116394043e-01) (119, 2.33831062912940979004e-01) (120, 4.95333582162857055664e-01) (121, 4.73284423351287841797e-01) (122, 2.70398020744323730469e-01) (123, 6.05120599269866943359e-01) (124, -3.16010147333145141602e-01) (125, 9.54825133085250854492e-02) (126, -7.34378248453140258789e-02) (127, -3.35139930248260498047e-01) (128, 2.49552756547927856445e-01) (129, 3.13286614418029785156e+00) (130, 1.39168694615364074707e-01) (131, 6.49983227252960205078e-01) (132, 1.03622511029243469238e-01) (133, 3.38850617408752441406e-01) (134, 4.40442264080047607422e-01) (135, 5.00710070133209228516e-01) (136, 3.52771818637847900391e-01) (137, 4.10248070955276489258e-01) (138, 4.36462223529815673828e-01) (139, 2.34011113643646240234e-01) (140, 4.43795353174209594727e-01) (141, 5.80754220485687255859e-01) (142, 1.50435552000999450684e-01) (143, -8.66950601339340209961e-02) (144, 2.41176530718803405762e-01) (145, 2.78428286314010620117e-01) (146, 1.26457754522562026978e-02) (147, 1.61866620182991027832e-01) (148, 2.43384003639221191406e-01) (149, 3.79097789525985717773e-01) (150, 1.89779615402221679688e+00) (151, 5.54994046688079833984e-01) (152, 2.74478554725646972656e-01) (153, 2.53736317157745361328e-01) (154, 4.20383960008621215820e-01) (155, 3.44628065824508666992e-01) (156, -2.28770039975643157959e-02) (157, 3.54371815919876098633e-01) (158, 3.13145637512207031250e-01) (159, 4.21070098876953125000e-01) (160, 2.69575208425521850586e-01) (161, 2.52733618021011352539e-01) (162, 2.78494954109191894531e-01) (163, 1.04089165106415748596e-02) (164, -4.29044142365455627441e-02) (165, 1.87229722738265991211e-01) (166, 7.09691420197486877441e-02) (167, 3.40692967176437377930e-01) (168, 2.31371492147445678711e-01) (169, 3.51574093103408813477e-01) (170, 3.18442583084106445312e-01) (171, 3.34846347570419311523e-01) (172, 2.47839346528053283691e-01) (173, -5.65822757780551910400e-02) (174, 2.36414298415184020996e-01) 